tree
version=v4
num_class=1
num_tree_per_iteration=1
label_index=0
max_feature_idx=10
objective=regression
feature_names=total_spent total_spent_in_sheet_last_month total_spent_in_sheet_last_3_months average_spent_in_sheet_last_6_months sheet_spending_trend total_spent_in_category_last_month total_spent_in_category_last_3_months average_spent_in_category_last_6_months category_spending_trend category_spent_percentage_last_month category_spent_percentage_trend
feature_infos=[0:9965905] [0:14902919.316872103] [0:49386051.456215203] [0:11869500.571207624] [-1:1] [0:8358826.6489881966] [0:24817121.841906097] [0:9691460.1222268343] [-1:1] [0:2.7153885743695318] [-1:1]
tree_sizes=1171 1143 1139 1313 982 1151 1140 994 1318 1154 817 1071 1071 825 1059 829 824 1156 918 590 582 665 672 671 747 671 1079 835 1140 1152 909 664 909 840 1073 670 1075 903 993 823 1327 1076 755 756 1074 908 669 756 750 751 828 826 911 832 585 990 1241 1067 746 1072 827 1068 752 1002 746 831 828 667 831 997 909 758 1076 674 830 830 1081 912 755 830 993 749 837 913 671 988 673 1068 831 594 831 749 1086 998 835 997 665 673 751 839

Tree=0
num_leaves=13
num_cat=0
split_feature=1 9 7 9 1 7 9 7 9 9 9 2
split_gain=23177.2 540.5 199.692 126.227 90.0886 64.9903 44.9978 22.293 1.55194 1.72835 1.31347 1.16012
threshold=540862.43208370393 0.10675135203099836 278.00000000000006 0.48442416986389381 7097.0000000000009 230.50000000000003 0.013801674515960202 4906.7500000000009 0.18143637373249136 0.14192033861466316 0.21991010297186406 38670172.91441258
decision_type=2 2 2 2 2 2 2 2 2 2 2 2
left_child=1 2 6 5 -4 -3 -1 -5 9 -2 -10 -12
right_child=8 3 4 7 -6 -7 -8 -9 10 -11 11 -13
leaf_value=9.8448468919569851 12.12108357672448 9.8711640562401683 9.8014948103264512 10.376495655503817 10.24823229439964 10.239735187811535 9.6223043393674406 10.614432708195139 12.073561228498825 12.18855139732397 12.124424224067551 12.079083045286417
leaf_weight=81 56 52 51 67 73 82 238 43 43 46 444 41
leaf_count=81 56 52 51 67 73 82 238 43 43 46 444 41
internal_value=10.9926 9.95654 9.78677 10.2648 10.0645 10.0967 9.67881 10.4695 12.1224 12.1515 12.1168 12.1206
internal_weight=1317 687 443 244 124 134 319 110 630 102 528 485
internal_count=1317 687 443 244 124 134 319 110 630 102 528 485
is_linear=0
shrinkage=1


Tree=1
num_leaves=12
num_cat=0
split_feature=1 0 7 0 0 9 2 7 0 0 2
split_gain=12763.9 362.664 146.432 53.873 37.1663 36.9008 32.9378 9.79115 0.877813 2.02158 1.37831
threshold=540862.43208370393 844.00000000000011 230.50000000000003 4007.0000000000005 250.00000000000003 0.064304774031374121 21448.000000000004 4906.7500000000009 1691235.5000000002 2489136.5000000005 14348306.689546552
decision_type=2 2 2 2 2 2 2 2 2 2 2
left_child=1 2 4 6 -1 -4 -3 -5 -2 -10 -11
right_child=8 3 5 7 -6 -7 -8 -9 9 10 -12
leaf_value=-1.1134262808012207 0.87373113087381138 -0.74520005871663431 -0.81672665454301119 -0.43608433671993585 -0.92630501807623633 -0.57987194053509517 -0.45087436804453085 -0.28134072195388632 0.7910918410947374 0.86978266964808704 0.83441213722848628
leaf_weight=135 42 66 105 74 148 75 41 43 62 88 438
leaf_count=135 42 66 105 74 148 75 41 43 62 88 438
internal_value=-0.000707317 -0.769562 -0.899897 -0.500165 -1.01557 -0.718037 -0.632421 -0.379213 0.837711 0.835138 0.84033
internal_weight=1317 687 463 224 283 180 107 117 630 588 526
internal_count=1317 687 463 224 283 180 107 117 630 588 526
is_linear=0
shrinkage=0.257901


Tree=2
num_leaves=12
num_cat=0
split_feature=1 0 6 6 0 0 0 0 6 2 0
split_gain=7029.24 199.723 77.5521 56.4479 33.4615 21.1379 20.2955 14.5335 0.997092 1.33757 3.05135
threshold=540862.43208370393 844.00000000000011 914.00000000000011 1275.5000000000002 4511.5000000000009 380.00000000000006 992.00000000000011 5299.0000000000009 14790232.466419458 33845536.87735942 7628165.0000000009
decision_type=2 2 2 2 2 2 2 2 2 2 2
left_child=1 2 5 -4 6 -1 -3 -6 9 10 -2
right_child=8 4 3 -5 7 -7 -8 -9 -10 -11 -12
leaf_value=-0.78526614817148754 0.61744145159636699 -0.30668914707634964 -0.31552923708773006 -0.62994980004102885 -0.13580011955381249 -0.59884499764721921 -0.51730457136303043 -0.34909899326710747 0.65865752283143231 0.58690439025766916 0.68849818895925829
leaf_weight=232 465 45 54 128 42 49 94 43 45 76 44
leaf_count=232 465 45 54 128 42 49 94 43 45 76 44
internal_value=-0.000524898 -0.571091 -0.667813 -0.53666 -0.371172 -0.752759 -0.44912 -0.243704 0.621664 0.618819 0.623584
internal_weight=1317 687 463 182 224 281 139 85 630 585 509
internal_count=1317 687 463 182 224 281 139 85 630 585 509
is_linear=0
shrinkage=0.257901


Tree=3
num_leaves=14
num_cat=0
split_feature=1 0 6 6 6 2 3 6 1 1 8 6 2
split_gain=3871.08 111.528 44.6657 30.0329 23.5936 18.3656 17.2267 0.610357 1.23523 1.61752 1.24811 0.730745 1.03039
threshold=540862.43208370393 872.00000000000011 914.00000000000011 1275.5000000000002 15130.500000000002 23652.000000000004 7191.8333333333348 3166258.5606366331 8920976.7036360763 10242748.778397666 -1.0000000180025095e-35 2629459.7498009144 7997935.6387835713
decision_type=2 2 2 2 2 2 2 2 2 2 2 2 2
left_child=1 2 5 -4 6 -1 -3 11 10 -10 -9 12 -2
right_child=7 4 3 -5 -6 -7 -8 8 9 -11 -12 -13 -14
leaf_value=-0.58579424684648707 0.49224657278541051 -0.37472335300179399 -0.23415389984294396 -0.46101800236322227 -0.10706143874195158 -0.40098823445711645 -0.19947789159945462 0.47080426031124573 0.51082091567818466 0.4563649625343647 0.43355794835710154 0.50233049081943271 0.44714867556623084
leaf_weight=241 55 108 54 138 47 42 57 88 53 115 187 45 87
leaf_count=241 55 108 54 138 47 42 57 88 53 115 187 45 87
internal_value=-0.000389525 -0.423806 -0.493227 -0.397212 -0.268265 -0.558367 -0.314184 0.461336 0.456121 0.473545 0.445477 0.473692 0.464616
internal_weight=1317 687 475 192 212 283 165 630 443 168 275 187 142
internal_count=1317 687 475 192 212 283 165 630 443 168 275 187 142
is_linear=0
shrinkage=0.257901


Tree=4
num_leaves=10
num_cat=0
split_feature=0 0 1 1 1 1 9 2 2
split_gain=2146.38 61.764 26.0073 59.5735 32.1682 8.45066 1.18144 0.635602 1.16336
threshold=5963.0000000000009 4007.0000000000005 7097.0000000000009 7458.0000000000009 6496.0000000000009 7297.5000000000009 0.69471292336252599 38670172.91441258 32979421.954653677
decision_type=2 2 2 2 2 2 2 2 2
left_child=1 2 4 -4 -1 -3 7 8 -2
right_child=6 5 3 -5 -6 -7 -8 -9 -10
leaf_value=-0.29895325644370946 0.34465605248493286 -0.086960333695650371 -0.15640146453778717 -0.38989377804774955 -0.47670277529773425 -0.23183331066713736 0.30317561057529158 0.31694880723226077 0.38890598698545614
leaf_weight=113 488 71 121 182 169 43 47 47 43
leaf_count=113 488 71 121 182 169 43 47 47 43
internal_value=-0.00476721 -0.315269 -0.349111 -0.296651 -0.405477 -0.141605 0.342498 0.345695 0.348239
internal_weight=1324 699 585 303 282 114 625 578 531
internal_count=1324 699 585 303 282 114 625 578 531
is_linear=0
shrinkage=0.257901


Tree=5
num_leaves=12
num_cat=0
split_feature=1 9 3 5 3 9 9 8 5 1 3
split_gain=1182.03 28.9012 39.4978 15.7195 13.2714 32.9396 0.781961 1.16378 1.51895 0.937925 0.586059
threshold=540862.43208370393 0.11320301534926526 7881.5000000000009 192.50000000000003 7373.416666666667 0.14483692034042742 0.62880080587500375 -1.0000000180025095e-35 3019533.2123451675 6888862.3127549058 5595480.5606288593
decision_type=2 2 2 2 2 2 2 2 2 2 2
left_child=1 2 3 -1 5 -3 7 8 -2 -9 -8
right_child=6 4 -4 -5 -6 -7 10 9 -10 -11 -12
leaf_value=-0.23324394845391341 0.22547544031521213 0.063917205783770956 -0.040803191428036206 -0.33479825131441204 -0.26543718171895403 -0.1913391393003267 0.25284245456810878 0.25432241195475985 0.27860194011006467 0.28064908650295933 0.21000987809538441
leaf_weight=167 126 46 45 258 58 125 42 201 50 163 43
leaf_count=167 126 46 45 258 58 125 42 201 50 163 43
internal_value=-0.00353774 -0.23396 -0.270566 -0.294893 -0.158832 -0.122674 0.254167 0.257786 0.240568 0.266112 0.231174
internal_weight=1324 699 470 425 229 171 625 540 176 364 85
internal_count=1324 699 470 425 229 171 625 540 176 364 85
is_linear=0
shrinkage=0.257901


Tree=6
num_leaves=12
num_cat=0
split_feature=7 7 1 1 1 0 0 9 5 9 7
split_gain=681.651 60.1023 32.0729 67.34 34.6707 30.5992 11.0952 5.33087 4.97842 2.40852 3.47643
threshold=4988.4166666666679 100.33333333333336 7097.0000000000009 7659.5000000000009 6496.0000000000009 370.50000000000006 1173.0000000000002 0.72130001021861567 250.00000000000003 0.65334748435211953 501083.41721682623
decision_type=2 2 2 2 2 2 2 2 2 2 2
left_child=1 5 4 -4 -3 8 -7 9 -1 10 -2
right_child=7 2 3 -5 -6 6 -8 -9 -10 -11 -12
leaf_value=-0.4138178974314945 0.11881580114781899 -0.047288059615772864 0.094052689768794523 -0.21613781484119371 -0.2814380909283975 -0.24567355671400934 -0.1044034203313422 0.10801053096755275 -0.30454428588215249 0.25077135751680024 0.19283136091559927
leaf_weight=75 46 67 106 83 113 128 52 56 44 42 512
leaf_count=75 46 67 106 83 113 128 52 56 44 42 512
internal_value=-0.00262536 -0.186006 -0.11637 -0.0421685 -0.194282 -0.271945 -0.204862 0.18411 -0.373414 0.191213 0.18673
internal_weight=1324 668 369 189 180 299 180 656 119 600 558
internal_count=1324 668 369 189 180 299 180 656 119 600 558
is_linear=0
shrinkage=0.257901


Tree=7
num_leaves=10
num_cat=0
split_feature=6 3 1 10 3 2 5 6 10
split_gain=370.841 13.4473 16.659 43.2078 22.8646 9.81621 1.02479 1.49531 0.757744
threshold=15255.500000000002 7881.5000000000009 7458.0000000000009 -1.0000000180025095e-35 7605.8333333333348 4241842.0445384728 986641.33135178383 1909269.8739173396 -1.0000000180025095e-35
decision_type=2 2 2 2 2 2 2 2 2
left_child=1 2 3 -1 -4 -2 7 -7 -8
right_child=5 -3 4 -5 -6 6 8 -9 -10
leaf_value=-0.030029405121144336 0.022192933506505797 -0.018816895819539159 -0.29045376261076888 -0.1927060748149714 -0.071039772507367233 0.14314852983643431 0.12205883426017054 0.20421941163929805 0.14373862760572223
leaf_weight=184 49 56 106 265 45 80 156 40 343
leaf_count=184 49 56 106 265 45 80 156 40 343
internal_value=-0.00194827 -0.139682 -0.150962 -0.126041 -0.225065 0.133311 0.142107 0.163505 0.136961
internal_weight=1324 656 600 449 151 668 619 120 499
internal_count=1324 656 600 449 151 668 619 120 499
is_linear=0
shrinkage=0.257901


Tree=8
num_leaves=14
num_cat=0
split_feature=0 9 0 0 1 0 3 8 2 0 8 9 1
split_gain=247.775 59.4899 40.7132 29.783 20.0504 16.5256 1.97759 2.22075 2.75615 1.53528 1.43713 1.56275 1.07375
threshold=5299.0000000000009 0.044631352899069408 365.50000000000006 289.00000000000006 6911.0000000000009 105.50000000000001 3820388.0152567406 1.0000000180025095e-35 11045558.343600674 1982967.0000000002 1.0000000180025095e-35 0.26792621028060642 10180747.931672981
decision_type=2 2 2 2 2 2 2 2 2 2 2 2 2
left_child=1 2 5 -3 -5 -1 7 8 -2 -9 12 -12 -8
right_child=6 3 -4 4 -6 -7 10 9 -10 -11 11 -13 -14
leaf_value=-0.13369404921080155 0.12588444821602371 0.14480591212614013 -0.039767024857896245 -0.15447054737045984 -0.032128375394713415 -0.31769121209984352 0.10797154219304511 0.0183748917096044 0.05142165523009231 0.081351479476490324 0.092748260398165069 0.15009964686474889 0.072973849571195695
leaf_weight=41 94 41 62 162 198 156 196 51 51 52 49 89 83
leaf_count=41 94 41 62 162 198 156 196 51 51 52 49 89 83
internal_value=-0.0137431 -0.12569 -0.222034 -0.0634629 -0.0871824 -0.279397 0.0973621 0.0791252 0.0996941 0.0501689 0.108208 0.129736 0.09756
internal_weight=1325 660 259 401 360 197 665 248 145 103 417 138 279
internal_count=1325 660 259 401 360 197 665 248 145 103 417 138 279
is_linear=0
shrinkage=0.257901


Tree=9
num_leaves=12
num_cat=0
split_feature=0 7 3 7 9 7 9 7 3 2 3
split_gain=138.391 33.7501 29.3468 23.0677 18.3421 17.2677 12.8553 11.4572 5.38058 1.6967 1.61083
threshold=4511.5000000000009 219.33333333333334 7318.666666666667 410.08333333333337 0.040176466793921006 502.66666666666674 0.060972445875132959 132.58333333333337 7753.0000000000009 6160066.6390472362 2026714.0628471149
decision_type=2 2 2 2 2 2 2 2 2 2 2
left_child=1 4 3 -3 7 -4 -6 -1 -2 -10 -11
right_child=8 2 5 -5 6 -7 -8 -9 9 10 -12
leaf_value=-0.1743289978438364 -0.0024862906015782125 0.056884081734666844 0.20784793220285844 -0.14333389432011862 0.031915999031475017 -0.016465015924766086 -0.13519170429023022 -0.32719167788086201 0.12368302666629319 0.024832673695178623 0.075591220496931899
leaf_weight=135 65 52 42 145 42 50 113 43 45 45 548
leaf_count=135 65 52 42 145 42 50 113 43 45 45 548
internal_value=-0.0101987 -0.0988086 -0.0343221 -0.0904845 -0.154774 0.0859387 -0.0899109 -0.211256 0.0682014 0.0754031 0.0717394
internal_weight=1325 622 289 197 333 92 155 178 703 638 593
internal_count=1325 622 289 197 333 92 155 178 703 638 593
is_linear=0
shrinkage=0.257901


Tree=10
num_leaves=8
num_cat=0
split_feature=7 1 1 1 2 1 1
split_gain=80.8687 28.3142 18.4743 15.5066 23.3697 14.4976 6.28571
threshold=936.66666666666686 2633.0000000000005 6911.0000000000009 8138.5000000000009 23271.000000000004 7458.0000000000009 540862.43208370393
decision_type=2 2 2 2 2 2 2
left_child=1 -1 -2 4 -3 -4 -7
right_child=2 3 5 -5 -6 6 -8
leaf_value=0.098369686505076034 -0.1055249463334379 -0.10431049786856592 0.20903497145722558 -0.22771603431636803 0.082473237842080938 -0.048642622046156235 0.055587352526416417
leaf_weight=53 49 409 40 56 50 41 627
leaf_count=53 49 409 40 56 50 41 627
internal_value=-0.00756848 -0.081123 0.0476217 -0.099595 -0.0839637 0.0582208 0.04919
internal_weight=1325 568 757 515 459 708 668
internal_count=1325 568 757 515 459 708 668
is_linear=0
shrinkage=0.257901


Tree=11
num_leaves=11
num_cat=0
split_feature=9 7 6 6 1 5 7 3 5 1
split_gain=51.0962 30.5649 59.6699 47.4967 22.5638 27.2882 14.2986 7.773 3.39874 1.01353
threshold=0.046968960370837608 1.0000000180025095e-35 1275.5000000000002 1559.5000000000002 7176.0000000000009 147.50000000000003 164.25000000000003 4112.2500000000009 489.00000000000006 7052.0000000000009
decision_type=2 2 2 2 2 2 2 2 2 2
left_child=4 8 -3 -4 5 7 -6 -1 -2 -10
right_child=1 2 3 -5 6 -7 -8 -9 9 -11
leaf_value=-0.045664979613057238 -0.14740606647555654 0.33886814160442785 -0.23388661116297671 0.038377417190416402 -0.11223852352520247 0.10425956749940005 -0.28539374612535068 -0.20361594576670064 -0.034748423991554866 -0.082477804775961019
leaf_weight=40 41 42 45 805 79 57 53 43 53 67
leaf_count=40 41 42 45 805 79 57 53 43 53 67
internal_value=-0.00561656 0.0201235 0.0387908 0.0239634 -0.105265 -0.0331378 -0.181763 -0.127495 -0.0833002 -0.0613973
internal_weight=1325 1053 892 850 272 140 132 83 161 120
internal_count=1325 1053 892 850 272 140 132 83 161 120
is_linear=0
shrinkage=0.257901


Tree=12
num_leaves=11
num_cat=0
split_feature=7 1 1 3 7 5 5 8 5 5
split_gain=30.9846 27.7494 82.0681 57.1936 20.5997 11.5523 12.1085 9.89902 9.10795 0.861026
threshold=196.83333333333334 7097.0000000000009 7458.0000000000009 7605.8333333333348 967.91666666666686 142.00000000000003 292.50000000000006 1.0000000180025095e-35 347.50000000000006 1180.0000000000002
decision_type=2 2 2 2 2 2 2 2 2 2
left_child=5 4 -3 -4 8 7 -7 -1 -2 -8
right_child=1 2 3 -5 -6 6 9 -9 -10 -11
leaf_value=-0.065744303257992465 -0.071055287311038676 0.3236225850234693 -0.24162153501461506 0.039047567655147768 0.048255081767361201 -0.18725320230699957 -0.070067089358217149 0.08574657050350741 -0.23077391453076418 -0.02687457926376596
leaf_weight=64 48 64 52 677 55 70 132 52 47 40
leaf_count=64 48 64 52 677 55 70 132 52 47 40
internal_value=-0.000154225 0.0243687 0.04361 0.0190273 -0.0773533 -0.0647497 -0.0968246 0.0021654 -0.150074 -0.0600223
internal_weight=1301 943 793 729 150 358 242 116 95 172
internal_count=1301 943 793 729 150 358 242 116 95 172
is_linear=0
shrinkage=0.257901


Tree=13
num_leaves=8
num_cat=0
split_feature=0 7 5 5 5 5 9
split_gain=17.8548 29.98 22.3606 19.1864 17.7448 10.5962 8.99905
threshold=353.50000000000006 278.00000000000006 301.50000000000006 192.50000000000003 386.00000000000006 214.50000000000003 0.11679260819863996
decision_type=2 2 2 2 2 2 2
left_child=1 2 5 -2 -5 -1 -6
right_child=3 -3 -4 4 6 -7 -8
leaf_value=-0.019085039887210466 0.17818103988574832 -0.25125067507165083 0.1490559964231587 -0.15230437262137525 0.074838273559667962 -0.15428029174547686 0.0045766708711676317
leaf_weight=129 46 45 42 44 143 55 797
leaf_count=129 46 45 42 44 143 55 797
internal_value=-0.00011445 -0.0590159 -0.0207391 0.0153829 0.00777245 -0.0594967 0.0152654
internal_weight=1301 271 226 1030 984 184 940
internal_count=1301 271 226 1030 984 184 940
is_linear=0
shrinkage=0.257901


Tree=14
num_leaves=11
num_cat=0
split_feature=1 1 3 1 2 0 9 2 3 3
split_gain=16.7649 14.8676 35.7951 23.9905 37.1372 11.7569 8.97771 9.81557 7.21083 6.32724
threshold=6911.0000000000009 7176.0000000000009 6977.0000000000009 7394.5000000000009 22275.500000000004 321.50000000000006 0.14192033861466316 19790.000000000004 6603.666666666667 7140.666666666667
decision_type=2 2 2 2 2 2 2 2 2 2
left_child=5 2 -2 9 -5 8 7 -7 -1 -3
right_child=1 3 -4 4 -6 6 -8 -9 -10 -11
leaf_value=-0.058596603579794473 0.26765602065198052 -0.1964563508568237 -0.052513084199805576 0.25101606601657411 0.0052031776839074617 0.12986278574812252 -0.080681567812572616 -0.048647430198006082 -0.19999173542001786 -0.053949672107472188
leaf_weight=47 48 43 45 43 829 42 75 40 49 40
leaf_count=47 48 43 45 43 829 42 75 40 49 40
internal_value=-8.4933e-05 0.0142995 0.112735 0.00471363 0.0173247 -0.0596696 -0.016196 0.0427846 -0.130767 -0.127778
internal_weight=1301 1048 93 955 872 253 157 82 96 83
internal_count=1301 1048 93 955 872 253 157 82 96 83
is_linear=0
shrinkage=0.257901


Tree=15
num_leaves=8
num_cat=0
split_feature=6 5 2 0 5 6 2
split_gain=19.9868 40.042 15.3443 10.7532 6.89454 6.86206 1.8164
threshold=349.00000000000006 179.50000000000003 20752.000000000004 273.50000000000006 292.50000000000006 1275.5000000000002 20256.000000000004
decision_type=2 2 2 2 2 2 2
left_child=3 -2 5 -1 -4 -3 -5
right_child=1 2 4 6 -6 -7 -8
leaf_value=-0.16691261960716849 0.20129090353464699 -0.15338523100110793 -0.083698517558521535 0.0031818880748623237 0.017732827414382323 -0.036939562820398696 -0.063894816771979182
leaf_weight=63 70 51 47 50 863 99 58
leaf_count=63 70 51 47 50 863 99 58
internal_value=-6.30288e-05 0.0123719 -0.000103834 -0.0822357 0.0124941 -0.0765311 -0.0328408
internal_weight=1301 1130 1060 171 910 150 108
internal_count=1301 1130 1060 171 910 150 108
is_linear=0
shrinkage=0.257901


Tree=16
num_leaves=8
num_cat=0
split_feature=1 1 1 1 7 3 1
split_gain=12.4698 9.67201 40.1516 21.3375 44.475 14.1871 8.75841
threshold=2564.5000000000005 7297.5000000000009 7374.5000000000009 6911.0000000000009 123.50000000000001 6322.3333333333348 7659.5000000000009
decision_type=2 2 2 2 2 2 2
left_child=-1 3 -3 5 -5 -2 -4
right_child=1 2 6 4 -6 -7 -8
leaf_value=-0.1311815466380577 0.12328492132554845 -0.25150800313081073 0.084690046260064003 -0.052230589291448561 0.26461346920546625 -0.040352549648104696 -0.0070424023241064228
leaf_weight=48 44 44 76 52 68 177 777
leaf_count=48 44 44 76 52 68 177 777
internal_value=-0.00220739 0.00279322 -0.0112618 0.039765 0.127314 -0.00777314 0.00113071
internal_weight=1286 1238 897 341 120 221 853
internal_count=1286 1238 897 341 120 221 853
is_linear=0
shrinkage=0.257901


Tree=17
num_leaves=12
num_cat=0
split_feature=0 6 1 1 1 1 7 0 0 3 5
split_gain=8.49346 15.1722 27.6349 16.8626 28.5718 16.1377 9.18373 8.73878 8.42827 1.1948 1.33255
threshold=4007.0000000000005 1241.5000000000002 6973.0000000000009 6751.5000000000009 7458.0000000000009 7565.5000000000009 164.25000000000003 5379.0000000000009 643.50000000000011 1124905.3202088571 1018833.8131922985
decision_type=2 2 2 2 2 2 2 2 2 2 2
left_child=1 3 8 6 -5 -4 -1 -2 -3 -9 -11
right_child=7 2 5 4 -6 -7 -8 9 -10 10 -12
leaf_value=-0.016650939772819916 0.098915803523174139 -0.063857246977478327 -0.25783066593489862 0.14037032708122585 -0.050210287424064991 -0.074149207418732099 -0.16614234425824889 -0.034009226196959334 0.090575996982330959 0.033846154060261084 0.0038622151736141721
leaf_weight=82 77 40 57 115 96 72 41 44 57 124 481
leaf_count=82 77 40 57 115 96 72 41 44 57 124 481
internal_value=-0.0016381 -0.0255024 -0.0771086 0.00941673 0.0536607 -0.155311 -0.0664814 0.0167696 0.0268922 0.00702349 0.0100077
internal_weight=1286 560 226 334 211 129 123 726 97 649 605
internal_count=1286 560 226 334 211 129 123 726 97 649 605
is_linear=0
shrinkage=0.257901


Tree=18
num_leaves=9
num_cat=0
split_feature=3 6 7 7 2 0 0 0
split_gain=8.20722 9.22954 30.4716 10.2399 12.4121 10.0428 4.54532 0.514436
threshold=5280.2500000000009 533.50000000000011 1.0000000180025095e-35 1034.0000000000002 22063.500000000004 704.00000000000011 601.50000000000011 484.50000000000006
decision_type=2 2 2 2 2 2 2 2
left_child=6 2 7 5 -5 -3 -1 -2
right_child=1 3 -4 4 -6 -7 -8 -9
leaf_value=-0.12182190730253295 -0.028449775317612027 -0.012050038177195714 0.24487820727730375 0.13670753555899687 0.0045580659873256865 -0.10949822918751496 -0.011962911355399203 0.0086708708395048153
leaf_weight=55 57 243 44 51 647 99 46 44
leaf_count=55 57 243 44 51 647 99 46 44
internal_value=-0.00121564 0.00479932 0.0657553 -0.00369936 0.0142137 -0.0402587 -0.0717871 -0.0122784
internal_weight=1286 1185 145 1040 698 342 101 101
internal_count=1286 1185 145 1040 698 342 101 101
is_linear=0
shrinkage=0.257901


Tree=19
num_leaves=5
num_cat=0
split_feature=1 1 2 1
split_gain=5.0702 5.13358 8.97365 7.35825
threshold=2564.5000000000005 6252.5000000000009 19369.500000000004 7297.5000000000009
decision_type=2 2 2 2
left_child=-1 -2 -3 -4
right_child=1 2 3 -5
leaf_value=-0.083142476196283593 0.093173430869214466 -0.10061338331101001 0.042943592108927064 -0.0068420930600547542
leaf_weight=48 40 57 254 887
leaf_count=48 40 57 254 887
internal_value=-0.000902122 0.00228652 -0.000748103 0.00424079
internal_weight=1286 1238 1198 1141
internal_count=1286 1238 1198 1141
is_linear=0
shrinkage=0.257901


Tree=20
num_leaves=5
num_cat=0
split_feature=0 0 0 3
split_gain=8.25887 9.94036 11.6832 9.74828
threshold=133.50000000000003 190.50000000000003 265.50000000000006 6913.8333333333348
decision_type=2 2 2 2
left_child=-1 -2 -3 -4
right_child=1 2 3 -5
leaf_value=-0.076950183853222096 0.1299492817480247 -0.1003589587813615 -0.039972295279395054 0.022140644792092153
leaf_weight=78 44 66 204 954
leaf_count=78 44 66 204 954
internal_value=0.00450207 0.00951254 0.00518312 0.0111985
internal_weight=1346 1268 1224 1158
internal_count=1346 1268 1224 1158
is_linear=0
shrinkage=0.257901


Tree=21
num_leaves=6
num_cat=0
split_feature=1 1 0 9 1
split_gain=8.64702 11.3104 5.99324 11.9137 10.2217
threshold=2633.0000000000005 6458.5000000000009 265.50000000000006 0.035076214874619906 7214.5000000000009
decision_type=2 2 2 2 2
left_child=-1 -2 4 -4 -3
right_child=1 2 3 -5 -6
leaf_value=0.1096905603781652 -0.097890662530699793 0.035792585673013931 0.10782894204979498 0.004361065941589172 -0.099665570022973576
leaf_weight=49 75 64 80 990 88
leaf_count=49 75 64 80 990 88
internal_value=0.00334098 -0.000676849 0.00528963 0.012097 -0.0426306
internal_weight=1346 1297 1222 1070 152
internal_count=1346 1297 1222 1070 152
is_linear=0
shrinkage=0.257901


Tree=22
num_leaves=6
num_cat=0
split_feature=9 9 5 9 6
split_gain=4.72226 9.9619 4.90114 23.2691 8.87452
threshold=0.7618746247155529 0.68036080310574254 214.50000000000003 0.020814817037476955 1648.5000000000002
decision_type=2 2 2 2 2
left_child=1 2 3 -1 -4
right_child=-2 -3 4 -5 -6
leaf_value=-0.025785112629770152 -0.078728517213529997 0.1053913082087045 -0.044950412266931167 0.17544785009499475 0.0080609746637450887
leaf_weight=116 46 63 288 57 776
leaf_count=116 46 63 288 57 776
internal_value=0.00247934 0.00535285 0.000257924 0.0405171 -0.00628797
internal_weight=1346 1300 1237 173 1064
internal_count=1346 1300 1237 173 1064
is_linear=0
shrinkage=0.257901


Tree=23
num_leaves=6
num_cat=0
split_feature=2 2 2 2 7
split_gain=4.45703 8.99733 6.19455 15.0984 13.1423
threshold=7419.0000000000009 17298.500000000004 21448.000000000004 22275.500000000004 286.75000000000006
decision_type=2 2 2 2 2
left_child=-1 -2 4 -4 -3
right_child=1 2 3 -5 -6
leaf_value=-0.081887321902486918 0.12337166165611939 0.015220616552354739 0.10225263194472134 -0.00081529987587703693 -0.096854740752975968
leaf_weight=41 41 162 106 874 122
leaf_count=41 41 162 106 874 122
internal_value=0.00183992 0.00447043 0.000613662 0.0103329 -0.0329244
internal_weight=1346 1305 1264 980 284
internal_count=1346 1305 1264 980 284
is_linear=0
shrinkage=0.257901


Tree=24
num_leaves=7
num_cat=0
split_feature=1 1 2 4 1 2
split_gain=22.3796 6.11931 36.9458 20.6409 14.6113 3.07221
threshold=2633.0000000000005 7982.5000000000009 24415.500000000004 1.0000000180025095e-35 7846.5000000000009 4241842.0445384728
decision_type=2 2 2 2 2 2
left_child=-1 3 -3 4 -2 -4
right_child=1 2 5 -5 -6 -7
leaf_value=0.16261334846778364 -0.027883431444857786 0.2511521683746149 -0.065392321753323782 0.13782186278969458 -0.18843102899481623 0.0010052318657369609
leaf_weight=55 469 40 50 47 41 635
leaf_count=55 469 40 50 47 41 635
internal_value=0.00152068 -0.00539047 0.0102273 -0.0257188 -0.0407902 -0.0038413
internal_weight=1337 1282 725 557 510 685
internal_count=1337 1282 725 557 510 685
is_linear=0
shrinkage=0.257901


Tree=25
num_leaves=6
num_cat=0
split_feature=1 3 2 1 3
split_gain=12.3247 9.53122 8.38519 7.83303 1.48102
threshold=2633.0000000000005 6230.166666666667 19625.500000000004 6788.5000000000009 1.0000000180025095e-35
decision_type=2 2 2 2 2
left_child=-1 4 -3 -4 -2
right_child=1 2 3 -5 -6
leaf_value=0.1206751973799092 -0.051341439458454458 0.087249768260330693 -0.071687380765086059 0.0032599977947068812 -0.11954503164967568
leaf_weight=55 40 72 102 1023 45
leaf_count=55 40 72 102 1023 45
internal_value=0.0011285 -0.00400026 0.00192552 -0.00353523 -0.0874492
internal_weight=1337 1282 1197 1125 85
internal_count=1337 1282 1197 1125 85
is_linear=0
shrinkage=0.257901


Tree=26
num_leaves=11
num_cat=0
split_feature=10 6 6 0 6 7 6 7 3 0
split_gain=7.87126 23.0177 14.5005 58.4912 13.5355 11.6528 7.79598 29.0844 11.649 6.86277
threshold=1.0000000180025095e-35 475.00000000000006 1602.5000000000002 992.00000000000011 15008.000000000002 432.41666666666669 1573.0000000000002 207.83333333333331 7040.8333333333348 165.50000000000003
decision_type=2 2 2 2 2 2 2 2 2 2
left_child=2 -2 5 -4 -5 9 7 -3 -8 -1
right_child=1 6 3 4 -6 -7 8 -9 -10 -11
leaf_value=-0.11103655067688153 0.19818463412065696 -0.093959522262354642 0.29538251343659649 -0.15489017193283644 -0.0019298168590278916 -0.19034020847889344 -0.12018813979980562 0.16546486608657246 0.0096752913726310934 -0.014562623213018891
leaf_weight=67 47 47 44 42 459 40 55 74 279 183
leaf_count=67 47 47 44 42 459 40 55 74 279 183
internal_value=0.000837456 0.0263586 -0.0145058 0.0102856 -0.0147528 -0.0610966 0.00860958 0.0646967 -0.0117094 -0.0404176
internal_weight=1337 502 835 545 501 290 455 121 334 250
internal_count=1337 502 835 545 501 290 455 121 334 250
is_linear=0
shrinkage=0.257901


Tree=27
num_leaves=8
num_cat=0
split_feature=1 10 5 3 5 9 6
split_gain=6.65577 9.35618 28.2511 5.33102 7.02618 15.0124 6.12154
threshold=6496.0000000000009 1.0000000180025095e-35 528.00000000000011 6794.666666666667 124.50000000000001 0.029504952467901305 683.00000000000011
decision_type=2 2 2 2 2 2 2
left_child=1 -1 -3 6 -5 -6 -2
right_child=3 2 -4 4 5 -7 -8
leaf_value=-0.023399277847094772 -0.0026038284995484285 0.26185249049593734 -0.037363060105077707 0.10670032409494731 -0.14274674105824672 0.0036171302441613609 -0.10847018244548977
leaf_weight=62 78 41 43 40 49 956 68
leaf_count=62 78 41 43 40 49 956 68
internal_value=0.000621476 0.052593 0.108683 -0.00574951 0.000699904 -0.00351902 -0.0519114
internal_weight=1337 146 84 1191 1045 1005 146
internal_count=1337 146 84 1191 1045 1005 146
is_linear=0
shrinkage=0.257901


Tree=28
num_leaves=12
num_cat=0
split_feature=5 1 6 9 5 2 6 3 1 1 1
split_gain=13.7893 29.3073 30.3597 26.1733 12.9148 17.8288 10.88 6.43377 25.725 6.99713 3.50767
threshold=428.00000000000006 7097.0000000000009 653.00000000000011 0.018955467816422104 155.00000000000003 19790.000000000004 1559.5000000000002 6913.8333333333348 7659.5000000000009 6731.5000000000009 7519.0000000000009
decision_type=2 2 2 2 2 2 2 2 2 2 2
left_child=1 4 3 -3 -1 -6 10 9 -9 -8 -2
right_child=6 2 -4 -5 5 -7 7 8 -10 -11 -12
leaf_value=-0.10200239372496051 -0.04472778232517409 0.17946069974282122 0.25746251531348679 -0.097582779490472005 0.17111768377001096 -0.06314079254404982 0.0030152265493509837 0.13372957247468745 -0.0069288429275368678 -0.14235652688497746 -0.1396259340307747
leaf_weight=74 63 43 72 48 40 47 49 99 684 40 44
leaf_count=74 63 43 72 48 40 47 49 99 684 40 44
internal_value=0.0091259 0.055244 0.132332 0.0333279 -0.0228018 0.0445643 -0.00613688 0.00338691 0.0108556 -0.0623204 -0.0837513
internal_weight=1303 324 163 91 161 87 979 872 783 89 107
internal_count=1303 324 163 91 161 87 979 872 783 89 107
is_linear=0
shrinkage=0.257901


Tree=29
num_leaves=12
num_cat=0
split_feature=7 7 1 1 9 5 7 1 3 6 2
split_gain=10.3399 37.6824 37.3686 28.5619 15.7844 21.1738 12.07 6.95827 8.10901 6.28726 2.95637
threshold=1.0000000180025095e-35 463.50000000000006 7097.0000000000009 7659.5000000000009 0.095746296979935114 967.00000000000011 235.49999999999997 6252.5000000000009 7839.0000000000009 1602.5000000000002 20683.000000000004
decision_type=2 2 2 2 2 2 2 2 2 2 2
left_child=7 2 6 -4 9 -6 -2 -1 10 -3 -9
right_child=1 4 3 -5 5 -7 -8 8 -10 -11 -12
leaf_value=-0.13258870036924689 0.10112524754436995 -0.17904712741506593 0.3750783739940326 0.088816182612127773 0.18364082047202065 -0.002652291177518808 -0.095585816095250478 0.040953075937869898 -0.12412718929988611 -0.036991392728060263 -0.023757072149878728
leaf_weight=43 41 43 49 44 43 721 42 78 41 40 118
leaf_count=43 41 43 49 44 43 721 42 78 41 40 118
internal_value=0.00677232 0.0187916 0.127377 0.239642 -0.00377146 0.00783279 0.00158471 -0.0371412 -0.0198237 -0.110587 0.00199493
internal_weight=1303 1023 176 93 847 764 83 280 237 83 196
internal_count=1303 1023 176 93 847 764 83 280 237 83 196
is_linear=0
shrinkage=0.257901


Tree=30
num_leaves=9
num_cat=0
split_feature=7 7 0 7 0 1 2 9
split_gain=5.69429 21.2955 10.2872 29.8533 12.8842 3.832 3.55581 2.81609
threshold=1.0000000180025095e-35 172.58333333333334 284.50000000000006 463.50000000000006 165.50000000000003 6252.5000000000009 20683.000000000004 0.046968960370837608
decision_type=2 2 2 2 2 2 2 2
left_child=5 -2 4 -4 -3 -1 -7 -8
right_child=1 2 3 -5 -6 6 7 -9
leaf_value=-0.098393937362639738 0.19605092001272514 0.02482158777625941 0.18132541643610797 0.0011338995665685766 -0.17853406866839616 0.030391235552157368 -0.083384929246569345 -0.011529092203882098
leaf_weight=43 41 40 66 833 43 78 56 103
leaf_count=43 41 40 66 833 43 78 56 103
internal_value=0.00502573 0.0139453 0.00634207 0.0143626 -0.0805313 -0.0275624 -0.0147111 -0.0368368
internal_weight=1303 1023 982 899 83 280 237 159
internal_count=1303 1023 982 899 83 280 237 159
is_linear=0
shrinkage=0.257901


Tree=31
num_leaves=6
num_cat=0
split_feature=1 0 0 5 6
split_gain=3.75737 7.61363 17.2737 6.31483 2.6427
threshold=2633.0000000000005 108.50000000000001 226.50000000000003 155.00000000000003 606.00000000000011
decision_type=2 2 2 2 2
left_child=-1 -2 4 -4 -3
right_child=1 2 3 -5 -6
leaf_value=0.073790136101118897 0.10763635760530553 -0.15855076506763405 0.086081443738023733 0.0013924510248219404 -0.070986954606658631
leaf_weight=49 43 41 62 1056 52
leaf_count=49 43 41 62 1056 52
internal_value=0.00372959 0.000991976 -0.00279474 0.00608898 -0.10959
internal_weight=1303 1254 1211 1118 93
internal_count=1303 1254 1211 1118 93
is_linear=0
shrinkage=0.257901


Tree=32
num_leaves=9
num_cat=0
split_feature=1 1 1 9 3 1 1 3
split_gain=15.3757 38.6473 32.8258 14.3813 19.8581 16.0783 1.90842 0.959818
threshold=7982.5000000000009 8271.0000000000018 7694.5000000000009 0.017771041844221905 5516.5000000000009 7394.5000000000009 8680.5000000000018 1520001.0214707518
decision_type=2 2 2 2 2 2 2 2
left_child=2 -2 3 4 -1 -5 -3 -8
right_child=1 6 -4 5 -6 -7 7 -9
leaf_value=-0.0036077270328938303 0.25161651551018072 -0.050932985053009423 -0.19827560101225181 -0.020472553419595679 -0.24740438934837719 0.11357300797248483 0.040645116857093155 0.00081450871701866984
leaf_weight=50 43 46 77 368 40 71 43 627
leaf_count=50 43 46 77 368 40 71 43 627
internal_value=-0.0103143 0.0141436 -0.0409472 -0.0180468 -0.111962 0.0012068 -0.000117989 0.0033708
internal_weight=1365 759 606 529 90 439 716 670
internal_count=1365 759 606 529 90 439 716 670
is_linear=0
shrinkage=0.257901


Tree=33
num_leaves=8
num_cat=0
split_feature=0 4 1 10 7 2 1
split_gain=12.0409 6.80336 18.7808 6.14011 10.8184 4.81997 1.13301
threshold=133.50000000000003 -1.0000000180025095e-35 8372.0000000000018 -1.0000000180025095e-35 247.91666666666666 11897.000000000002 6997089.3262411989
decision_type=2 2 2 2 2 2 2
left_child=-1 2 -2 4 -3 -5 -4
right_child=1 3 6 5 -6 -7 -8
leaf_value=-0.1088267293549606 -0.18655882779115115 0.057850286193117682 -0.023154273903970176 0.10481245432664728 -0.041618397019457506 0.017221046186832716 0.014341571007865976
leaf_weight=74 47 96 123 45 300 585 95
leaf_count=74 47 96 123 45 300 585 95
internal_value=-0.0076542 -0.001855 -0.0386936 0.00765983 -0.0175048 0.0234776 -0.00681434
internal_weight=1365 1291 265 1026 396 630 218
internal_count=1365 1291 265 1026 396 630 218
is_linear=0
shrinkage=0.257901


Tree=34
num_leaves=11
num_cat=0
split_feature=1 1 1 1 1 1 5 7 1 5
split_gain=7.88464 22.6866 17.0339 22.1732 15.747 4.09697 17.6205 4.26059 1.11824 0.696788
threshold=7982.5000000000009 8271.0000000000018 6991.0000000000009 7145.0000000000009 7694.5000000000009 6496.0000000000009 308.00000000000006 100.33333333333336 8680.5000000000018 496403.064833902
decision_type=2 2 2 2 2 2 2 2 2 2
left_child=2 -2 5 -4 -5 6 -1 -7 -3 -10
right_child=1 8 3 4 -6 7 -8 -9 9 -11
leaf_value=0.16805804483167844 0.19377886525402924 -0.037990242579691927 -0.23433564322044456 0.0021954203197993814 -0.13813174949503959 0.036761179034816467 -0.023274127780397245 -0.045516406208348154 0.0349487487341162 0.0013728833091072566
leaf_weight=51 43 46 47 172 77 71 86 102 44 626
leaf_count=51 43 46 47 172 77 71 86 102 44 626
internal_value=-0.00568018 0.0118341 -0.0276164 -0.0718659 -0.0411989 0.0146347 0.0479517 -0.0117493 0.000907289 0.00357787
internal_weight=1365 759 606 296 249 310 137 173 716 670
internal_count=1365 759 606 296 249 310 137 173 716 670
is_linear=0
shrinkage=0.257901


Tree=35
num_leaves=6
num_cat=0
split_feature=5 5 5 5 5
split_gain=8.87164 9.3502 6.48844 10.8933 5.43749
threshold=104.00000000000001 186.50000000000003 250.00000000000003 308.00000000000006 1.0000000180025095e-35
decision_type=2 2 2 2 2
left_child=4 -2 -3 -4 -1
right_child=1 2 3 -5 -6
leaf_value=-0.024923089705599453 0.10259869182839051 -0.09533089902857339 0.11584583070634752 -0.0049230644534201838 -0.14968729415529422
leaf_weight=52 58 49 52 1112 42
leaf_count=52 58 49 52 1112 42
internal_value=-0.00421525 0.00143906 -0.00339792 0.00047211 -0.0806688
internal_weight=1365 1271 1213 1164 94
internal_count=1365 1271 1213 1164 94
is_linear=0
shrinkage=0.257901


Tree=36
num_leaves=11
num_cat=0
split_feature=5 5 7 10 5 8 2 0 5 5
split_gain=11.7281 14.8752 22.2685 19.482 14.4266 15.3473 5.92511 5.34707 4.68344 1.90801
threshold=258.50000000000006 608.50000000000011 137.58333333333334 1.0000000180025095e-35 119.50000000000001 1.0000000180025095e-35 19521.000000000004 173.00000000000003 817.50000000000011 371.50000000000006
decision_type=2 2 2 2 2 2 2 2 2 2
left_child=4 2 9 -4 5 -1 -3 -6 -8 -2
right_child=1 6 3 -5 7 -7 8 -9 -10 -11
leaf_value=-0.063369538889952823 -0.053617393621141839 -0.080469987586819017 0.034220347130725033 0.25573745766447198 -0.041041952461583445 0.13646568914400883 0.090999675445281786 -0.15962943135837021 0.0055324170333760385 0.024142656881796138
leaf_weight=61 43 51 46 62 41 44 45 66 815 41
leaf_count=61 43 51 46 62 41 44 45 66 815 41
internal_value=0.00801124 0.0186891 0.0839279 0.161388 -0.0475439 0.0203709 0.00493956 -0.114189 0.0100045 -0.0156631
internal_weight=1315 1103 192 108 212 105 911 107 860 84
internal_count=1315 1103 192 108 212 105 911 107 860 84
is_linear=0
shrinkage=0.257901


Tree=37
num_leaves=9
num_cat=0
split_feature=5 5 7 3 5 6 5 3
split_gain=6.86055 24.7867 22.2975 22.9917 29.5542 20.2027 3.2009 4.20698
threshold=359.50000000000006 428.00000000000006 286.75000000000006 6938.8333333333348 86.500000000000014 451.50000000000006 608.50000000000011 5982.6666666666679
decision_type=2 2 2 2 2 2 2 2
left_child=2 -2 3 4 -1 -5 -3 -8
right_child=1 6 -4 5 -6 -7 7 -9
leaf_value=-0.057941619502624588 0.21239969245445486 0.061278367410235145 -0.20036646309088468 0.042120705233249615 0.1918201648137145 -0.16830646929353094 -0.078116464017978032 0.0074214190575770207
leaf_weight=58 41 69 43 53 69 71 40 871
leaf_count=58 41 69 43 53 69 71 40 871
internal_value=0.00594513 0.0159412 -0.0287692 0.00062795 0.0777557 -0.0783658 0.00772205 0.00366564
internal_weight=1315 1021 294 251 127 124 980 911
internal_count=1315 1021 294 251 127 124 980 911
is_linear=0
shrinkage=0.257901


Tree=38
num_leaves=10
num_cat=0
split_feature=1 3 1 7 7 7 1 1 7
split_gain=4.708 52.1185 11.5037 8.26304 31.6892 15.1123 1.4178 1.22421 0.982129
threshold=8138.5000000000009 7774.8333333333348 8680.5000000000018 463.50000000000006 556.66666666666686 286.75000000000006 3298080.692905277 2164549.798836349 5889937.5697943484
decision_type=2 2 2 2 2 2 2 2 2
left_child=1 3 -2 5 -5 -1 7 -4 -8
right_child=2 -3 6 4 -6 -7 8 -9 -10
leaf_value=-0.0049513449645029002 -0.11920700381454542 0.27046240833817714 -0.0016099971377758059 0.21181622897714175 -0.022794443335765486 -0.16555136692586103 -0.0094862301420236255 0.05028813672487311 0.031690469372804279
leaf_weight=341 59 51 59 53 138 44 466 62 42
leaf_count=341 59 51 59 53 138 44 466 62 42
internal_value=0.00441188 0.0205766 -0.0103197 -0.00154868 0.0423069 -0.0233056 -0.000106055 0.0249824 -0.00608186
internal_weight=1315 627 688 576 191 385 629 121 508
internal_count=1315 627 688 576 191 385 629 121 508
is_linear=0
shrinkage=0.257901


Tree=39
num_leaves=8
num_cat=0
split_feature=1 1 1 3 3 0 3
split_gain=4.03658 4.234 30.9506 63.3381 34.8241 7.77903 1.22273
threshold=2564.5000000000005 8138.5000000000009 7639.0000000000009 7690.166666666667 7384.3333333333348 5528.0000000000009 1627050.3692188913
decision_type=2 2 2 2 2 2 2
left_child=-1 2 4 -4 -2 -3 -7
right_child=1 5 3 -5 -6 6 -8
leaf_value=-0.070943687036934544 0.024960601920766906 -0.1006923121845883 -0.014577516488425814 0.39429247043206894 -0.16451488299370043 0.037921992757761119 -0.0030010918772817256
leaf_weight=47 398 55 63 42 77 53 580
leaf_count=47 398 55 63 42 77 53 580
internal_value=0.00327405 0.00602502 0.0222562 0.14897 -0.00575437 -0.0076582 0.000425328
internal_weight=1315 1268 580 105 475 688 633
internal_count=1315 1268 580 105 475 688 633
is_linear=0
shrinkage=0.257901


Tree=40
num_leaves=14
num_cat=0
split_feature=8 7 6 7 1 1 7 5 1 1 1 5 9
split_gain=6.1698 22.7173 31.7751 26.0407 16.2195 12.439 21.1841 42.5433 15.4935 8.41826 7.44803 1.98947 1.49228
threshold=-1.0000000180025095e-35 528.75000000000011 3117.5000000000005 100.33333333333336 7132.0000000000009 7458.0000000000009 123.50000000000001 528.00000000000011 7874.5000000000009 7639.0000000000009 8351.0000000000018 1.0000000180025095e-35 0.095746296979935114
decision_type=2 2 2 2 2 2 2 2 2 2 2 2 2
left_child=1 3 -3 12 -5 6 11 -8 -7 -4 -10 -2 -1
right_child=5 2 9 4 -6 8 7 -9 10 -11 -12 -13 -14
leaf_value=0.015757876013304434 0.023281048645782555 0.2320632071608619 -0.12054960085294666 -0.080177007701055056 -0.29360065575091382 -0.1426441371619164 0.25470992042583585 -0.045507438281833325 0.10552310027961606 0.0054989635297826031 -0.0079730946450106803 -0.047207149873984611 -0.0427539781037111
leaf_weight=64 41 40 42 45 50 55 75 54 42 219 456 76 53
leaf_count=64 41 40 42 45 50 55 75 54 42 219 456 76 53
internal_value=-0.00545602 -0.0275278 0.018019 -0.0921955 -0.192505 0.00871519 0.0569619 0.129038 -0.0127472 -0.0147847 0.00159887 -0.0225062 -0.0107475
internal_weight=1312 513 301 212 95 799 246 129 553 261 498 117 117
internal_count=1312 513 301 212 95 799 246 129 553 261 498 117 117
is_linear=0
shrinkage=0.257901


Tree=41
num_leaves=11
num_cat=0
split_feature=0 7 2 3 2 3 2 0 2 7
split_gain=11.1205 14.3804 7.98165 29.6276 10.8347 7.96122 11.119 7.07283 7.65995 5.2365
threshold=353.50000000000006 278.00000000000006 22275.500000000004 7213.8333333333348 20887.000000000004 6400.416666666667 22418.500000000004 5210.5000000000009 23271.000000000004 324379.59714134218
decision_type=2 2 2 2 2 2 2 2 2 2
left_child=1 5 3 4 -2 -1 -7 8 -4 -9
right_child=2 -3 7 -5 -6 6 -8 9 -10 -11
leaf_value=0.065088094613608802 0.046138525679294502 -0.18844187262612713 -0.15215548813083049 0.2339412495859241 -0.070237231891756055 -0.10358195599600217 0.037595488716162105 0.088505679846377597 -0.0090336828406757264 -0.0025929197706645031
leaf_weight=50 163 43 43 46 79 103 58 45 59 623
leaf_count=50 163 43 43 46 79 103 58 45 59 623
internal_value=-0.00404891 -0.0525079 0.0075849 0.0442123 0.00814809 -0.0248057 -0.052723 -0.00611468 -0.0693693 0.00354396
internal_weight=1312 254 1058 288 242 211 161 770 102 668
internal_count=1312 254 1058 288 242 211 161 770 102 668
is_linear=0
shrinkage=0.257901


Tree=42
num_leaves=7
num_cat=0
split_feature=0 5 9 3 9 9
split_gain=7.50247 7.69665 14.9176 13.1759 18.0833 8.07207
threshold=105.50000000000001 243.00000000000003 0.047813531328828311 5280.2500000000009 0.023915218621261954 0.065815302165323913
decision_type=2 2 2 2 2 2
left_child=-1 3 -3 -2 -5 -4
right_child=1 2 5 4 -6 -7
leaf_value=-0.10418234914414329 -0.051181887873807418 -0.12123069886281124 0.090433748221442484 0.020014629200260085 0.23780076487532958 -0.0048266051928115882
leaf_weight=47 53 71 63 64 42 972
leaf_count=47 53 71 63 64 42 972
internal_value=-0.00300469 0.000754478 -0.00687298 0.0538109 0.106307 0.000971851
internal_weight=1312 1265 1106 159 106 1035
internal_count=1312 1265 1106 159 106 1035
is_linear=0
shrinkage=0.257901


Tree=43
num_leaves=7
num_cat=0
split_feature=9 6 6 1 7 6
split_gain=5.82402 6.15272 14.5196 8.66903 10.0089 6.58231
threshold=0.0036843436510708007 579.50000000000011 801.00000000000011 7659.5000000000009 110.25000000000001 1529.5000000000002
decision_type=2 2 2 2 2 2
left_child=-1 3 -3 4 -2 -4
right_child=1 2 5 -5 -6 -7
leaf_value=0.078397483936868684 -0.036054668728897475 0.14161049946342483 -0.058743332619575345 0.048775780203937164 -0.18926421394107945 0.0029310655110621154
leaf_weight=57 92 47 132 44 41 899
leaf_count=57 92 47 132 44 41 899
internal_value=-0.00222978 -0.00589173 0.00142542 -0.0504561 -0.0832847 -0.00496517
internal_weight=1312 1255 1078 177 133 1031
internal_count=1312 1255 1078 177 133 1031
is_linear=0
shrinkage=0.257901


Tree=44
num_leaves=11
num_cat=0
split_feature=9 5 2 3 2 3 3 9 1 3
split_gain=5.01934 19.3278 10.2287 29.7321 15.5634 12.3254 10.0158 6.82546 4.71818 3.98856
threshold=0.08578386356639206 967.00000000000011 20329.500000000004 6913.8333333333348 21951.000000000004 5695.5000000000009 6913.8333333333348 0.15786924772523908 8381.5000000000018 7311.916666666667
decision_type=2 2 2 2 2 2 2 2 2 2
left_child=2 6 5 -4 -5 -1 -2 8 -3 -9
right_child=1 7 3 4 -6 -7 -8 9 -10 -11
leaf_value=0.012869532801707682 0.039721947892784423 -0.12958277242478558 0.18948509779043676 -0.14597090018348829 0.0069173528437304153 -0.14881697848421843 0.19542888545426429 0.062636916969126322 -0.022101269505506504 -0.0021478758762196047
leaf_weight=52 61 44 47 62 155 79 50 71 71 576
leaf_count=52 61 44 47 62 155 79 50 71 71 576
internal_value=-0.00159766 0.00931695 -0.0257203 0.00351437 -0.036765 -0.0846361 0.10986 -0.00532912 -0.0632246 0.00496143
internal_weight=1268 873 395 264 217 131 111 762 115 647
internal_count=1268 873 395 264 217 131 111 762 115 647
is_linear=0
shrinkage=0.257901


Tree=45
num_leaves=9
num_cat=0
split_feature=2 2 7 3 0 6 2 2
split_gain=4.06573 13.3636 20.3591 8.37973 9.49779 9.86939 7.39713 4.28654
threshold=21448.000000000004 22275.500000000004 241.41666666666666 7140.666666666667 152.50000000000003 1038.0000000000002 22780.500000000004 23354.500000000004
decision_type=2 2 2 2 2 2 2 2
left_child=3 2 -2 4 -1 -6 -3 -8
right_child=1 6 -4 -5 5 -7 7 -9
leaf_value=0.097841667595617812 -0.020947627091041632 -0.10568228078727178 0.21537203683447334 -0.13577304258415956 -0.08406515794736269 0.015165056825081041 0.078512255710929527 -0.0018617479246482436
leaf_weight=46 48 44 49 40 120 150 47 724
leaf_count=46 48 44 49 40 120 150 47 724
internal_value=-0.00118562 0.00793848 0.0984303 -0.0245597 -0.0104821 -0.0289373 -0.00283172 0.00303783
internal_weight=1268 912 97 356 316 270 815 771
internal_count=1268 912 97 356 316 270 815 771
is_linear=0
shrinkage=0.257901


Tree=46
num_leaves=6
num_cat=0
split_feature=0 0 9 0 7
split_gain=4.77159 15.7217 8.44812 17.0694 14.2293
threshold=124.50000000000001 208.00000000000003 0.064304774031374121 446.50000000000006 132.58333333333337
decision_type=2 2 2 2 2
left_child=-1 -2 4 -4 -3
right_child=1 2 3 -5 -6
leaf_value=-0.07448061151697144 0.11854598420513443 0.011178819243492056 0.16839119447723463 -0.0018218289603833815 -0.12274442817814052
leaf_weight=56 73 113 41 886 99
leaf_count=56 73 113 41 886 99
internal_value=-0.000879851 0.00252084 -0.00491536 0.00570647 -0.0513608
internal_weight=1268 1212 1139 927 212
internal_count=1268 1212 1139 927 212
is_linear=0
shrinkage=0.257901


Tree=47
num_leaves=7
num_cat=0
split_feature=1 2 3 8 3 3
split_gain=3.14575 5.15495 6.51773 2.89382 15.6406 11.1638
threshold=2633.0000000000005 19397.500000000004 6400.416666666667 -1.0000000180025095e-35 6875.5833333333348 7008.2500000000009
decision_type=2 2 2 2 2 2
left_child=-1 2 -2 4 -3 -5
right_child=1 3 -4 5 -6 -7
leaf_value=0.067910043377595722 -0.0015650187323145504 0.16216118915893851 -0.14003751005830761 -0.086111471118737209 0.0016254976287788418 0.0051473476259551567
leaf_weight=43 52 45 40 105 392 591
leaf_count=43 52 45 40 105 392 591
internal_value=-0.000652936 -0.00305964 -0.0617704 0.0017077 0.0181566 -0.00862015
internal_weight=1268 1225 92 1133 437 696
internal_count=1268 1225 92 1133 437 696
is_linear=0
shrinkage=0.257901


Tree=48
num_leaves=7
num_cat=0
split_feature=1 6 7 0 9 6
split_gain=6.95846 5.69617 15.3492 7.81564 4.46137 3.45214
threshold=2564.5000000000005 3152.5000000000005 936.66666666666686 4625.0000000000009 0.042248963460367404 15460.500000000002
decision_type=2 2 2 2 2 2
left_child=-1 2 4 -3 -2 -5
right_child=1 3 -4 5 -6 -7
leaf_value=-0.097620359848935981 0.036752257341979032 -0.108612395558447 0.17323813963501442 -0.077648193986587982 -0.011820332832916936 0.00036189699309502804
leaf_weight=47 237 51 42 40 268 665
leaf_count=47 237 51 42 40 268 665
internal_value=-0.00012905 0.00338752 0.0234341 -0.0111171 0.0109751 -0.00406421
internal_weight=1350 1303 547 756 505 705
internal_count=1350 1303 547 756 505 705
is_linear=0
shrinkage=0.257901


Tree=49
num_leaves=7
num_cat=0
split_feature=2 2 0 0 9 9
split_gain=4.05859 12.2758 5.9717 3.63814 6.10831 2.6893
threshold=19369.500000000004 19790.000000000004 301.50000000000006 173.00000000000003 0.11679260819863996 0.1321529179063998
decision_type=2 2 2 2 2 2
left_child=2 -2 -1 -3 -5 -4
right_child=1 3 5 4 -6 -7
leaf_value=-0.11196378853608743 0.14009281036442919 -0.058569561858025136 -0.040611810584555444 0.03267522990879948 -0.0092873702242564585 0.04833594576356666
leaf_weight=51 43 67 52 330 767 40
leaf_count=51 43 67 52 330 767 40
internal_value=-9.57677e-05 0.00477154 -0.0411785 -0.000227447 0.00333584 -0.00193887
internal_weight=1350 1207 143 1164 1097 92
internal_count=1350 1207 143 1164 1097 92
is_linear=0
shrinkage=0.257901


Tree=50
num_leaves=8
num_cat=0
split_feature=2 2 3 0 6 7 6
split_gain=2.23511 6.7604 4.07799 11.6661 2.57671 20.9303 12.6839
threshold=19369.500000000004 19790.000000000004 4112.2500000000009 453.50000000000006 672.50000000000011 150.66666666666671 1275.5000000000002
decision_type=2 2 2 2 2 2 2
left_child=2 -2 -1 -4 5 -3 -6
right_child=1 4 3 -5 6 -7 -8
leaf_value=0.02453089155150107 0.10396272859441638 0.022842506160857142 -0.1588914967830814 0.028912610752083654 0.096045073687213073 -0.18738285127777091 -0.0044697922263425014
leaf_weight=55 43 126 44 44 92 42 904
leaf_count=55 43 126 44 44 92 42 904
internal_value=-7.10696e-05 0.00354095 -0.0305585 -0.0649894 -0.000168788 -0.0297138 0.00481471
internal_weight=1350 1207 143 88 1164 168 996
internal_count=1350 1207 143 88 1164 168 996
is_linear=0
shrinkage=0.257901


Tree=51
num_leaves=8
num_cat=0
split_feature=9 5 0 5 0 0 1
split_gain=3.2826 13.73 9.35395 9.29155 10.0451 6.65919 5.39373
threshold=0.042248963460367404 365.50000000000006 365.50000000000006 133.50000000000003 284.50000000000006 619.50000000000011 7176.0000000000009
decision_type=2 2 2 2 2 2 2
left_child=3 -2 -3 4 -1 -4 -5
right_child=1 2 5 6 -6 -7 -8
leaf_value=-0.082447988363337138 -0.1133691200683633 0.11161138768590524 -0.076147506275133073 0.13170106601142464 0.076310715366848511 0.0023988730096239038 0.026519110681629588
leaf_weight=75 74 49 78 59 41 902 72
leaf_count=75 74 49 78 59 41 902 72
internal_value=-5.27406e-05 -0.00607079 0.00164552 0.0268214 -0.026335 -0.00385278 0.0738911
internal_weight=1350 1103 1029 247 116 980 131
internal_count=1350 1103 1029 247 116 980 131
is_linear=0
shrinkage=0.257901


Tree=52
num_leaves=9
num_cat=0
split_feature=0 0 7 0 9 6 5 0
split_gain=9.88978 9.91339 17.3174 7.82562 7.43135 5.66824 4.56839 3.5018
threshold=100.50000000000001 4007.0000000000005 522.41666666666686 844.00000000000011 0.011939710991873952 15948.000000000002 5120.0000000000009 1331194.5000000002
decision_type=2 2 2 2 2 2 2 2
left_child=-1 2 4 -4 -2 6 -3 -7
right_child=1 5 3 -5 -6 7 -8 -9
leaf_value=0.11572063446303005 -0.10344545620236946 0.020052413784732166 -0.20166608312332843 -0.06566631797226527 -0.0026370344796198268 -0.076975640388198763 0.12989285472303053 0.0017746342106171632
leaf_weight=41 56 68 53 60 370 40 40 615
leaf_count=41 56 68 53 60 370 40 40 615
internal_value=-0.00899533 -0.0129226 -0.0396975 -0.129454 -0.0158888 0.00599168 0.0607341 -0.00303454
internal_weight=1343 1302 539 113 426 763 108 655
internal_count=1343 1302 539 113 426 763 108 655
is_linear=0
shrinkage=0.257901


Tree=53
num_leaves=8
num_cat=0
split_feature=0 0 7 7 2 7 2
split_gain=5.44641 5.45941 9.82453 9.59966 6.48959 3.58605 3.75125
threshold=100.50000000000001 4007.0000000000005 491.25000000000006 420.66666666666669 21533.500000000004 4887.416666666667 22943.000000000004
decision_type=2 2 2 2 2 2 2
left_child=-1 2 3 -2 -4 -3 -7
right_child=1 5 4 -5 -6 6 -8
leaf_value=0.085876161252607608 -0.023469462229301748 0.059644372968454311 -0.038110549556572906 0.10287346684624575 -0.15207982750127783 -0.077879206541633911 0.0034862525254747453
leaf_weight=41 360 71 73 45 61 40 652
leaf_count=41 360 71 73 45 61 40 652
internal_value=-0.00667543 -0.00958988 -0.0294594 -0.00943136 -0.0899921 0.00444642 -0.00121695
internal_weight=1343 1302 539 405 134 763 692
internal_count=1343 1302 539 405 134 763 692
is_linear=0
shrinkage=0.257901


Tree=54
num_leaves=5
num_cat=0
split_feature=1 2 0 3
split_gain=7.49002 6.91527 9.9079 12.7966
threshold=2564.5000000000005 17691.000000000004 119.50000000000001 7040.8333333333348
decision_type=2 2 2 2
left_child=-1 -2 -3 -4
right_child=1 2 3 -5
leaf_value=-0.10960275036086266 0.1028229244042491 0.11010849818945964 -0.062272355840425411 0.003930470887842384
leaf_weight=44 41 48 243 967
leaf_count=44 41 48 243 967
internal_value=-0.00495383 -0.00140914 -0.00480621 -0.00936481
internal_weight=1343 1299 1258 1210
internal_count=1343 1299 1258 1210
is_linear=0
shrinkage=0.257901


Tree=55
num_leaves=10
num_cat=0
split_feature=2 0 0 4 5 0 2 0 3
split_gain=2.36139 13.9994 20.9677 9.78837 7.78599 5.95222 17.7191 12.71 5.66111
threshold=22183.500000000004 360.50000000000006 675.00000000000011 1.0000000180025095e-35 279.50000000000006 397.00000000000006 20781.500000000004 656.50000000000011 8093.3333333333339
decision_type=2 2 2 2 2 2 2 2 2
left_child=3 4 -3 5 -2 6 -1 -7 -4
right_child=1 2 8 -5 -6 7 -8 -9 -10
leaf_value=0.017486362859474441 0.034006145660129557 -0.16859357746521952 0.071659760564591599 -0.12751985101723959 0.18473051959206907 0.10792281983085592 -0.15421211413797209 -0.019299637799256527 -0.0035829043124186409
leaf_weight=116 53 50 74 49 40 76 61 167 657
leaf_count=116 53 50 74 49 40 76 61 167 657
internal_value=-0.00367623 0.00424568 -0.0070177 -0.018439 0.0988338 -0.00571292 -0.0416866 0.0204901 0.004034
internal_weight=1343 874 781 469 93 420 177 243 731
internal_count=1343 874 781 469 93 420 177 243 731
is_linear=0
shrinkage=0.257901


Tree=56
num_leaves=13
num_cat=0
split_feature=5 7 3 1 7 7 5 5 6 3 3 9
split_gain=10.2696 23.8261 13.7041 29.2196 5.99004 15.3998 4.73989 3.82526 8.21258 2.93043 3.01207 2.48358
threshold=608.50000000000011 1.0000000180025095e-35 7605.8333333333348 7297.5000000000009 1034.0000000000002 5134.8333333333348 443201.41938439803 829.50000000000011 2902.5000000000005 6654.166666666667 7480.916666666667 0.017122981548860404
decision_type=2 2 2 2 2 2 2 2 2 2 2 2
left_child=1 9 3 -3 7 -6 -7 -2 -9 11 -11 -1
right_child=4 2 -4 -5 5 6 -8 8 -10 10 -12 -13
leaf_value=-0.013665328581997826 -0.087324670240595911 0.15065266190023271 0.23217218483319399 -0.068665925137585612 0.13013525847703528 -0.086761245303453735 0.005017291385558776 0.058257342049345552 -0.075731547976373673 0.052223690152235921 -0.040098027493299042 -0.098452260655045643
leaf_weight=54 71 116 46 62 66 40 582 58 64 57 40 40
leaf_count=54 71 116 46 62 66 40 582 58 64 57 40 40
internal_value=0.0161773 0.0496269 0.106689 0.0742608 0.000420654 0.0116839 -0.000884865 -0.0397303 -0.0120319 -0.0172942 0.0141529 -0.0497449
internal_weight=1296 415 224 178 881 688 622 193 122 191 97 94
internal_count=1296 415 224 178 881 688 622 193 122 191 97 94
is_linear=0
shrinkage=0.257901


Tree=57
num_leaves=11
num_cat=0
split_feature=0 2 2 10 5 5 0 6 5 0
split_gain=6.24099 14.5599 10.8684 10.18 23.2117 22.6462 7.27353 6.25261 10.3249 6.45518
threshold=692.50000000000011 20973.000000000004 17298.500000000004 -1.0000000180025095e-35 196.50000000000003 279.50000000000006 365.50000000000006 2700.5000000000005 1016.5000000000001 1117.5000000000002
decision_type=2 2 2 2 2 2 2 2 2 2
left_child=1 2 -1 4 -3 -5 -4 -2 -9 -10
right_child=7 3 6 5 -6 -7 -8 8 9 -11
leaf_value=0.075764150756926052 -0.07138533145129719 0.29595463550806189 -0.091401412343047439 -0.11053988301175303 0.04768064174844848 0.12175275781384672 0.029690042802533134 0.12198290005024211 -0.10221852483771506 0.0043253381123803652
leaf_weight=66 76 40 97 46 67 71 50 48 40 695
leaf_count=66 76 40 97 46 67 71 50 48 40 695
internal_value=0.0120051 0.037097 -0.0111784 0.0830018 0.140493 0.030424 -0.0502138 -0.00075988 0.00609521 -0.00147297
internal_weight=1296 437 213 224 107 117 147 859 783 735
internal_count=1296 437 213 224 107 117 147 859 783 735
is_linear=0
shrinkage=0.257901


Tree=58
num_leaves=7
num_cat=0
split_feature=1 9 6 6 5 9
split_gain=6.49502 4.09818 15.7793 9.7267 8.52547 3.61777
threshold=2633.0000000000005 0.053884505724214403 914.00000000000011 440.00000000000006 512.00000000000011 0.69471292336252599
decision_type=2 2 2 2 2 2
left_child=-1 2 3 -2 -3 -6
right_child=1 4 -4 -5 5 -7
leaf_value=0.097326523636538792 0.056015506846592296 -0.1102511870271792 0.15222994158461148 -0.047881169434737102 0.007546497630089649 -0.049916739280552194
leaf_weight=53 116 47 58 124 818 80
leaf_count=53 116 47 58 124 818 80
internal_value=0.008909 0.00513899 0.0315096 0.00233556 -0.00317684 0.00242728
internal_weight=1296 1243 298 240 945 898
internal_count=1296 1243 298 240 945 898
is_linear=0
shrinkage=0.257901


Tree=59
num_leaves=11
num_cat=0
split_feature=5 7 5 7 7 7 1 7 2 9
split_gain=3.64112 16.049 6.75062 13.5316 9.76171 3.33621 10.5937 2.97281 6.93683 2.12848
threshold=475.50000000000006 391.50000000000006 279.50000000000006 164.25000000000003 164.25000000000003 1034.0000000000002 7176.0000000000009 556.66666666666686 23354.500000000004 0.41549062969751421
decision_type=2 2 2 2 2 2 2 2 2 2
left_child=1 2 3 -1 -4 7 -7 8 -2 -8
right_child=5 -3 4 -5 -6 6 9 -9 -10 -11
leaf_value=0.023852045599527454 0.016407248410214778 0.16261858835108797 -0.014658043831998258 -0.1139482097524047 0.15930906355571173 0.13432537683099124 0.012431394401582292 -0.077793228037045734 -0.10212255301188283 -0.017322868985768441
leaf_weight=162 139 51 45 67 41 41 358 60 43 289
leaf_count=162 139 51 45 67 41 41 358 60 43 289
internal_value=0.00661136 0.0284019 0.00667162 -0.0164651 0.0682798 -0.00196429 0.0071969 -0.0280093 -0.011597 -0.00085915
internal_weight=1296 366 315 229 86 930 688 242 182 647
internal_count=1296 366 315 229 86 930 688 242 182 647
is_linear=0
shrinkage=0.257901


Tree=60
num_leaves=8
num_cat=0
split_feature=1 7 5 7 1 3 3
split_gain=6.32195 6.06193 38.718 23.9208 20.5783 9.11029 4.43636
threshold=2564.5000000000005 259.00000000000006 371.50000000000006 100.33333333333336 7297.5000000000009 6900.8333333333348 7707.8333333333348
decision_type=2 2 2 2 2 2 2
left_child=-1 3 -3 6 -5 -4 -2
right_child=1 2 5 4 -6 -7 -8
leaf_value=-0.096329290400140682 0.00098584469568916886 -0.21418916918766523 -0.082545052607731761 0.24226755477984349 0.011443354156163732 0.0097711827178311693 -0.08813517111833355
leaf_weight=48 213 59 78 54 49 804 45
leaf_count=48 213 59 78 54 49 804 45
internal_value=-0.00441213 -0.00102348 -0.0119231 0.027388 0.132458 0.00160716 -0.0145585
internal_weight=1350 1302 941 361 103 882 258
internal_count=1350 1302 941 361 103 882 258
is_linear=0
shrinkage=0.257901


Tree=61
num_leaves=11
num_cat=0
split_feature=6 6 3 3 6 6 1 1 6 3
split_gain=4.30558 21.6636 21.0679 38.3318 10.6309 8.9598 5.96151 17.4044 5.37588 3.64278
threshold=691.50000000000011 1529.5000000000002 7418.8333333333339 6794.666666666667 517.00000000000011 1739.5000000000002 7331.0000000000009 7800.0000000000009 2799.5000000000005 6751.2500000000009
decision_type=2 2 2 2 2 2 2 2 2 2
left_child=4 2 3 -2 6 -3 9 -8 -7 -1
right_child=1 5 -4 -5 -6 8 7 -9 -10 -11
leaf_value=0.0043852159440130548 -0.19362006209829263 0.10631437002273585 -0.24395850501648866 0.11372444821758669 0.12362199766590128 -0.089789750666987994 -0.15953247036957732 0.07039067959168889 0.0027356646735774834 0.097046959188122228
leaf_weight=86 53 54 47 55 58 44 47 41 823 42
leaf_count=86 53 54 47 55 58 44 47 41 823 42
internal_value=-0.00327424 -0.010624 -0.0998262 -0.037102 0.0255882 0.00438836 -0.000735682 -0.0524092 -0.00195997 0.0347899
internal_weight=1350 1076 155 108 274 921 216 88 867 128
internal_count=1350 1076 155 108 274 921 216 88 867 128
is_linear=0
shrinkage=0.257901


Tree=62
num_leaves=7
num_cat=0
split_feature=1 1 1 1 6 1
split_gain=2.85908 4.14042 26.8933 11.7706 10.9001 3.40445
threshold=2564.5000000000005 7458.0000000000009 7334.0000000000009 7593.5000000000009 691.50000000000011 7719.0000000000009
decision_type=2 2 2 2 2 2
left_child=-1 2 4 -3 -2 -5
right_child=1 3 -4 5 -6 -7
leaf_value=-0.064243453866011643 0.055095035547683101 -0.14521943244370192 0.21162444966370086 0.068788265815586822 -0.034853414420507829 -0.0074251241266631305
leaf_weight=48 143 41 44 41 240 793
leaf_count=48 143 41 44 41 240 793
internal_value=-0.00242981 -0.000150964 0.020668 -0.0103106 -0.00126953 -0.00367842
internal_weight=1350 1302 427 875 383 834
internal_count=1350 1302 427 875 383 834
is_linear=0
shrinkage=0.257901


Tree=63
num_leaves=10
num_cat=0
split_feature=6 7 7 3 6 1 2 3 8
split_gain=2.63476 20.3767 5.36502 10.8584 5.28518 4.97346 11.4164 11.1128 1.76336
threshold=1529.5000000000002 302.75000000000006 1.0000000180025095e-35 7339.5000000000009 1787.0000000000002 6991.0000000000009 21901.000000000004 6900.8333333333348 1.0000000180025095e-35
decision_type=2 2 2 2 2 2 2 2 2
left_child=1 2 8 -4 -2 7 -7 -6 -1
right_child=4 -3 3 -5 5 6 -8 -9 -10
leaf_value=0.0010061506579296909 0.079980908526553873 -0.13867309539242406 0.09707909973958434 -0.056975279654467331 -0.014898771458169327 -0.13547309011482517 0.0013518688146500388 0.15816115599762839 -0.047009023193248012
leaf_weight=129 60 77 94 45 62 43 715 41 84
leaf_count=129 60 77 94 45 62 43 715 41 84
internal_value=-0.00180316 -0.0184971 0.00779143 0.0472054 0.00597284 0.000815478 -0.00640997 0.0539892 -0.0179294
internal_weight=1350 429 352 139 921 861 758 103 213
internal_count=1350 429 352 139 921 861 758 103 213
is_linear=0
shrinkage=0.257901


Tree=64
num_leaves=7
num_cat=0
split_feature=0 6 6 1 0 3
split_gain=12.9561 6.84202 21.8081 17.3534 3.38954 4.80019
threshold=133.50000000000003 3061.0000000000005 2700.5000000000005 7394.5000000000009 4694.0000000000009 8176.3333333333348
decision_type=2 2 2 2 2 2
left_child=-1 2 3 -2 -3 -6
right_child=1 4 -4 -5 5 -7
leaf_value=-0.10115329419276131 -0.021153751020581393 -0.057365590845801388 0.19784782584379434 0.088384537971686536 0.074894590651512008 -0.005205832622495311
leaf_weight=73 282 73 49 146 54 634
leaf_count=73 282 73 49 146 54 634
internal_value=0.00442812 0.0106538 0.0348707 0.0162121 -0.00452546 0.00108112
internal_weight=1311 1238 477 428 761 688
internal_count=1311 1238 477 428 761 688
is_linear=0
shrinkage=0.257901


Tree=65
num_leaves=8
num_cat=0
split_feature=0 3 9 3 9 7 1
split_gain=8.03333 17.6138 7.55769 35.2075 5.79091 4.9685 4.02001
threshold=173.00000000000003 6925.166666666667 0.035076214874619906 7109.8333333333348 0.044631352899069408 5108.5833333333348 6948.0000000000009
decision_type=2 2 2 2 2 2 2
left_child=1 -1 3 6 -4 -6 -2
right_child=2 -3 4 -5 5 -7 -8
leaf_value=0.048082887753823529 0.034181425905775144 -0.16079497562645909 -0.091708771231086075 0.26599418283860821 0.029508057159425029 -0.0076657304186825287 -0.074289137523598725
leaf_weight=50 44 58 42 41 378 651 47
leaf_count=50 44 58 42 41 378 651 47
internal_value=0.0032861 -0.0640923 0.00933503 0.0675618 0.00215862 0.00598995 -0.0218418
internal_weight=1311 108 1203 132 1071 1029 91
internal_count=1311 108 1203 132 1071 1029 91
is_linear=0
shrinkage=0.257901


Tree=66
num_leaves=8
num_cat=0
split_feature=0 3 5 3 1 1 0
split_gain=4.42404 9.73704 6.57459 11.9052 4.89339 7.03977 2.20429
threshold=173.00000000000003 6977.0000000000009 192.50000000000003 5280.2500000000009 6788.5000000000009 7004.0000000000009 484.50000000000006
decision_type=2 2 2 2 2 2 2
left_child=1 -1 3 -2 6 -6 -4
right_child=2 -3 4 -5 5 -7 -8
leaf_value=0.034303857278301299 -0.034317057351675985 -0.12081191207364674 -0.085663555351644174 0.1387994224162605 0.10424396413924622 0.0028369019040708513 -0.020355644253601583
leaf_weight=51 45 57 50 64 48 886 110
leaf_count=51 45 57 50 64 48 886 110
internal_value=0.00243861 -0.0475628 0.00692752 0.0673293 0.000909421 0.0080484 -0.0407644
internal_weight=1311 108 1203 109 1094 934 160
internal_count=1311 108 1203 109 1094 934 160
is_linear=0
shrinkage=0.257901


Tree=67
num_leaves=6
num_cat=0
split_feature=9 0 7 9 9
split_gain=2.71649 3.00716 3.43578 14.989 5.31157
threshold=0.72130001021861567 133.50000000000003 5108.5833333333348 0.59188980106843958 0.62880080587500375
decision_type=2 2 2 2 2
left_child=1 -1 3 -3 -4
right_child=-2 2 4 -5 -6
leaf_value=-0.046161342624156762 -0.047251441196975226 0.010519718960961452 0.0018673826799352512 0.17255628000018522 -0.083559897613753278
leaf_weight=73 71 514 559 41 53
leaf_count=73 71 514 559 41 53
internal_value=0.00180969 0.00461884 0.00779532 0.02249 -0.00553073
internal_weight=1311 1240 1167 555 612
internal_count=1311 1240 1167 555 612
is_linear=0
shrinkage=0.257901


Tree=68
num_leaves=8
num_cat=0
split_feature=1 1 1 1 9 2 9
split_gain=8.35605 13.0175 20.9222 17.3605 7.59542 6.51103 5.77058
threshold=6496.0000000000009 7394.5000000000009 7297.5000000000009 7659.5000000000009 0.013801674515960202 23991.000000000004 0.11765579770378447
decision_type=2 2 2 2 2 2 2
left_child=6 2 4 -3 -2 -5 -1
right_child=1 3 -4 5 -6 -7 -8
leaf_value=0.0047226557022788992 0.072314215685775896 0.12299661147401961 -0.21170075136581193 -0.069447215498385284 -0.047158470975893506 0.0019971978878769569 0.11186867329341237
leaf_weight=70 42 75 49 97 225 677 64
leaf_count=70 42 75 49 97 225 677 64
internal_value=-0.00509326 -0.0121084 -0.0567937 0.00452352 -0.028365 -0.00695643 0.0558969
internal_weight=1299 1165 316 849 267 774 134
internal_count=1299 1165 316 849 267 774 134
is_linear=0
shrinkage=0.257901


Tree=69
num_leaves=10
num_cat=0
split_feature=1 3 1 1 1 7 9 1 2
split_gain=4.60177 7.92821 14.2637 22.6454 12.6536 6.19813 5.20627 13.434 9.21344
threshold=6496.0000000000009 7311.916666666667 7132.0000000000009 7374.5000000000009 6950.5000000000009 1.0000000180025095e-35 0.12674280832340137 8138.5000000000009 25113.000000000004
decision_type=2 2 2 2 2 2 2 2 2
left_child=5 2 4 -4 -2 -1 7 -3 -8
right_child=1 6 3 -5 -6 -7 8 -9 -10
leaf_value=-0.012353786088885047 -0.038585733396028464 0.095564843933703986 -0.19915443757437892 0.0020441507784301344 0.10898267886683437 0.098628722085594825 -0.10109976067214356 -0.04579483991311558 0.0035065329206030189
leaf_weight=69 130 118 77 72 55 65 62 72 579
leaf_count=69 130 118 77 72 55 65 62 72 579
internal_value=-0.0037797 -0.00898566 -0.0425443 -0.101931 0.00528596 0.041481 0.00450243 0.041997 -0.00661139
internal_weight=1299 1165 334 149 185 134 831 190 641
internal_count=1299 1165 334 149 185 134 831 190 641
is_linear=0
shrinkage=0.257901


Tree=70
num_leaves=9
num_cat=0
split_feature=1 1 1 1 3 1 6 0
split_gain=2.53424 4.88465 4.62487 23.6534 11.5765 9.2371 8.39975 4.20625
threshold=6496.0000000000009 2564.5000000000005 7639.0000000000009 7846.5000000000009 7579.2500000000009 7982.5000000000009 1004.5000000000001 601.50000000000011
decision_type=2 2 2 2 2 2 2 2
left_child=1 -1 4 -4 6 -5 -2 -3
right_child=2 7 3 5 -6 -7 -8 -9
leaf_value=-0.036209811341007724 -0.054429281719573022 0.012189826526861451 0.18836872317150166 -0.12086337268630117 -0.15943498475058623 0.00098106938155129446 0.026649423877465959 0.12567245990448095
leaf_weight=47 172 45 44 44 41 696 168 42
leaf_count=47 172 45 44 44 41 696 168 42
internal_value=-0.00280491 0.030783 -0.00666825 0.00465951 -0.0299779 -0.00626374 -0.0143669 0.0669745
internal_weight=1299 134 1165 784 381 740 340 87
internal_count=1299 134 1165 784 381 740 340 87
is_linear=0
shrinkage=0.257901


Tree=71
num_leaves=7
num_cat=0
split_feature=5 9 2 9 9 1
split_gain=3.20576 13.1293 7.59912 3.93293 6.28344 1.87557
threshold=161.50000000000003 0.032392405644282952 21159.500000000004 0.041525506717998657 0.048741175095681356 6731.5000000000009
decision_type=2 2 2 2 2 2
left_child=2 -2 5 -3 -5 -1
right_child=1 3 -4 4 -6 -7
leaf_value=-0.043303606572749974 -0.14005084196704523 0.073794157301964508 0.11539489956199046 -0.097281183774621652 0.00015991139459841866 0.03162132467274683
leaf_weight=50 47 45 50 46 1021 40
leaf_count=50 47 45 50 46 1021 40
internal_value=-0.00208152 -0.00653435 0.0347816 -0.000891122 -0.00404092 -0.0100036
internal_weight=1299 1159 140 1112 1067 90
internal_count=1299 1159 140 1112 1067 90
is_linear=0
shrinkage=0.257901


Tree=72
num_leaves=11
num_cat=0
split_feature=3 3 2 6 5 6 5 2 3 6
split_gain=7.76212 12.272 11.7164 11.5409 9.70797 6.27481 9.97343 5.3605 4.65298 1.53395
threshold=6938.8333333333348 7946.5833333333348 20752.000000000004 231.00000000000003 201.50000000000003 801.00000000000011 86.500000000000014 25347.000000000004 6147.0833333333348 1909269.8739173396
decision_type=2 2 2 2 2 2 2 2 2 2
left_child=2 3 5 -2 -5 6 -1 -3 -7 -9
right_child=1 7 -4 4 -6 8 -8 9 -10 -11
leaf_value=-0.042634997956495412 0.062954522967057155 0.092503406689984635 0.12455077442211107 -0.16847058444777874 -0.051931194753788379 -0.10677409032160189 0.11281605670981282 -0.034230646555700378 -0.0021352538058570553 0.0024331690034625681
leaf_weight=47 46 42 68 60 229 41 66 88 91 552
leaf_count=47 46 42 68 60 229 41 66 88 91 552
internal_value=-0.00567609 -0.0166063 0.0298384 -0.0570286 -0.0761262 0.00355089 0.0481594 0.0032492 -0.0346367 -0.00260811
internal_weight=1330 1017 313 335 289 245 113 682 132 640
internal_count=1330 1017 313 335 289 245 113 682 132 640
is_linear=0
shrinkage=0.257901


Tree=73
num_leaves=6
num_cat=0
split_feature=1 1 1 0 1
split_gain=5.95743 8.66374 8.97995 19.6539 12.4568
threshold=2633.0000000000005 6458.5000000000009 7458.0000000000009 969.50000000000011 7145.0000000000009
decision_type=2 2 2 2 2
left_child=-1 -2 4 -4 -3
right_child=1 2 3 -5 -6
leaf_value=0.078893406915676145 -0.091079026122319356 0.00023084074964617633 -0.098461236025451926 0.0021631107103962941 0.10814955099371888
leaf_weight=55 78 230 158 706 103
leaf_count=55 78 230 158 706 103
internal_value=-0.00421222 -0.00779717 -0.00237028 -0.0162381 0.0336111
internal_weight=1330 1275 1197 864 333
internal_count=1330 1275 1197 864 333
is_linear=0
shrinkage=0.257901


Tree=74
num_leaves=8
num_cat=0
split_feature=0 1 2 0 5 5 5
split_gain=4.56688 9.93294 12.6868 9.15486 3.15861 5.97613 3.69762
threshold=208.00000000000003 6712.0000000000009 21836.000000000004 292.50000000000006 301.50000000000006 694.50000000000011 147.50000000000003
decision_type=2 2 2 2 2 2 2
left_child=1 -1 -3 -2 6 -6 -5
right_child=3 2 -4 4 5 -7 -8
leaf_value=-0.048063801471868971 -0.093121136050475409 0.20116619247329851 0.0035555572096336949 -0.0070136940601492415 -0.052333160272517748 0.002188788196335628 0.10123631106642243
leaf_weight=52 79 40 47 43 158 870 41
leaf_count=52 79 40 47 43 158 870 41
internal_value=-0.00312588 0.0411111 0.094411 -0.00828872 -0.00226195 -0.00619104 0.0458226
internal_weight=1330 139 87 1191 1112 1028 84
internal_count=1330 139 87 1191 1112 1028 84
is_linear=0
shrinkage=0.257901


Tree=75
num_leaves=8
num_cat=0
split_feature=1 1 1 6 5 7 1
split_gain=4.03979 3.78034 15.2824 13.5845 8.69422 6.58991 7.46862
threshold=2633.0000000000005 6788.5000000000009 7297.5000000000009 691.50000000000011 133.50000000000003 1.0000000180025095e-35 6458.5000000000009
decision_type=2 2 2 2 2 2 2
left_child=-1 5 3 -3 -4 -2 -7
right_child=1 2 4 -5 -6 6 -8
leaf_value=0.06611563231371359 0.019721883933801865 0.18377565202763763 -0.12621393863836741 0.020402590128189953 -0.0061255655966078 -0.16547517177917273 -0.029516337200784851
leaf_weight=55 79 52 42 97 886 41 78
leaf_count=55 79 52 42 97 886 41 78
internal_value=-0.00231971 -0.00527183 0.000749442 0.0774187 -0.0115606 -0.0380239 -0.0763593
internal_weight=1330 1275 1077 149 928 198 119
internal_count=1330 1275 1077 149 928 198 119
is_linear=0
shrinkage=0.257901


Tree=76
num_leaves=11
num_cat=0
split_feature=2 2 3 9 2 8 7 7 2 0
split_gain=5.09356 11.3485 12.6078 8.83823 8.15792 16.265 8.13525 6.47918 3.67302 2.56125
threshold=22183.500000000004 20887.000000000004 6913.8333333333348 0.050309693340180206 23354.500000000004 1.0000000180025095e-35 110.25000000000001 485.41666666666669 23991.000000000004 992.00000000000011
decision_type=2 2 2 2 2 2 2 2 2 2
left_child=1 2 6 -3 5 -2 -1 -5 -6 -10
right_child=4 3 -4 7 8 -7 -8 -9 9 -11
leaf_value=0.022365418157245805 0.17072163616425992 -0.15274564381122938 0.1149015337990119 0.044237314434452238 -0.07582674510244361 -0.033867356366996587 -0.07023271973849296 -0.090496492300777609 0.059840474470490755 -0.00069748859625480748
leaf_weight=137 56 66 56 43 41 48 117 53 50 661
leaf_count=137 56 66 56 43 41 48 117 53 50 661
internal_value=-0.00326592 -0.0247754 0.00413329 -0.0800946 0.00859447 0.0762959 -0.0202881 -0.030147 -0.000768501 0.00355975
internal_weight=1328 472 310 162 856 104 254 96 752 711
internal_count=1328 472 310 162 856 104 254 96 752 711
is_linear=0
shrinkage=0.257901


Tree=77
num_leaves=9
num_cat=0
split_feature=6 6 6 0 7 2 6 0
split_gain=9.66147 21.4769 17.3614 9.07335 4.76673 4.51026 8.95233 3.92038
threshold=914.00000000000011 683.00000000000011 1275.5000000000002 152.50000000000003 1.0000000180025095e-35 20851.500000000004 1602.5000000000002 829.50000000000011
decision_type=2 2 2 2 2 2 2 2
left_child=1 3 -2 -1 -5 7 -7 -4
right_child=2 -3 5 4 -6 6 -8 -9
leaf_value=0.064339072884987719 0.15998835479899759 -0.18159338921947277 -0.00013017100214823021 -0.018339987983992258 -0.11552772838248078 -0.11617738850322411 0.0021335882134556595 0.09210554092338008
leaf_weight=78 49 59 58 153 43 45 778 65
leaf_count=78 49 59 58 153 43 45 778 65
internal_value=-0.00242363 -0.0404483 0.0103022 -0.0100557 -0.0396618 0.0025489 -0.00433542 0.0486123
internal_weight=1328 333 995 274 196 946 823 123
internal_count=1328 333 995 274 196 946 823 123
is_linear=0
shrinkage=0.257901


Tree=78
num_leaves=7
num_cat=0
split_feature=5 9 9 9 0 6
split_gain=6.18546 16.7249 11.9977 8.70284 6.27548 5.63931
threshold=196.50000000000003 0.037634671402136208 0.020814817037476955 0.046968960370837608 258.50000000000006 871.50000000000011
decision_type=2 2 2 2 2 2
left_child=2 -2 4 -3 -1 -5
right_child=1 3 -4 5 -6 -7
leaf_value=-0.064112064260923432 0.1412230614030186 -0.098410396927213817 -0.1618226385580635 -0.06422010020463749 0.050097275645180198 0.0087514886060122109
leaf_weight=64 57 59 45 76 64 963
leaf_count=64 57 59 45 76 64 963
internal_value=-0.00179858 0.00501338 -0.0472773 -0.00205761 -0.00700739 0.00341382
internal_weight=1328 1155 173 1098 128 1039
internal_count=1328 1155 173 1098 128 1039
is_linear=0
shrinkage=0.257901


Tree=79
num_leaves=8
num_cat=0
split_feature=2 0 6 6 2 6 9
split_gain=4.4505 5.77828 9.49379 13.6047 8.91492 8.32842 2.26436
threshold=18028.000000000004 190.50000000000003 877.50000000000011 533.50000000000011 21877.500000000004 1275.5000000000002 0.051196633178154857
decision_type=2 2 2 2 2 2 2
left_child=6 4 3 -3 -2 -4 -1
right_child=1 2 5 -5 -6 -7 -8
leaf_value=-0.013734203737201535 -0.0021073147526581093 -0.011289474003413324 0.11093583113617608 -0.17357231845638676 0.15281417233279407 0.00179772790011197 -0.091777838666800352
leaf_weight=48 60 115 49 49 42 914 51
leaf_count=48 60 115 49 49 42 914 51
internal_value=-0.00133472 0.00290269 -0.00241735 -0.0597764 0.0616839 0.00735096 -0.0539385
internal_weight=1328 1229 1127 164 102 963 99
internal_count=1328 1229 1127 164 102 963 99
is_linear=0
shrinkage=0.257901


Tree=80
num_leaves=10
num_cat=0
split_feature=3 2 8 3 0 0 6 0 0
split_gain=5.43373 11.3841 11.4355 11.1335 5.02874 19.71 9.96711 2.64542 9.76039
threshold=7191.8333333333348 22275.500000000004 1.0000000180025095e-35 7078.3333333333348 397.00000000000006 601.50000000000011 862.00000000000011 284.50000000000006 580.00000000000011
decision_type=2 2 2 2 2 2 2 2 2
left_child=3 2 -2 4 6 -6 -1 -3 -9
right_child=1 7 -4 -5 5 -7 -8 8 -10
leaf_value=-0.010367884812723778 0.0090556882718359714 -0.057049444789265935 0.19244673372671375 -0.14246646961790521 0.15501463667751217 -0.030914095153546668 -0.15661881899206689 0.12239271788979773 -0.0054502614610730474
leaf_weight=127 49 55 42 50 50 157 41 42 732
leaf_count=127 49 55 42 50 50 157 41 42 732
internal_value=-0.0040331 0.00710834 0.0936977 -0.0281511 -0.012909 0.0139962 -0.0460601 -0.00239664 0.00148695
internal_weight=1345 920 91 425 375 207 168 829 774
internal_count=1345 920 91 425 375 207 168 829 774
is_linear=0
shrinkage=0.257901


Tree=81
num_leaves=7
num_cat=0
split_feature=1 7 0 9 1 1
split_gain=2.15276 6.32492 3.53999 8.08565 5.7322 3.8475
threshold=6458.5000000000009 100.33333333333336 133.50000000000003 0.022711807740717401 7277.5000000000009 6731.5000000000009
decision_type=2 2 2 2 2 2
left_child=1 -1 -2 4 -4 -5
right_child=2 -3 3 5 -6 -7
leaf_value=0.01904353383402806 0.063101298609072931 -0.095839364999146956 -0.14379031806269923 0.058943702383654394 -0.011382730372635777 -0.0008929105849958608
leaf_weight=68 57 60 44 77 43 996
leaf_count=68 57 60 44 77 43 996
internal_value=-0.00299296 -0.0348078 0.00035322 -0.00273009 -0.0783475 0.00340105
internal_weight=1345 128 1217 1160 87 1073
internal_count=1345 128 1217 1160 87 1073
is_linear=0
shrinkage=0.257901


Tree=82
num_leaves=8
num_cat=0
split_feature=1 5 1 1 5 7 9
split_gain=1.61654 12.5004 6.3076 7.18674 5.07357 1.14422 0.896097
threshold=7982.5000000000009 1029.5000000000002 7694.5000000000009 7534.5000000000009 186.50000000000003 536819.52403091523 0.54519901931770509
decision_type=2 2 2 2 2 2 2
left_child=2 -2 3 4 -1 -3 -7
right_child=1 5 -4 -5 -6 6 -8
leaf_value=0.032539241927058163 0.10797161858117944 -0.036094096975118492 -0.084896105720650955 0.093746454486224609 -0.027350556733351249 -0.0074479888257578406 0.015261224322001322
leaf_weight=127 72 71 70 47 363 438 157
leaf_count=127 72 71 70 47 363 438 157
internal_value=-0.00222107 0.00588763 -0.0120798 -0.00258787 -0.0118281 -0.00514848 -0.00145581
internal_weight=1345 738 607 537 490 666 595
internal_count=1345 738 607 537 490 666 595
is_linear=0
shrinkage=0.257901


Tree=83
num_leaves=9
num_cat=0
split_feature=3 3 3 9 5 8 1 3
split_gain=2.70963 7.44454 10.8062 13.6152 6.34101 6.13326 3.53782 2.35109
threshold=6368.3333333333348 6836.166666666667 7040.8333333333348 0.060972445875132959 326.50000000000006 -1.0000000180025095e-35 8138.5000000000009 3965.6666666666674
decision_type=2 2 2 2 2 2 2 2
left_child=5 4 3 -3 -2 -1 -4 -7
right_child=1 2 6 -5 -6 7 -8 -9
leaf_value=-0.11276895822939513 0.13692117842907767 -0.1973011774205029 0.027342471628566106 0.003766158475468637 0.016409547689581059 -0.032783680586884877 -0.0066094203080662188 0.048497011787440585
leaf_weight=46 47 42 288 48 76 56 701 41
leaf_count=46 47 42 288 48 76 56 701 41
internal_value=-0.00164826 0.00234441 -0.00450829 -0.0900653 0.0624587 -0.035209 0.00327748 0.00157208
internal_weight=1345 1202 1079 90 123 143 989 97
internal_count=1345 1202 1079 90 123 143 989 97
is_linear=0
shrinkage=0.257901


Tree=84
num_leaves=6
num_cat=0
split_feature=9 9 9 1 6
split_gain=6.90771 20.3368 8.60725 6.32464 4.39632
threshold=0.0097073297472046512 0.018955467816422104 0.060972445875132959 7176.0000000000009 579.50000000000011
decision_type=2 2 2 2 2
left_child=-1 -2 3 -3 -4
right_child=1 2 4 -5 -6
leaf_value=0.090964744134582776 -0.16611988882646558 0.10398888909331558 -0.066408977481480683 0.016406727538718267 0.0045724974932734178
leaf_weight=64 45 101 62 120 908
leaf_count=64 45 101 62 120 908
internal_value=0.00834808 0.0040702 0.0105006 0.056433 3.55372e-05
internal_weight=1300 1236 1191 221 970
internal_count=1300 1236 1191 221 970
is_linear=0
shrinkage=0.257901


Tree=85
num_leaves=10
num_cat=0
split_feature=5 6 3 1 9 6 6 6 5
split_gain=5.45409 12.0791 18.6423 13.4409 7.17755 6.94758 5.04368 4.93281 8.79411
threshold=438.50000000000006 750.00000000000011 7325.4166666666679 7302.0000000000009 0.013801674515960202 362.50000000000006 1204.0000000000002 1541.5000000000002 685.50000000000011
decision_type=2 2 2 2 2 2 2 2 2
left_child=1 3 -3 4 -1 -5 -2 -8 -9
right_child=6 2 -4 5 -6 -7 7 8 -10
leaf_value=0.12909451794110471 -0.072095368146303032 0.019786899506343186 0.2240642789511334 -0.011221489899518034 0.0045092662261343791 -0.15960425497224578 0.089790091579861647 -0.11254988496559186 0.0034067175155205265
leaf_weight=47 67 78 48 43 89 41 40 46 801
leaf_count=47 67 78 48 43 89 41 40 46 801
internal_value=0.0061951 0.0339333 0.0976069 -0.00253423 0.0475645 -0.0836464 -0.00386509 0.00128871 -0.00289081
internal_weight=1300 346 126 220 136 84 954 887 847
internal_count=1300 346 126 220 136 84 954 887 847
is_linear=0
shrinkage=0.257901


Tree=86
num_leaves=6
num_cat=0
split_feature=1 5 9 9 3
split_gain=3.28658 2.52709 10.9724 7.13913 3.13281
threshold=2633.0000000000005 147.50000000000003 0.0097073297472046512 0.030265614697658153 6794.666666666667
decision_type=2 2 2 2 2
left_child=-1 2 -2 -3 -5
right_child=1 3 -4 4 -6
leaf_value=0.066293386230812504 0.043384818469201475 0.092806142453814966 -0.12113553005454999 -0.038246850679565382 0.0056386064165846765
leaf_weight=55 56 59 52 122 956
leaf_count=55 56 59 52 122 956
internal_value=0.00459738 0.00187185 -0.0358287 0.00545291 0.000671978
internal_weight=1300 1245 108 1137 1078
internal_count=1300 1245 108 1137 1078
is_linear=0
shrinkage=0.257901


Tree=87
num_leaves=11
num_cat=0
split_feature=5 7 0 7 6 3 5 0 3 5
split_gain=2.69937 8.24813 6.95233 8.86358 4.69442 7.8281 3.27872 2.03429 5.86799 5.46508
threshold=438.50000000000006 207.83333333333331 258.50000000000006 391.50000000000006 475.00000000000006 6771.2500000000009 574.00000000000011 955.50000000000011 7092.8333333333348 1109.5000000000002
decision_type=2 2 2 2 2 2 2 2 2 2
left_child=1 4 -3 -4 5 -1 -2 8 -8 -9
right_child=6 2 3 -5 -6 -7 7 9 -10 -11
leaf_value=-0.03266191966331955 -0.0605247797820469 0.1566700180039145 -0.054276900107978462 0.11530547599591866 -0.059191660432028483 0.089099815533649304 -0.027251169255754694 -0.083367453116091075 0.093545416657389344 0.0016584343637359149
leaf_weight=81 63 45 41 41 76 62 53 54 54 730
leaf_count=81 63 45 41 41 76 62 53 54 54 730
internal_value=0.00341171 0.0229258 0.0752151 0.0305143 -0.00739723 0.0201299 -0.00366573 0.000354607 0.0337116 -0.00419794
internal_weight=1300 346 127 82 219 143 954 891 107 784
internal_count=1300 346 127 82 219 143 954 891 107 784
is_linear=0
shrinkage=0.257901


Tree=88
num_leaves=8
num_cat=0
split_feature=9 1 0 3 3 9 9
split_gain=5.1193 8.38518 6.20962 8.60522 13.7836 3.38581 7.2749
threshold=0.044027461439058911 5897.0000000000009 349.50000000000006 6794.666666666667 7556.3333333333348 0.051196633178154857 0.064304774031374121
decision_type=2 2 2 2 2 2 2
left_child=2 -2 3 -1 -5 -3 -7
right_child=1 5 -4 4 -6 6 -8
leaf_value=-0.076318062706118156 0.12970602315084609 0.081227949988372072 -0.092552622025079037 0.091801185001416874 -0.087694410777601442 -0.096114115044067056 0.013648915694799387
leaf_weight=67 42 45 65 93 41 42 918
leaf_count=67 42 45 65 93 41 42 918
internal_value=0.00868898 0.0168059 -0.0232601 -0.000852094 0.0368809 0.0120877 0.00884678
internal_weight=1313 1047 266 201 134 1005 960
internal_count=1313 1047 266 201 134 1005 960
is_linear=0
shrinkage=0.257901


Tree=89
num_leaves=5
num_cat=0
split_feature=0 1 9 9
split_gain=3.92657 5.57136 3.20993 5.17405
threshold=105.50000000000001 2633.0000000000005 0.0097073297472046512 0.041525506717998657
decision_type=2 2 2 2
left_child=-1 -2 -3 -4
right_child=1 2 3 -5
leaf_value=-0.064435254262465935 0.099412921235869825 0.072829542104327225 -0.041352146010944592 0.0099380158947865015
leaf_weight=50 44 46 150 1023
leaf_count=50 44 46 150 1023
internal_value=0.00644808 0.00925423 0.00599994 0.00337917
internal_weight=1313 1263 1219 1173
internal_count=1313 1263 1219 1173
is_linear=0
shrinkage=0.257901


Tree=90
num_leaves=8
num_cat=0
split_feature=9 3 1 7 3 2 2
split_gain=2.96575 6.10619 12.2577 10.9418 10.2971 8.44069 7.77066
threshold=0.011939710991873952 6938.8333333333348 7292.5000000000009 1.0000000180025095e-35 6794.666666666667 20162.000000000004 22531.000000000004
decision_type=2 2 2 2 2 2 2
left_child=-1 4 3 -3 5 -2 -4
right_child=1 2 6 -5 -6 -7 -8
leaf_value=-0.045369114647388312 0.049517640535937581 0.034641465116904815 0.094099757085158497 -0.12066850099595232 0.14629290506467338 -0.074161478413476103 0.0032474688938586883
leaf_weight=74 138 44 68 96 52 50 791
leaf_count=74 138 44 68 96 52 50 791
internal_value=0.00478512 0.00778061 -0.00109351 -0.0718568 0.0447191 0.0166243 0.0104395
internal_weight=1313 1239 999 140 240 188 859
internal_count=1313 1239 999 140 240 188 859
is_linear=0
shrinkage=0.257901


Tree=91
num_leaves=7
num_cat=0
split_feature=0 0 0 1 0 1
split_gain=2.1464 3.20057 7.664 9.13509 5.82512 2.867
threshold=105.50000000000001 365.50000000000006 284.50000000000006 7297.5000000000009 446.50000000000006 7145.0000000000009
decision_type=2 2 2 2 2 2
left_child=-1 2 3 -2 -3 -6
right_child=1 4 -4 -5 5 -7
leaf_value=-0.048856440888464039 0.051363464183953614 -0.092615359139321632 0.099438752245960729 -0.068618974147412817 -0.026756030743061529 0.0098791217544535442
leaf_weight=50 102 44 77 72 173 795
leaf_count=50 102 44 77 72 173 795
internal_value=0.00355103 0.00562575 0.0316944 0.00171556 -0.000839889 0.00333172
internal_weight=1313 1263 251 174 1012 968
internal_count=1313 1263 251 174 1012 968
is_linear=0
shrinkage=0.257901


Tree=92
num_leaves=11
num_cat=0
split_feature=9 6 9 0 10 6 1 6 1 0
split_gain=19.6611 23.4115 18.6612 13.1636 11.6189 9.29357 7.39906 16.7225 3.70632 3.51562
threshold=0.030265614697658153 579.50000000000011 0.064304774031374121 992.00000000000011 -1.0000000180025095e-35 606.00000000000011 6731.5000000000009 264.50000000000006 7565.5000000000009 360.50000000000006
decision_type=2 2 2 2 2 2 2 2 2 2
left_child=1 6 5 4 -4 -2 -1 -8 -5 -7
right_child=2 -3 3 8 -6 9 7 -9 -10 -11
leaf_value=-0.058135749109225754 0.0053697067479329952 0.23111270358586453 0.17143872419595188 -0.057011506718146893 0.023759774496522442 -0.17336952544104653 -0.042340283579065358 0.17878522382266626 -0.0060777142801873001 -0.080780900632938968
leaf_weight=48 44 49 49 110 128 65 46 45 698 47
leaf_count=48 44 49 49 110 128 65 46 45 698 47
internal_value=0.000549641 0.0778281 -0.0121834 0.000942374 0.0646426 -0.0950606 0.0237926 0.0670075 -0.0130118 -0.134515
internal_weight=1329 188 1141 985 177 156 139 91 808 112
internal_count=1329 188 1141 985 177 156 139 91 808 112
is_linear=0
shrinkage=0.257901


Tree=93
num_leaves=10
num_cat=0
split_feature=9 9 3 7 7 2 7 7 0
split_gain=10.8276 11.4883 11.0332 10.7877 9.05457 6.30482 6.08682 3.61477 1.48074
threshold=0.030265614697658153 0.050309693340180206 6737.5833333333339 115.75000000000001 100.33333333333336 21159.500000000004 1.0000000180025095e-35 292.16666666666669 243.00000000000003
decision_type=2 2 2 2 2 2 2 2 2
left_child=4 3 6 -2 8 -6 -3 -4 -1
right_child=1 2 7 -5 5 -7 -8 -9 -10
leaf_value=0.043606205256624488 0.013687399527471226 0.012247659142746675 -0.059138285082548245 -0.15524837729350327 0.045560382397918625 0.18628253538931047 0.12567346877644137 -0.0052157620135264938 -0.019318508670671634
leaf_weight=42 41 61 92 65 40 45 65 817 61
leaf_count=42 41 61 92 65 40 45 65 817 61
internal_value=0.000407888 -0.00904126 -0.000759533 -0.0899053 0.0577562 0.12006 0.070761 -0.0106733 0.00634011
internal_weight=1329 1141 1035 106 188 85 126 909 103
internal_count=1329 1141 1035 106 188 85 126 909 103
is_linear=0
shrinkage=0.257901


Tree=94
num_leaves=8
num_cat=0
split_feature=5 7 0 3 5 7 3
split_gain=9.11287 13.4245 7.18303 2.23788 5.78568 5.4729 1.05736
threshold=186.50000000000003 1.0000000180025095e-35 183.00000000000003 6737.5833333333339 858.50000000000011 292.16666666666669 4112.2500000000009
decision_type=2 2 2 2 2 2 2
left_child=1 6 -2 4 -4 -5 -1
right_child=2 -3 3 5 -6 -7 -8
leaf_value=0.016699638398416091 -0.10545193898089086 0.14062977154579684 -0.011343612177910514 -0.054027727910642441 0.10301958048243171 0.00022932585476022162 -0.038457070409871626
leaf_weight=53 48 72 85 145 45 840 41
leaf_count=53 48 72 85 145 45 840 41
internal_value=0.000302693 0.0568294 -0.00776561 -0.00356028 0.0282436 -0.00775775 -0.00735808
internal_weight=1329 166 1163 1115 130 985 94
internal_count=1329 166 1163 1115 130 985 94
is_linear=0
shrinkage=0.257901


Tree=95
num_leaves=10
num_cat=0
split_feature=5 5 3 9 5 7 7 9 2
split_gain=5.01855 8.9936 8.85395 3.97367 9.32466 9.19374 9.78629 2.91628 0.21214
threshold=186.50000000000003 86.500000000000014 6977.0000000000009 0.064304774031374121 608.50000000000011 1.0000000180025095e-35 278.00000000000006 0.24502669607150793 19790.000000000004
decision_type=2 2 2 2 2 2 2 2 2
left_child=1 8 -3 5 -5 -2 -7 -6 -1
right_child=3 2 -4 4 7 6 -8 -9 -10
leaf_value=-0.03073886785219929 0.03843840565864181 0.18542694138023566 0.016948616467924175 0.090712597321701893 0.013611498698828228 -0.16715383431694802 -0.017048306086885297 -0.016991126264477168 -0.0046601184526875129
leaf_weight=42 63 42 41 71 318 52 65 594 41
leaf_count=42 63 42 41 71 318 52 65 594 41
internal_value=0.000224627 0.0421731 0.102203 -0.00576285 0.000688018 -0.0409918 -0.0837619 -0.00632047 -0.0178566
internal_weight=1329 166 83 1163 983 180 117 912 83
internal_count=1329 166 83 1163 983 180 117 912 83
is_linear=0
shrinkage=0.257901


Tree=96
num_leaves=6
num_cat=0
split_feature=1 1 7 7 7
split_gain=14.902 8.91229 2.27867 10.34 6.66727
threshold=2564.5000000000005 6252.5000000000009 967.91666666666686 463.50000000000006 5022.3333333333348
decision_type=2 2 2 2 2
left_child=-1 -2 3 -3 -4
right_child=1 2 4 -5 -6
leaf_value=-0.15010383170813649 0.1160981877274668 -0.0042944737374522486 0.073148557990675031 -0.10549080554486197 -0.0070268093429121711
leaf_weight=48 40 393 77 81 663
leaf_count=48 40 393 77 81 663
internal_value=-0.00907825 -0.00368014 -0.0076267 -0.0215875 0.00131576
internal_weight=1302 1254 1214 474 740
internal_count=1302 1254 1214 474 740
is_linear=0
shrinkage=0.257901


Tree=97
num_leaves=6
num_cat=0
split_feature=1 1 9 6 3
split_gain=8.20669 4.90809 2.32808 10.0948 2.75829
threshold=2564.5000000000005 6252.5000000000009 0.028327302887830454 533.50000000000011 7229.5000000000009
decision_type=2 2 2 2 2
left_child=-1 -2 3 -3 -4
right_child=1 2 4 -5 -6
leaf_value=-0.11139189805718368 0.086156344235511384 0.011504556692052961 0.022270389329742409 -0.1359377928707553 -0.0087437116439705552
leaf_weight=48 40 94 248 46 826
leaf_count=48 40 94 248 46 826
internal_value=-0.00673696 -0.00273103 -0.00565977 -0.0369408 -0.00158217
internal_weight=1302 1254 1214 140 1074
internal_count=1302 1254 1214 140 1074
is_linear=0
shrinkage=0.257901


Tree=98
num_leaves=7
num_cat=0
split_feature=0 0 7 9 0 5
split_gain=3.18516 3.68256 9.5885 7.37387 7.57502 5.83717
threshold=105.50000000000001 258.50000000000006 123.50000000000001 0.087262704405957264 306.00000000000006 817.50000000000011
decision_type=2 2 2 2 2 2
left_child=-1 2 -2 4 -3 -5
right_child=1 3 -4 5 -6 -7
leaf_value=-0.071653936915207272 -0.034178422645339344 -0.14547267041808612 0.10818292119489645 0.085751403344126967 -0.025941330279004592 -0.0017335834982403439
leaf_weight=46 61 43 65 54 196 837
leaf_count=46 61 43 65 54 196 837
internal_value=-0.00499949 -0.00255832 0.039262 -0.00722147 -0.047447 0.00356854
internal_weight=1302 1256 126 1130 239 891
internal_count=1302 1256 126 1130 239 891
is_linear=0
shrinkage=0.257901


Tree=99
num_leaves=8
num_cat=0
split_feature=1 4 1 0 0 5 5
split_gain=4.93053 2.6916 4.16645 2.461 6.13754 4.74592 1.49057
threshold=2564.5000000000005 -1.0000000180025095e-35 8680.5000000000018 273.50000000000006 197.50000000000003 220.50000000000003 1018833.8131922985
decision_type=2 2 2 2 2 2 2
left_child=-1 2 -2 4 -3 -5 -4
right_child=1 3 6 5 -6 -7 -8
leaf_value=-0.084829145297095482 -0.090290517610594798 -0.00050623288131138359 0.03246001204078694 -0.06997435916073004 0.10962040623648704 0.0052630354898605325 -0.020050918194631031
leaf_weight=48 51 103 47 60 50 790 153
leaf_count=48 51 103 47 60 50 790 153
internal_value=-0.00371012 -0.000605081 -0.02449 0.0053721 0.0354829 -4.78394e-05 -0.00771085
internal_weight=1302 1254 251 1003 153 850 200
internal_count=1302 1254 251 1003 153 850 200
is_linear=0
shrinkage=0.257901


end of trees

feature_importances:
total_spent_in_sheet_last_month=157
total_spent=109
average_spent_in_category_last_6_months=89
average_spent_in_sheet_last_6_months=87
category_spent_percentage_last_month=85
total_spent_in_category_last_month=84
total_spent_in_category_last_3_months=75
total_spent_in_sheet_last_3_months=72
category_spending_trend=12
category_spent_percentage_trend=8
sheet_spending_trend=4

parameters:
[boosting: gbdt]
[objective: regression]
[metric: l2]
[tree_learner: serial]
[device_type: cpu]
[data_sample_strategy: bagging]
[data: ]
[valid: ]
[num_iterations: 100]
[learning_rate: 0.257901]
[num_leaves: 32]
[num_threads: 10]
[seed: 0]
[deterministic: 0]
[force_col_wise: 0]
[force_row_wise: 0]
[histogram_pool_size: -1]
[max_depth: 4]
[min_data_in_leaf: 40]
[min_sum_hessian_in_leaf: 0.001]
[bagging_fraction: 0.681446]
[pos_bagging_fraction: 1]
[neg_bagging_fraction: 1]
[bagging_freq: 4]
[bagging_seed: 3]
[bagging_by_query: 0]
[feature_fraction: 0.723838]
[feature_fraction_bynode: 1]
[feature_fraction_seed: 2]
[extra_trees: 0]
[extra_seed: 6]
[early_stopping_round: 0]
[early_stopping_min_delta: 0]
[first_metric_only: 0]
[max_delta_step: 0]
[lambda_l1: 0]
[lambda_l2: 0]
[linear_lambda: 0]
[min_gain_to_split: 0]
[drop_rate: 0.1]
[max_drop: 50]
[skip_drop: 0.5]
[xgboost_dart_mode: 0]
[uniform_drop: 0]
[drop_seed: 4]
[top_rate: 0.2]
[other_rate: 0.1]
[min_data_per_group: 100]
[max_cat_threshold: 32]
[cat_l2: 10]
[cat_smooth: 10]
[max_cat_to_onehot: 4]
[top_k: 20]
[monotone_constraints: ]
[monotone_constraints_method: basic]
[monotone_penalty: 0]
[feature_contri: ]
[forcedsplits_filename: ]
[refit_decay_rate: 0.9]
[cegb_tradeoff: 1]
[cegb_penalty_split: 0]
[cegb_penalty_feature_lazy: ]
[cegb_penalty_feature_coupled: ]
[path_smooth: 0]
[interaction_constraints: ]
[verbosity: 1]
[saved_feature_importance_type: 0]
[use_quantized_grad: 0]
[num_grad_quant_bins: 4]
[quant_train_renew_leaf: 0]
[stochastic_rounding: 1]
[linear_tree: 0]
[max_bin: 255]
[max_bin_by_feature: ]
[min_data_in_bin: 3]
[bin_construct_sample_cnt: 200000]
[data_random_seed: 1]
[is_enable_sparse: 1]
[enable_bundle: 1]
[use_missing: 1]
[zero_as_missing: 0]
[feature_pre_filter: 1]
[pre_partition: 0]
[two_round: 0]
[header: 0]
[label_column: ]
[weight_column: ]
[group_column: ]
[ignore_column: ]
[categorical_feature: ]
[forcedbins_filename: ]
[precise_float_parser: 0]
[parser_config_file: ]
[objective_seed: 5]
[num_class: 1]
[is_unbalance: 0]
[scale_pos_weight: 1]
[sigmoid: 1]
[boost_from_average: 1]
[reg_sqrt: 0]
[alpha: 0.9]
[fair_c: 1]
[poisson_max_delta_step: 0.7]
[tweedie_variance_power: 1.5]
[lambdarank_truncation_level: 30]
[lambdarank_norm: 1]
[label_gain: ]
[lambdarank_position_bias_regularization: 0]
[eval_at: ]
[multi_error_top_k: 1]
[auc_mu_weights: ]
[num_machines: 1]
[local_listen_port: 12400]
[time_out: 120]
[machine_list_filename: ]
[machines: ]
[gpu_platform_id: -1]
[gpu_device_id: -1]
[gpu_use_dp: 0]
[num_gpu: 1]

end of parameters

pandas_categorical:[]
