tree
version=v4
num_class=1
num_tree_per_iteration=1
label_index=0
max_feature_idx=10
objective=regression
feature_names=total_spent total_spent_in_sheet_last_month total_spent_in_sheet_last_3_months average_spent_in_sheet_last_6_months sheet_spending_trend total_spent_in_category_last_month total_spent_in_category_last_3_months average_spent_in_category_last_6_months category_spending_trend category_spent_percentage_last_month category_spent_percentage_trend
feature_infos=[0:9965905] [0:14406290.086354241] [0:49386051.456215203] [0:11869500.571207624] [-1:1] [0:8358826.6489881966] [0:24817121.841906097] [0:9691460.1222268343] [-1:1] [0:79.989999999999995] [-1:1]
tree_sizes=3587 3828 3814 3834 3809 3829 3869 3843 3818 3822 3822 3837 3836 3860 3855 3860 3878 3858 3873 3835 3894 3856 3871 3883 3882 3888 3878 3881 3908 3876 3866 3884 3906 3880 3908 3898 3928 3657 3904 3890 3936

Tree=0
num_leaves=42
num_cat=0
split_feature=9 9 0 0 7 6 0 3 9 1 1 9 0 7 6 5 5 0 7 7 0 9 8 7 0 3 1 5 8 7 5 9 9 7 6 7 7 5 6 9 9
split_gain=637.91 75.942 55.0618 13.3422 1.52578 0.695387 1.07576 0.629768 0.687814 0.519333 0.635099 0.451667 0.417471 0.41493 0.489822 0.342153 0.278605 0.279007 0.2642 0.503988 0.243273 0.228164 0.216423 0.216016 0.211741 0.196556 0.191134 0.298431 0.183532 0.510475 0.276576 0.245719 0.211831 0.210922 0.38368 0.330068 0.282274 0.217018 0.195283 0.194558 0.193039
threshold=0.18574499110609408 0.95453953428124494 4012.5000000000005 3898.5000000000005 206.83333333333331 12773.685000000003 79241.500000000015 7887.2216666666673 0.11438202418588916 7095.7150000000011 7491.5200000000013 5.8150000000000004 795.00000000000011 881.94500000000005 2787.4250000000006 909.94000000000017 3617.4150000000004 3675.0000000000005 1.0000000180025095e-35 163.83333333333334 444.50000000000006 75.77500000000002 1.0000000180025095e-35 7074.2750000000005 337.00000000000006 7591.0200000000013 1216.6550000000002 541.20000000000016 1.0000000180025095e-35 59032.330000000009 747.99500000000012 29.380000000000003 59.685000000000009 8560.9450000000015 23737.225000000002 8414.3600000000024 8951.8600000000024 8374.7650000000012 25300.435000000001 51.750000000000007 17.605000000000004
decision_type=2 2 2 2 2 2 2 2 2 2 2 2 2 2 2 2 2 2 2 2 2 2 2 2 2 2 2 2 2 2 2 2 2 2 2 2 2 2 2 2 2
left_child=2 3 4 -2 12 -5 -7 8 9 20 24 16 18 14 21 -10 17 -3 -1 22 -6 26 -20 -18 -11 -12 27 -13 33 30 -30 -32 39 35 37 38 -36 -35 -15 -31 -37
right_child=1 11 -4 5 7 6 -8 -9 15 10 25 13 -14 28 -16 -17 23 -19 19 -21 -22 -23 -24 -25 -26 -27 -28 -29 29 32 31 -33 -34 34 36 40 -38 -39 -40 -41 -42
leaf_value=0.9469981107942268 0.95730215447003841 1.0330038027163837 1.0129893141709303 1.0266785095076154 0.94646037446629827 1.0046175703103357 1.0137054833309767 0.96907802418546285 0.97092118136647931 0.95830580874200477 0.9470538152358432 1.0404888983967682 0.95608523764592257 1.0386563392745525 1.0469960793098056 0.95914391451937964 1.0220769897832729 1.0437114734947348 0.95132812685603274 0.94521918547613326 0.95509345821526725 1.0331482856784961 0.9627772344527884 1.0326187867005594 0.96874073782384895 0.95731024712089063 1.0455050284695917 1.0355779618712111 1.0412919290565492 1.0407029139124333 1.0383812153140495 1.0370725110309096 1.0448011784254376 1.0375824326098264 1.0308034913191986 1.0502859036997774 1.0385986000093057 1.035363193365181 1.0417070149010661 1.0322311735634659 1.0414183599073394
leaf_weight=273 36 46 143 27 76 124 603 33 28 28 36 526 66 5334 78 64 20 33 22 43 39 41 32 66 34 25 46 120 157 198 1693 3424 95 1251 37 28 4260 482 171 24 63
leaf_count=273 36 46 143 27 76 124 603 33 28 28 36 526 66 5334 78 64 20 33 22 43 39 41 32 66 34 25 46 120 157 198 1693 3424 95 1251 37 28 4260 482 171 24 63
internal_value=1.03358 1.03712 0.962207 1.01015 0.953118 1.01268 1.01216 0.957374 0.956203 0.953681 0.957695 1.03829 0.949575 1.03834 1.0403 0.962728 1.03367 1.03748 0.948414 0.952397 0.949388 1.03959 0.958113 1.03017 0.964028 0.951257 1.03997 1.03958 1.03824 1.03783 1.03762 1.03751 1.04129 1.03845 1.03808 1.03884 1.03853 1.03697 1.03875 1.03979 1.04415
internal_weight=19925 18983 942 790 799 754 727 363 330 238 123 18193 436 18028 811 92 165 79 370 97 115 733 54 86 62 61 692 646 17217 5591 5274 5117 317 11626 6030 5596 4297 1733 5505 222 91
internal_count=19925 18983 942 790 799 754 727 363 330 238 123 18193 436 18028 811 92 165 79 370 97 115 733 54 86 62 61 692 646 17217 5591 5274 5117 317 11626 6030 5596 4297 1733 5505 222 91
is_linear=0
shrinkage=1


Tree=1
num_leaves=42
num_cat=0
split_feature=9 9 0 0 7 3 3 6 3 9 1 1 9 5 0 7 0 5 5 0 7 7 9 6 0 10 7 6 7 7 6 5 4 8 3 0 9 5 9 0 7
split_gain=529.577 63.0451 45.711 11.0764 1.26666 0.591724 1.08175 0.559501 0.522817 0.571006 0.431138 0.527244 0.374963 0.351818 0.346574 0.294564 0.290052 0.340609 0.241741 0.251997 0.219332 0.418398 0.218312 0.210123 0.201959 0.200543 0.204627 0.319496 0.197908 0.561921 0.260775 0.217992 0.191113 0.179669 0.163176 0.162881 0.153366 0.150717 0.149036 0.139724 0.138836
threshold=0.18574499110609408 0.95453953428124494 4012.5000000000005 3898.5000000000005 206.83333333333331 7272.5666666666675 7468.5833333333339 16860.065000000006 7887.2216666666673 0.11438202418588916 7095.7150000000011 7491.5200000000013 5.8150000000000004 1468.5450000000003 795.00000000000011 1314.2650000000001 1025.5000000000002 1046.5000000000002 4232.7600000000011 10070.000000000002 1.0000000180025095e-35 163.83333333333334 76.185000000000016 1285.8950000000002 444.50000000000006 1.0000000180025095e-35 511.26500000000004 2121.3950000000004 24159.805000000004 21649.550000000003 45316.870000000003 16922.145000000004 1.0000000180025095e-35 1.0000000180025095e-35 7591.0200000000013 19114.500000000004 77.745000000000019 1444.5200000000002 70.825000000000003 33798.000000000007 2481.5000000000005
decision_type=2 2 2 2 2 2 2 2 2 2 2 2 2 2 2 2 2 2 2 2 2 2 2 2 2 2 2 2 2 2 2 2 2 2 2 2 2 2 2 2 2
left_child=2 3 4 -2 14 -5 -7 -8 9 10 24 23 18 22 20 -15 17 -11 32 -20 -1 33 25 -12 -6 26 -14 -28 29 35 31 -30 -3 -22 -13 -17 -24 40 -32 -31 -27
right_child=1 12 -4 5 8 6 7 -9 -10 16 11 34 13 15 -16 28 -18 -19 19 -21 21 -23 36 -25 -26 37 27 -29 30 39 38 -33 -34 -35 -36 -37 -38 -39 -40 -41 -42
leaf_value=-0.07888985638185611 -0.069501436964251609 0.00019929348332603047 -0.018762674049758558 -0.02612654658006806 -0.07937980971245015 0.001205489824112753 -0.028388745536784769 -0.018117865045857592 -0.058771979002928285 -0.05496936717369505 -0.059400418703129357 -0.078839101973939119 0.007230617141084473 -0.0034421725963295706 -0.070610217924604479 0.0042258583829360135 -0.070640685283360774 -0.069362983098207126 -0.011572981371198674 -0.00034893652071732299 -0.074944608185613257 -0.080510705612140118 -0.0052092907689160846 -0.070109336649862908 -0.071513866489817252 0.0069497227617759593 0.0022633036591525233 0.0052988192838127526 0.0075365000822969633 0.00020952149846747054 0.0041722322340809279 0.0035465512238539291 0.0088956891625208718 -0.064512875368225975 -0.069494062995018424 0.0028602465012817261 0.0031399135203628021 0.013091155689720408 0.0063505240708967466 0.0078466692938964841 0.0041609958358973754
leaf_weight=273 36 56 143 83 76 22 45 604 33 34 39 36 246 40 66 11416 37 21 22 56 22 43 23 23 39 650 381 973 434 349 2058 144 31 32 25 734 71 27 282 20 180
leaf_count=273 36 56 143 83 76 22 45 604 33 34 39 36 246 40 66 11416 37 21 22 56 22 43 23 23 39 650 381 973 434 349 2058 144 31 32 25 734 71 27 282 20 180
internal_value=3.09772e-11 0.00322714 -0.0650327 -0.0213477 -0.0733138 -0.0190486 -0.0181731 -0.01883 -0.0694362 -0.0705027 -0.0728008 -0.0691438 0.00429426 0.00433286 -0.0765421 0.00417349 -0.0645575 -0.0604651 7.74592e-05 -0.00351469 -0.0776002 -0.0739707 0.00529976 -0.0633731 -0.0767122 0.00546055 0.004873 0.00444466 0.00419322 0.00403961 0.00485224 0.00654246 0.00329801 -0.0687628 -0.0750092 0.00414336 0.00109702 0.00655748 0.00443474 0.000623459 0.00634494
internal_weight=19925 18983 942 790 799 754 671 649 363 330 238 123 18193 18028 436 15477 92 55 165 78 370 97 2551 62 115 2457 1600 1354 15437 12519 2918 578 87 54 61 12150 94 857 2340 369 830
internal_count=19925 18983 942 790 799 754 671 649 363 330 238 123 18193 18028 436 15477 92 55 165 78 370 97 2551 62 115 2457 1600 1354 15437 12519 2918 578 87 54 61 12150 94 857 2340 369 830
is_linear=0
shrinkage=0.0888606


Tree=2
num_leaves=42
num_cat=0
split_feature=9 9 0 1 7 6 5 3 9 1 1 9 7 6 0 5 5 0 0 7 7 9 0 0 5 9 1 8 7 5 7 5 9 6 7 6 7 9 6 7 6
split_gain=439.641 52.3385 37.9481 9.2108 1.05155 0.583146 0.795471 0.43403 0.474035 0.35792 0.437705 0.311285 0.306908 0.408528 0.287717 0.257697 0.200687 0.209202 0.185979 0.182084 0.347343 0.172442 0.169279 0.254389 0.168872 0.153576 0.174385 0.150017 0.418194 0.209583 0.227733 0.175783 0.168869 0.180882 0.165775 0.316101 0.275814 0.247843 0.199045 0.198357 0.162511
threshold=0.18574499110609408 0.95453953428124494 4012.5000000000005 6072.3650000000007 206.83333333333331 3181.6300000000006 5920.5700000000006 7887.2216666666673 0.11438202418588916 7095.7150000000011 7491.5200000000013 5.8150000000000004 881.94500000000005 2787.4250000000006 795.00000000000011 909.94000000000017 4232.7600000000011 10070.000000000002 337.00000000000006 1.0000000180025095e-35 163.83333333333334 8.5950000000000024 3675.0000000000005 4715.5000000000009 242.96000000000001 75.77500000000002 1216.6550000000002 1.0000000180025095e-35 59032.330000000009 747.99500000000012 1088.4100000000001 631.32500000000016 59.685000000000009 186321.17500000002 8560.9450000000015 23737.225000000002 8414.3600000000024 13.495000000000003 29782.625000000004 10556.245000000001 17497.185000000005
decision_type=2 2 2 2 2 2 2 2 2 2 2 2 2 2 2 2 2 2 2 2 2 2 2 2 2 2 2 2 2 2 2 2 2 2 2 2 2 2 2 2 2
left_child=2 3 4 -2 14 -5 -7 8 9 24 18 16 13 21 19 -10 22 -18 -11 -1 -21 -13 -3 -24 -6 26 -23 34 29 31 -31 -29 33 -30 36 39 38 -37 -14 -36 -38
right_child=1 11 -4 5 7 6 -8 -9 15 10 -12 12 27 -15 -16 -17 17 -19 -20 20 -22 25 23 -25 -26 -27 -28 28 32 30 -32 -33 -34 -35 35 37 40 -39 -40 -41 -42
leaf_value=-0.071879653070747215 -0.063362353707224151 -0.00069558880903286611 -0.017095410584396613 -0.004530955332596235 -0.064411461161168693 -0.024441299393347705 -0.01652351248756043 -0.053549462887288166 -0.051710647619598343 -0.063104693358675482 -0.068343805080493175 0.012093803583340437 0.0043694231855674502 0.011750984573343398 -0.064335747939937155 -0.061931554796564356 -0.010544598586204951 -0.0003179297412452665 -0.053325133169108446 -0.062652530550427091 -0.073356472891295543 0.0046584710799750587 0.01398757811960504 -1.5587818925693139e-05 -0.072009871067596765 -0.00055326296746226493 0.010329033420838175 0.0036559560439960188 0.0040219582812520138 -0.0043896748167331825 0.0032497651884021051 0.0096086089329762096 0.009759931518680846 0.010384741909487061 0.0038308203506889314 0.0018797181808379536 0.0038959583646511267 0.0043373953905777611 -0.001262813054331799 0.0019046981792763193 0.011884114873870352
leaf_weight=273 36 46 143 27 32 120 607 33 28 28 61 26 5455 78 66 64 22 56 34 54 43 620 21 20 83 41 46 82 178 31 5086 75 95 44 728 353 30 3944 50 1005 61
leaf_count=273 36 46 143 27 32 120 607 33 28 28 61 26 5455 78 66 64 22 56 34 54 43 620 21 20 83 41 46 82 178 31 5086 75 95 44 728 353 30 3944 50 1005 61
internal_value=-6.59766e-11 0.00294037 -0.0592538 -0.0194508 -0.0667991 -0.0173542 -0.0178304 -0.0632661 -0.0642378 -0.0663317 -0.0629997 0.00391267 0.00394784 0.00563714 -0.0697405 -0.0588208 7.05761e-05 -0.00320237 -0.0577417 -0.0707046 -0.0673976 0.00498655 0.00300495 0.00715677 -0.0698955 0.00472518 0.00505013 0.00386826 0.00349002 0.0033016 0.00320348 0.00649958 0.0066247 0.00528305 0.00405016 0.00372691 0.00439848 0.0041355 0.00431827 0.00271383 0.00925066
internal_weight=19925 18983 942 790 799 754 727 363 330 238 123 18193 18028 811 436 92 165 78 62 370 97 733 87 41 115 707 666 17217 5591 5274 5117 157 317 222 11626 6030 5596 4297 5505 1733 91
internal_count=19925 18983 942 790 799 754 727 363 330 238 123 18193 18028 811 436 92 165 78 62 370 97 733 87 41 115 707 666 17217 5591 5274 5117 157 317 222 11626 6030 5596 4297 5505 1733 91
is_linear=0
shrinkage=0.0888606


Tree=3
num_leaves=42
num_cat=0
split_feature=9 9 0 0 7 6 5 3 9 2 5 7 0 0 5 6 6 9 9 7 7 8 7 0 1 7 7 6 5 6 0 3 7 6 6 9 0 0 2 2 6
split_gain=364.979 43.4501 31.5035 7.66923 0.872971 0.483879 0.657132 0.360321 0.393532 0.301025 0.259205 0.392344 0.238856 0.238112 0.262411 0.212003 0.648094 0.208161 0.161668 0.151162 0.288356 0.149157 0.147706 0.252778 0.154785 0.147402 0.461935 0.224291 0.177878 0.137505 0.135942 0.131304 0.125685 0.358357 0.172867 0.12531 0.116893 0.113982 0.110217 0.102461 0.107442
threshold=0.18574499110609408 0.95453953428124494 4012.5000000000005 3898.5000000000005 206.83333333333331 12773.685000000003 5920.5700000000006 7887.2216666666673 0.11438202418588916 20412.125000000004 1468.5450000000003 1314.2650000000001 795.00000000000011 1025.5000000000002 1046.5000000000002 929.13000000000011 1285.8950000000002 5.8150000000000004 76.185000000000016 1.0000000180025095e-35 163.83333333333334 1.0000000180025095e-35 4088.5000000000005 3445.0000000000005 3197.0850000000005 24159.805000000004 21649.550000000003 45316.870000000003 16922.145000000004 69059.35000000002 19114.500000000004 7223.0516666666672 881.94500000000005 2977.0000000000005 2121.3950000000004 77.745000000000019 337.00000000000006 33798.000000000007 12470096.585955495 11531.760000000002 9288.0700000000015
decision_type=2 2 2 2 2 2 2 2 2 2 2 2 2 2 2 2 2 2 2 2 2 2 2 2 2 2 2 2 2 2 2 2 2 2 2 2 2 2 2 2 2
left_child=2 3 4 -2 12 -5 -7 8 9 -6 18 -12 19 14 -10 31 -17 -13 22 36 21 -21 23 32 -25 26 30 28 -27 -29 -19 -11 33 -3 -34 -20 -1 -28 -4 -24 -41
right_child=1 10 38 5 7 6 -8 -9 13 15 11 17 -14 -15 -16 16 -18 25 35 20 -22 -23 39 24 -26 27 37 29 -30 -31 -32 -33 34 -35 -36 -37 -38 -39 -40 40 -42
leaf_value=-0.06713294249325609 -0.057791145688941691 0.0047939477140969368 -0.019216895683841117 -0.0041283317354992629 -0.065235972182223531 -0.022251666249413788 -0.015055222720490374 -0.048791023081016856 -0.045062307023539805 -0.058417625168175703 -0.005048271736508219 -0.0003150666824791283 -0.058618831945504428 -0.059105699640693357 -0.057696066114848933 -0.04709836569522443 -0.061137324278559134 0.0035164518951491821 -0.0049314938882014919 -0.062717637745050195 -0.066837969197860822 -0.053212875977757194 -0.0019536677951151387 0.014669283270529415 0.0069122064768723061 0.0065137958531305065 -0.00012420076111775393 0.0024537840195657506 0.0029096026717685352 0.0040454536792172225 0.0022688699953360776 -0.067354772694335513 0.0022408581023172372 0.011640141843220861 0.0044978582290671138 0.0026154742616176234 -0.063431510488510479 0.0067736499266080365 -0.013904600248527596 0.008594687042616048 -0.00050579303778519678
leaf_weight=152 36 708 45 27 72 120 607 33 34 25 43 115 66 37 21 40 74 11416 23 22 43 32 46 27 82 434 349 565 144 1775 734 27 346 66 1188 71 121 20 98 21 20
leaf_count=152 36 708 45 27 72 120 607 33 34 25 43 115 66 37 21 40 74 11416 23 22 43 32 46 27 82 434 349 565 144 1775 734 27 346 66 1188 71 121 20 98 21 20
internal_value=-3.73364e-11 0.00267909 -0.0539885 -0.0177224 -0.0608633 -0.0158093 -0.0162431 -0.0576442 -0.0585296 -0.0604374 0.00356499 0.00342809 -0.0635433 -0.053594 -0.0498861 -0.0583561 -0.0562114 0.00345152 0.00438676 -0.0644218 -0.0614086 -0.0570852 0.00452258 0.00465206 0.00883368 0.00347958 0.00334702 0.00404833 0.00561587 0.00366114 0.00344108 -0.0630581 0.00445457 0.00537773 0.00398878 0.000768876 -0.0654924 0.000249666 -0.0155763 0.000925332 0.00415543
internal_weight=19925 18983 942 790 799 754 727 363 330 238 18193 15595 436 92 55 166 114 15552 2598 370 97 54 2504 2417 109 15437 12519 2918 578 2340 12150 52 2308 774 1534 94 273 369 143 87 41
internal_count=19925 18983 942 790 799 754 727 363 330 238 18193 15595 436 92 55 166 114 15552 2598 370 97 54 2504 2417 109 15437 12519 2918 578 2340 12150 52 2308 774 1534 94 273 369 143 87 41
is_linear=0
shrinkage=0.0888606


Tree=4
num_leaves=42
num_cat=0
split_feature=9 9 0 1 7 6 0 3 9 1 1 9 1 0 0 5 0 6 0 7 9 5 8 7 7 3 2 0 7 7 8 5 6 7 5 6 7 0 9 5 1
split_gain=302.996 36.0712 26.1535 6.37675 0.724719 0.401601 0.545918 0.299129 0.326701 0.26485 0.355096 0.226652 0.226677 0.198292 0.197675 0.222422 0.169399 0.166749 0.163214 0.382956 0.44956 0.154186 0.140559 0.343446 0.149396 0.137163 0.125944 0.252519 0.125491 0.239386 0.123826 0.120987 0.120909 0.152292 0.151015 0.10989 0.0974514 0.0970413 0.0950303 0.0932287 0.091803
threshold=0.18574499110609408 0.95453953428124494 4012.5000000000005 6072.3650000000007 206.83333333333331 3181.6300000000006 79241.500000000015 7887.2216666666673 0.11438202418588916 7095.7150000000011 7491.5200000000013 5.8150000000000004 638.75000000000011 795.00000000000011 1025.5000000000002 1015.7600000000001 444.50000000000006 1285.8950000000002 905.50000000000011 881.94500000000005 36.20000000000001 5237.630000000001 1.0000000180025095e-35 59032.330000000009 6386.5850000000009 7591.0200000000013 11724.220000000003 4513.5000000000009 1.0000000180025095e-35 163.83333333333334 1.0000000180025095e-35 725.49500000000012 858.7600000000001 971.5100000000001 541.20000000000016 374.00000000000006 588.49500000000012 337.00000000000006 40.435000000000009 511926.08280260285 22821.200000000001
decision_type=2 2 2 2 2 2 2 2 2 2 2 2 2 2 2 2 2 2 2 2 2 2 2 2 2 2 2 2 2 2 2 2 2 2 2 2 2 2 2 2 2
left_child=2 3 4 -2 13 -5 -7 8 9 16 17 21 35 28 15 -10 -6 -11 32 20 -20 26 24 -24 -21 -12 31 -28 37 30 -30 -3 -14 38 -35 -13 -22 -1 -34 -4 -23
right_child=1 11 39 5 7 6 -8 -9 14 10 25 12 18 -15 -16 -17 -18 -19 19 22 36 40 23 -25 -26 -27 27 -29 29 -31 -32 -33 33 34 -36 -37 -38 -39 -40 -41 -42
leaf_value=-0.061167465847404595 -0.052684299291311229 0.0032921935805662163 -0.017434852228106187 -0.0037614859455759138 -0.06057568024793418 -0.020168044281355706 -0.013694072683825801 -0.044455420988218634 -0.040294658765816685 -0.043925813392706327 -0.060525552649259663 0.00036888399414977083 0.0066518104257442395 -0.053409924688797274 -0.053853529331770303 -0.051643436891347816 -0.053371659152137915 -0.053465632355754848 0.011409768518272457 0.0038116744000535937 0.0091735144710515613 -0.006810559754610414 0.0026734259988845247 0.005685915276042652 0.0031483556175740555 -0.051957706038745777 0.012497392645751431 0.0004641747972845546 -0.057144508917047546 -0.060898704513469765 -0.04848434575294229 -0.0057431916084922088 -0.0039011466562851463 -0.0031978623199734428 0.0053938934724787951 0.0057966985094934269 0.0027820217367194628 -0.057794945887775638 0.00053258403479366232 -0.012604623874948323 0.00041235799242202484
leaf_weight=152 36 22 47 27 76 124 603 33 30 39 36 32 28 66 37 25 39 23 98 4225 22 33 5214 317 7337 25 21 40 22 43 32 25 61 21 70 370 131 121 102 96 24
leaf_count=152 36 22 47 27 76 124 603 33 30 39 36 32 28 66 37 25 39 23 98 4225 22 33 5214 317 7337 25 21 40 22 43 32 25 61 21 70 370 131 121 102 96 24
internal_value=-3.9448e-11 0.00244102 -0.049191 -0.0161475 -0.0554549 -0.0144031 -0.0147983 -0.0525219 -0.0533286 -0.0550669 -0.0522006 0.0032482 0.00327821 -0.0578968 -0.0488316 -0.0454532 -0.0581326 -0.0474648 0.00323062 0.0032651 0.00671083 -3.02495e-05 0.0032145 0.00284608 0.00339075 -0.0570141 0.00194315 0.00460676 -0.0586972 -0.0559518 -0.0520126 -0.00151386 0.00111001 0.000499099 0.00341118 0.00536463 0.00370106 -0.0596727 -0.00112666 -0.0141922 -0.00376933
internal_weight=19925 18983 942 790 799 754 727 363 330 238 123 18193 18028 436 92 55 115 62 17626 17344 251 165 17093 5531 11562 61 108 61 370 97 54 47 282 254 91 402 153 273 163 143 57
internal_count=19925 18983 942 790 799 754 727 363 330 238 123 18193 18028 436 92 55 115 62 17626 17344 251 165 17093 5531 11562 61 108 61 370 97 54 47 282 254 91 402 153 273 163 143 57
is_linear=0
shrinkage=0.0888606


Tree=5
num_leaves=42
num_cat=0
split_feature=9 9 0 0 7 5 5 5 1 9 1 0 3 6 5 9 9 1 0 5 5 8 6 4 2 7 7 0 6 5 1 9 9 10 8 8 9 6 7 7 2
split_gain=251.54 29.9454 21.7119 5.31029 0.601643 0.366624 0.99363 0.3835 0.255367 0.354368 0.329612 0.228801 0.20183 0.195603 0.189656 0.183585 0.165521 0.226181 0.164617 0.14785 0.128002 0.119999 0.142836 0.111038 0.130336 0.104179 0.198732 0.109704 0.101196 0.201216 0.186997 0.144958 0.144746 0.169373 0.135627 0.12759 0.198144 0.209267 0.188245 0.137059 0.272624
threshold=0.18574499110609408 0.95453953428124494 4012.5000000000005 3898.5000000000005 206.83333333333331 4789.3100000000004 5089.4950000000008 5920.5700000000006 7095.7150000000011 0.11438202418588916 7780.6650000000009 444.50000000000006 7695.7150000000011 929.13000000000011 870.75000000000011 5.8150000000000004 0.046198318622353511 7372.670000000001 795.00000000000011 242.96000000000001 5237.630000000001 1.0000000180025095e-35 596.50000000000011 -1.0000000180025095e-35 11724.220000000003 1.0000000180025095e-35 163.83333333333334 167.00000000000003 162375.50500000003 37098.290000000008 60116.005000000005 70.575000000000003 56.250000000000007 1.0000000180025095e-35 -1.0000000180025095e-35 1.0000000180025095e-35 47.475000000000001 1142.9400000000003 52279.110000000008 8560.9450000000015 33080.405000000006
decision_type=2 2 2 2 2 2 2 2 2 2 2 2 2 2 2 2 2 2 2 2 2 2 2 2 2 2 2 2 2 2 2 2 2 2 2 2 2 2 2 2 2
left_child=2 3 4 -2 18 -5 -7 -8 9 19 16 -12 -13 21 -11 20 -10 -18 25 -6 23 22 -3 -15 -25 -1 27 -27 35 32 -31 -32 33 -30 -34 39 37 -37 -38 40 -17
right_child=1 13 -4 5 8 6 7 -9 10 14 11 12 -14 15 -16 28 17 -19 -20 -21 -22 -23 -24 24 -26 26 -28 -29 29 30 31 -33 34 -35 -36 36 38 -39 -40 -41 -42
leaf_value=-0.054370132605133153 -0.048054487841968141 0.0031916368922016458 -0.012931055273155684 -0.019725180360178663 -0.047948390356004247 0.0052254913927502512 -0.019833686767972317 -0.012496750688583963 -0.047276071868087577 -0.037510097704204319 -0.056307008735784987 -0.052724312938328528 -0.040518762189409627 -0.002720055116466908 -0.048476358017307923 0.0032502184176667675 -0.045141977780211041 -0.035571800067416552 -0.048663884742247476 -0.055034830821048236 -0.0034343860810149107 0.0018809110478825489 0.0079188861017797513 -0.00022288154458290958 0.0070945167358990972 -0.050462540216084061 -0.055487206863736746 -0.042168546060388758 0.012946732364808354 -0.0036348007595447406 0.0026217175336656173 0.0081588232276792929 -0.0020583107679945398 0.004149220129506523 0.0075226522359923987 -0.0060422867547170024 0.0017395074102679658 0.0030752700562651351 0.0049337365157651478 0.0027790659040407401 0.0060530024183974452
leaf_weight=273 36 78 143 61 32 24 62 607 42 20 30 20 23 31 33 5651 39 39 66 85 57 64 143 37 40 34 43 20 48 30 168 48 20 27 28 20 2203 3247 156 5809 288
leaf_count=273 36 78 143 61 32 24 62 607 42 20 30 20 23 31 33 5651 39 39 66 85 57 64 143 37 40 34 43 20 48 30 168 48 20 27 28 20 2203 3247 156 5809 288
internal_value=-4.99023e-12 0.00222411 -0.0448199 -0.0147127 -0.0505272 -0.0131207 -0.0125394 -0.0131767 -0.0478548 -0.0503661 -0.0456428 -0.0503511 -0.0461958 0.00295956 -0.0443381 0.00292281 -0.0427786 -0.0403569 -0.0527521 -0.0530967 -2.75616e-05 0.00526922 0.00625045 0.00177048 0.00357836 -0.0534813 -0.0509799 -0.0473907 0.00295024 0.00440642 0.00293914 0.00385219 0.00734098 0.00977963 0.00353058 0.00291932 0.00257134 0.00301945 0.00195074 0.00308596 0.00338613
internal_weight=19925 18983 942 790 799 754 693 669 363 170 193 73 43 18193 53 17908 120 78 436 117 165 285 221 108 77 370 97 54 17743 369 246 216 123 75 48 17374 5626 3267 2359 11748 5939
internal_count=19925 18983 942 790 799 754 693 669 363 170 193 73 43 18193 53 17908 120 78 436 117 165 285 221 108 77 370 97 54 17743 369 246 216 123 75 48 17374 5626 3267 2359 11748 5939
is_linear=0
shrinkage=0.0888606


Tree=6
num_leaves=42
num_cat=0
split_feature=9 9 0 1 7 6 7 3 0 6 6 6 5 7 10 0 6 0 9 5 9 9 4 8 2 6 9 7 7 9 7 7 6 8 6 7 0 5 6 0 8
split_gain=208.822 24.8599 18.0247 4.41375 0.499469 0.334245 0.403158 0.234972 0.266775 0.238451 0.294998 0.271698 0.181142 0.317905 0.159564 0.146333 0.136772 0.346105 0.169471 0.256015 0.147784 0.159341 0.139664 0.133455 0.132292 0.167276 0.125491 0.122902 0.164982 0.11569 0.111614 0.375717 0.201509 0.160301 0.117161 0.110857 0.105373 0.104261 0.128571 0.0945877 0.0939407
threshold=0.18574499110609408 0.95453953428124494 4012.5000000000005 6072.3650000000007 206.83333333333331 3181.6300000000006 5435.5600000000004 7887.2216666666673 337.00000000000006 1285.8950000000002 1589.4700000000003 1057.6650000000002 1468.5450000000003 1314.2650000000001 1.0000000180025095e-35 540.50000000000011 4835.9250000000011 2316.5000000000005 34.765000000000008 1313.5600000000002 39.975000000000009 51.07500000000001 1.0000000180025095e-35 1.0000000180025095e-35 6583.4700000000012 2697.2850000000003 24.175000000000004 1.0000000180025095e-35 163.83333333333334 5.8150000000000004 24159.805000000004 21649.550000000003 45316.870000000003 1.0000000180025095e-35 50484.390000000007 2695.4050000000002 19114.500000000004 211.76500000000001 3285.3350000000005 33798.000000000007 1.0000000180025095e-35
decision_type=2 2 2 2 2 2 2 2 2 2 2 2 2 2 2 2 2 2 2 2 2 2 2 2 2 2 2 2 2 2 2 2 2 2 2 2 2 2 2 2 2
left_child=2 3 4 -2 15 -5 -7 8 -6 11 -11 -10 16 -14 -12 27 17 24 19 23 -20 -22 -23 -18 37 -26 -19 -1 40 -15 31 36 33 -32 -34 -28 -31 -3 -39 -33 -29
right_child=1 12 -4 5 7 6 -8 -9 9 10 14 -13 13 29 -16 -17 18 26 20 -21 21 22 -24 -25 25 -27 35 28 -30 30 32 39 34 -35 -36 -37 -38 38 -40 -41 -42
leaf_value=-0.05025462329577824 -0.043802512508281016 0.0056647058275019705 -0.011781993085123699 -0.0022456871695480198 -0.047964737465976078 -0.016951604075966884 -0.011370204297488735 -0.036453078333432379 -0.043311477805840076 -0.049882405832486251 -0.038802778236623349 -0.03090068914610547 -0.0050478626797323912 -0.00020477239196798434 -0.045429729670387838 -0.045452809001451093 0.010767791168408985 0.0037828676381062229 -0.0013401646774865463 0.00098521647514692346 0.0074900443969500184 0.0039711328778398941 -0.0020204241604411246 0.0046094777683602581 0.011588507676292992 0.0022200139699039018 -0.00011076391500314116 -0.047649477425008108 -0.050556577706127037 0.0026599802087485637 0.0053222914183731875 -0.00062517030073520972 4.7607290007644689e-05 0.001552459254965664 0.0028982417380576482 -0.0058192202181243076 0.0015615863838244306 0.0026787683139333153 0.0045957528416672843 0.0056584825119063787 -0.04010642965850926
leaf_weight=217 36 130 143 27 107 123 604 33 30 51 64 26 43 115 52 122 91 31 43 43 85 181 37 40 34 27 61 22 43 11416 468 349 120 110 2220 48 734 1403 344 20 32
leaf_count=217 36 130 143 27 107 123 604 33 30 51 64 26 43 115 52 122 91 31 43 43 85 181 37 40 34 27 61 22 43 11416 468 349 120 110 2220 48 734 1403 344 20 32
internal_value=-1.22119e-11 0.00202648 -0.0408372 -0.0134053 -0.0460373 -0.011954 -0.0123145 -0.0436024 -0.0443173 -0.0425672 -0.0442499 -0.0375493 0.00269658 0.00258213 -0.0417735 -0.0480645 0.00338355 0.00306102 0.00467242 0.00693455 0.00353482 0.00422664 0.00295422 0.00888739 0.00336925 0.0074418 -0.00120579 -0.0490792 -0.0464498 0.00260323 0.00262415 0.00250879 0.00311906 0.00460485 0.00275206 -0.00262458 0.00259362 0.0032369 0.00305624 -0.000284593 -0.0431795
internal_weight=19925 18983 942 790 799 754 727 363 330 223 167 56 18193 15595 116 436 2598 2078 520 174 346 303 218 131 1938 61 140 314 97 15552 15437 12519 2918 578 2340 109 12150 1877 1747 369 54
internal_count=19925 18983 942 790 799 754 727 363 330 223 167 56 18193 15595 116 436 2598 2078 520 174 346 303 218 131 1938 61 140 314 97 15552 15437 12519 2918 578 2340 109 12150 1877 1747 369 54
is_linear=0
shrinkage=0.0888606


Tree=7
num_leaves=42
num_cat=0
split_feature=9 9 0 0 7 5 5 7 1 1 5 6 6 6 6 1 5 6 9 6 6 9 1 6 8 5 0 7 7 8 7 9 10 9 9 0 10 7 0 8 0
split_gain=173.359 20.6381 14.9637 3.67692 0.414647 0.278066 0.833387 0.326205 0.199513 0.267002 0.264566 0.218482 0.415607 0.2895 0.232763 0.191883 0.154653 0.266709 0.170714 0.18578 0.175864 0.136571 0.227032 0.182743 0.155972 0.136533 0.121482 0.10203 0.136964 0.0965169 0.264074 0.160396 0.151722 0.133832 0.154859 0.131248 0.0946924 0.154259 0.210777 0.0909625 0.0833567
threshold=0.18574499110609408 0.95453953428124494 4012.5000000000005 3898.5000000000005 206.83333333333331 4789.3100000000004 5089.4950000000008 4870.670000000001 6914.8600000000015 6505.6550000000016 349.62500000000006 1589.4700000000003 1285.8950000000002 1057.6650000000002 3061.0000000000005 7424.7150000000011 977.84500000000014 2121.3950000000004 75.340000000000018 4835.9250000000011 5314.670000000001 7.2400000000000011 3634.2450000000003 9562.1900000000023 -1.0000000180025095e-35 4232.7600000000011 540.50000000000011 1.0000000180025095e-35 163.83333333333334 1.0000000180025095e-35 59032.330000000009 29.380000000000003 -1.0000000180025095e-35 73.145000000000024 77.385000000000005 1871.5000000000002 1.0000000180025095e-35 639.1400000000001 905.50000000000011 -1.0000000180025095e-35 167.00000000000003
decision_type=2 2 2 2 2 2 2 2 2 2 2 2 2 2 2 2 2 2 2 2 2 2 2 2 2 2 2 2 2 2 2 2 2 2 2 2 2 2 2 2 2
left_child=2 3 4 -2 26 -5 -7 -8 9 10 -6 12 13 39 15 -13 18 -18 19 36 -21 22 -19 25 -25 -24 27 -1 40 33 31 -31 -32 35 -35 -23 37 -3 -39 -10 -29
right_child=1 16 -4 5 8 6 7 -9 11 -11 -12 14 -14 -15 -16 -17 17 21 -20 20 -22 29 23 24 -26 -27 -28 28 -30 30 32 -33 -34 34 -36 -37 -38 38 -40 -41 -42
leaf_value=-0.045788965005240254 -0.039958293700063229 0.0041867445994702218 -0.010735037745807603 -0.016641168677468492 -0.029943549811394677 0.0058863391729416636 -0.01972139275186283 -0.010527005559932868 -0.036502601463709643 -0.045915441061993995 -0.042493812718792087 -0.025939115504510318 -0.046828015213208354 -0.028125561666382786 -0.041069362868856964 -0.036110885629078583 -0.0038596285376870749 -0.0068941094745740405 -0.001221851589009477 0.012584787637012982 0.0046328394770161034 0.004543190655639533 0.0071081365574512355 -0.0033494917973960377 0.0014167469315110582 -0.00075097779272928565 -0.041413842482802068 -0.042020241091136827 -0.046064087599765005 0.0027152377752963025 0.007326020739364128 0.0016178981549501406 0.0032000417556690042 0.0043784270572771967 0.0021513839452409682 0.0024349920273183433 0.0042055810001821702 -0.0012438525130671993 0.0027164462882370791 -0.043005456781354541 -0.034790511043765668
leaf_weight=217 36 354 143 61 21 24 32 637 35 76 36 27 50 23 30 32 54 28 64 32 70 239 64 69 253 24 122 34 43 1534 108 3346 202 656 395 9572 498 135 496 33 20
leaf_count=217 36 354 143 61 21 24 32 637 35 76 36 27 50 23 30 32 54 28 64 32 70 239 64 69 253 24 122 34 43 1534 108 3346 202 656 395 9572 498 135 496 33 20
internal_value=-2.01031e-11 0.0018464 -0.0372084 -0.0122141 -0.0419464 -0.0108894 -0.0103831 -0.0109668 -0.0397279 -0.0424674 -0.03787 -0.0381437 -0.0403196 -0.0367435 -0.0346965 -0.031456 0.00245696 0.00237516 0.00327758 0.00345927 0.00712757 0.00239558 0.000847453 0.00137614 0.00039541 0.00496474 -0.0437935 -0.044718 -0.0423222 0.00243782 0.0021226 0.00196284 0.00463748 0.00258844 0.00354143 0.00248635 0.00320696 0.00270208 0.00186916 -0.0396584 -0.0393426
internal_weight=19925 18983 942 790 799 754 693 669 363 133 57 230 141 91 89 59 18193 16544 1649 1585 102 16490 438 410 322 88 436 314 97 16052 5190 4880 310 10862 1051 9811 1483 985 631 68 54
internal_count=19925 18983 942 790 799 754 693 669 363 133 57 230 141 91 89 59 18193 16544 1649 1585 102 16490 438 410 322 88 436 314 97 16052 5190 4880 310 10862 1051 9811 1483 985 631 68 54
is_linear=0
shrinkage=0.0888606


Tree=8
num_leaves=42
num_cat=0
split_feature=9 9 0 1 0 6 5 7 3 3 2 0 3 3 7 6 6 1 9 10 1 1 7 9 7 7 1 7 7 1 9 9 6 7 9 4 1 1 10 7 6
split_gain=143.918 17.1332 12.4225 3.06203 0.364854 0.285347 0.334403 0.184598 0.193475 0.232462 0.336074 0.24542 0.177789 0.159413 0.185134 0.225411 0.190499 0.26822 0.134941 0.227234 0.13706 0.131433 0.218291 0.437299 0.153091 0.136564 0.118712 0.118383 0.178165 0.121782 0.0892371 0.0979138 0.198489 0.199674 0.171319 0.124897 0.0803415 0.0797604 0.0747518 0.0729471 0.070717
threshold=0.18574499110609408 0.95453953428124494 4012.5000000000005 5794.1600000000008 444.50000000000006 2844.3900000000008 5920.5700000000006 1.0000000180025095e-35 7813.9783333333344 6939.005000000001 20412.125000000004 167.00000000000003 6431.6150000000007 8078.3966666666674 971.5100000000001 3061.0000000000005 1285.8950000000002 6505.6550000000016 5.4250000000000007 -1.0000000180025095e-35 638.75000000000011 816.36000000000013 881.94500000000005 36.835000000000008 1012.9200000000001 511.26500000000004 6914.8600000000015 1314.2650000000001 1372.5950000000003 1105.7150000000004 7.745000000000001 50.475000000000001 858.7600000000001 475.6783333333334 62.565000000000005 -1.0000000180025095e-35 1979809.1319193111 6914.8600000000015 -1.0000000180025095e-35 299.37500000000006 1530.2300000000002
decision_type=2 2 2 2 2 2 2 2 2 2 2 2 2 2 2 2 2 2 2 2 2 2 2 2 2 2 2 2 2 2 2 2 2 2 2 2 2 2 2 2 2
left_child=2 3 4 -2 7 -5 -7 -1 9 10 12 -11 -9 14 16 -16 17 -6 19 -3 30 24 23 -23 25 -22 -13 29 -29 -24 -20 32 35 -34 -33 -32 -4 -19 -25 -36 -18
right_child=1 18 36 5 13 6 -8 8 -10 11 -12 26 -14 -15 15 -17 40 37 20 -21 21 22 27 38 -26 -27 -28 28 -30 -31 31 34 33 -35 39 -37 -38 -39 -40 -41 -42
leaf_value=-0.04192342043932934 -0.037215627380034831 0.0029364549525064368 -0.014857817474341299 -0.00098500191471759756 -0.025874037023458758 -0.014532924738775941 -0.0094345210942736735 -0.032547763583642371 -0.030714505173626377 -0.046371908307697426 -0.028252926809673156 -0.044283955714455328 -0.042415352856140363 -0.02829133904030675 -0.02679165029259991 -0.036886850732522 -0.043399438573218332 -0.041413694432043478 0.0096635824170872037 -0.0063958155247912244 0.0031878067192338318 0.0089238827262150492 0.0025764912036092629 -0.00080412512625933647 0.005548679998304799 -0.0032785102047130335 -0.036974879763481301 0.006503238771214552 0.0022189835567750036 -0.00033977757455873645 0.00065513818497860816 0.0080329644378457094 -0.0058003037179254801 0.0032505799152373624 0.005735969966416842 0.0067525731043043364 -0.0089072568770755985 -0.035431687781023985 0.0030916566620552972 0.00092792397587859157 -0.038702228023143909
leaf_weight=194 34 45 21 27 21 122 607 21 24 50 32 23 46 20 31 40 34 24 20 38 35 115 187 54 29 98 74 77 16688 286 42 83 39 38 39 72 122 66 139 69 99
leaf_count=194 34 45 21 27 21 122 607 21 24 50 32 23 46 20 31 40 34 24 20 38 35 115 187 54 29 98 74 77 16688 286 42 83 39 38 39 72 122 66 139 69 99
internal_value=2.13316e-12 0.00168233 -0.033902 -0.0111287 -0.038219 -0.00995551 -0.0102878 -0.0398325 -0.0383301 -0.0390731 -0.0357445 -0.0413147 -0.0393225 -0.0359842 -0.0364727 -0.0324791 -0.0376347 -0.0349169 0.00223863 -0.00133615 0.00225501 0.00221818 0.00224144 0.00458625 -0.00030129 -0.00157685 -0.038708 0.00219955 0.00223866 0.000813166 0.00387748 0.00357455 0.00215189 -0.00133363 0.0049972 0.00450615 -0.00978112 -0.0370269 0.00200165 0.00266416 -0.039903
internal_weight=19925 18983 942 790 799 756 729 464 270 246 99 147 67 335 315 71 244 111 18193 83 18110 17708 17546 308 162 133 97 17238 16765 473 402 382 191 77 191 114 143 90 193 108 133
internal_count=19925 18983 942 790 799 756 729 464 270 246 99 147 67 335 315 71 244 111 18193 83 18110 17708 17546 308 162 133 97 17238 16765 473 402 382 191 77 191 114 143 90 193 108 133
is_linear=0
shrinkage=0.0888606


Tree=9
num_leaves=42
num_cat=0
split_feature=9 9 0 1 0 6 5 9 7 5 6 3 5 7 5 7 6 0 7 9 5 0 4 8 2 6 9 1 2 2 7 7 5 7 4 3 3 2 0 5 5
split_gain=119.477 14.2236 10.3128 2.54503 0.302892 0.234996 0.257733 0.170654 0.143033 0.328146 0.199671 0.18647 0.284674 0.164005 0.121615 0.243935 0.115971 0.278828 0.140017 0.131847 0.1922 0.187306 0.149866 0.124447 0.116426 0.138743 0.104102 0.0999693 0.176398 0.14458 0.0981614 0.175065 0.128536 0.0925072 0.0901439 0.1951 0.141104 0.146903 0.0889469 0.0885801 0.218037
threshold=0.18574499110609408 0.95453953428124494 4012.5000000000005 6072.3650000000007 444.50000000000006 3181.6300000000006 5920.5700000000006 0.046198318622353511 206.83333333333331 276.97000000000008 1589.4700000000003 7052.5700000000006 977.84500000000014 1012.9200000000001 1468.5450000000003 1314.2650000000001 4835.9250000000011 2316.5000000000005 4561.3550000000005 34.765000000000008 1313.5600000000002 3525.5000000000005 1.0000000180025095e-35 1.0000000180025095e-35 6583.4700000000012 2697.2850000000003 24.175000000000004 7095.7150000000011 16401.785000000003 23474.175000000003 2300.1950000000002 2139.5650000000005 870.75000000000011 2902.3950000000004 -1.0000000180025095e-35 7813.9783333333344 7317.0000000000009 21389.060000000005 540.50000000000011 2241.4600000000005 2313.4950000000003
decision_type=2 2 2 2 2 2 2 2 2 2 2 2 2 2 2 2 2 2 2 2 2 2 2 2 2 2 2 2 2 2 2 2 2 2 2 2 2 2 2 2 2
left_child=2 3 4 -2 7 -5 -7 34 -6 -10 38 13 -13 -12 16 -16 17 24 19 20 23 22 -21 -18 30 -26 -19 28 -9 -29 31 -3 -32 -28 -1 36 37 -36 -11 -17 -41
right_child=1 14 -4 5 8 6 -8 27 9 10 11 12 -14 -15 15 39 18 26 -20 21 -22 -23 -24 -25 25 -27 33 29 -30 -31 32 -33 -34 -35 35 -37 -38 -39 -40 40 -42
leaf_value=-0.042810849026404661 -0.033222001692977565 0.0024243923501263316 -0.0089119592113910597 -0.00089747384959165894 -0.034888481125008614 -0.013103054309979201 -0.0085961636233251124 -0.028431255295171425 -0.020416101893469495 -0.041229516203011067 -0.038492824161017923 -0.021187394612856972 -0.033576850722741552 -0.028850423884709889 -0.0047377060027276171 0.0012723431969319417 0.0096635391002885124 0.003019558665246282 -0.0026988900823774341 0.0032444321124398393 0.0008923102464915855 0.0069905889334073721 -0.0016226335503451742 0.0036963245663617405 0.010179324360203232 0.0016471715964078855 -0.0008453504261697678 -0.028017403367253769 -0.037957417394720895 -0.037232961877946433 0.0024805262628263204 0.0077561438446924914 -0.0061221864983327006 -0.0062163596498867758 -0.037940755243780169 -0.029835842691874986 -0.041189159942014122 -0.032327319590526926 -0.033935143825175686 0.0052911900285076731 0.0019922691934977934
leaf_weight=23 36 1771 143 27 145 120 607 20 20 22 30 32 27 26 43 1335 89 31 25 181 42 74 69 40 34 27 69 41 66 20 32 50 24 40 148 27 70 49 33 160 14057
leaf_count=23 36 1771 143 27 145 120 607 20 20 22 30 32 27 26 43 1335 89 31 25 181 42 74 69 40 34 27 69 41 66 20 32 50 24 40 148 27 70 49 33 160 14057
internal_value=-2.6958e-11 0.00153284 -0.0308894 -0.0101398 -0.0348228 -0.00903776 -0.00934008 -0.0362929 -0.0327867 -0.0311826 -0.0324493 -0.0303432 -0.0268571 -0.034016 0.0020397 0.00194593 0.00260259 0.0023056 0.00378942 0.00411711 0.00611336 0.00306353 0.00190112 0.00781324 0.00258226 0.0064028 -0.00152412 -0.0337904 -0.035742 -0.0310389 0.0024581 0.00257079 -0.00120635 -0.00281636 -0.0374534 -0.0370343 -0.0377622 -0.0365445 -0.0368529 0.00196441 0.0020294
internal_weight=19925 18983 942 790 799 754 727 464 335 190 170 115 59 56 18193 15595 2598 2078 520 495 171 324 250 129 1938 61 140 147 86 61 1877 1821 56 109 317 294 267 197 55 15552 14217
internal_count=19925 18983 942 790 799 754 727 464 335 190 170 115 59 56 18193 15595 2598 2078 520 495 171 324 250 129 1938 61 140 147 86 61 1877 1821 56 109 317 294 267 197 55 15552 14217
is_linear=0
shrinkage=0.0888606


Tree=10
num_leaves=42
num_cat=0
split_feature=9 9 0 1 7 5 5 6 1 3 0 7 1 1 0 1 1 5 9 1 0 7 9 7 5 6 5 9 7 9 9 9 0 1 1 2 7 9 9 7 2
split_gain=99.1871 11.808 8.56144 2.12223 0.263955 0.216679 0.704636 0.289584 0.214479 0.240339 0.269308 0.201914 0.138822 0.38843 0.140417 0.124374 0.162322 0.118041 0.114432 0.107634 0.129599 0.262129 0.292986 0.0934766 0.119826 0.0908018 0.0898433 0.0962458 0.084033 0.0822654 0.158504 0.137529 0.0812795 0.0812028 0.0795928 0.0707612 0.0654863 0.082852 0.140946 0.0929442 0.0514031
threshold=0.18574499110609408 0.95453953428124494 4012.5000000000005 5794.1600000000008 1.0000000180025095e-35 4789.3100000000004 5089.4950000000008 15070.430000000002 5954.5550000000012 7813.9783333333344 337.00000000000006 475.6783333333334 6914.8600000000015 7491.5200000000013 743.00000000000011 7424.7150000000011 6769.4300000000012 505.00000000000006 5.8150000000000004 638.75000000000011 905.50000000000011 881.94500000000005 36.20000000000001 1478.5300000000002 1255.345 374.00000000000006 376.41500000000002 55.745000000000012 4748.1400000000003 78.875000000000014 79.740000000000023 72.875000000000014 936.00000000000011 723.16500000000008 1286.4100000000001 12470096.585955495 206.83333333333331 66.460000000000022 50.475000000000001 511.26500000000004 5576.0000000000009
decision_type=2 2 2 2 2 2 2 2 2 2 2 2 2 2 2 2 2 2 2 2 2 2 2 2 2 2 2 2 2 2 2 2 2 2 2 2 2 2 2 2 2
left_child=2 3 4 -2 17 28 -7 -8 -6 10 15 -11 14 -14 -12 16 -10 40 23 25 26 22 34 -3 -25 -20 -21 33 -5 31 -31 -23 -24 -28 -22 -4 -27 38 -38 -39 -1
right_child=1 18 35 5 8 6 7 -9 9 11 12 -13 13 -15 -16 -17 -18 -19 19 20 21 29 32 24 -26 36 27 -29 -30 30 -32 -33 -34 -35 -36 -37 37 39 -40 -41 -42
leaf_value=-0.031209742320505614 -0.030956494774007436 -0.0058633617365677817 -0.011037100536421976 -0.015972031503029456 -0.021342125777301581 0.0071515543819177206 -0.017190895081275748 -0.0079587709341250902 -0.036106187447013549 -0.019043947525395712 -0.035107767088691372 -0.030695191148154888 -0.023305821935860942 -0.03311488392546777 -0.027798918396578446 -0.037741354258035945 -0.029687595880249218 -0.03124920979564158 -0.0012236921685348631 -0.0026539616510659423 0.010761062209625933 0.0017822183438341039 0.0062043388643361046 0.0059469496258038749 -0.00082543804515036289 0.0069702917972110394 -0.0012741852934702318 -0.0028747447712344659 -0.0093800326745064437 -0.0012531012690113418 0.0041430696400473511 0.0027043404779511834 0.0012246969354086151 0.0031272764015577445 0.0056578480696530438 -0.0067805687807319789 0.0023612194435654373 0.002915299466920613 0.0065616776817657057 -0.0044862732782163534 -0.035276154034167992
leaf_weight=28 34 22 45 37 20 24 28 641 56 24 51 23 74 56 35 51 70 112 32 76 55 15477 33 25 118 43 46 42 26 166 58 1392 120 118 43 98 168 37 101 21 199
leaf_count=28 34 22 45 37 20 24 28 641 56 24 51 23 74 56 35 51 70 112 32 76 55 15477 33 25 118 43 46 42 26 166 58 1392 120 118 43 98 168 37 101 21 199
internal_value=2.88919e-11 0.00139663 -0.0281446 -0.00923879 -0.0317285 -0.00826207 -0.00780848 -0.00834517 -0.0303419 -0.030751 -0.0314692 -0.0247456 -0.0293635 -0.0275313 -0.0321332 -0.0340389 -0.0325403 -0.0336098 0.00185845 0.00187977 0.00184698 0.00187771 0.0047285 -0.000471042 0.000358546 0.0033175 -4.26747e-05 0.000920713 -0.0132515 0.00183585 0.000144122 0.00185831 0.00229874 0.00189272 0.0085219 -0.00812004 0.00371025 0.00328156 0.00393834 0.00023542 -0.0347746
internal_weight=19925 18983 942 790 799 756 693 669 460 440 393 47 216 130 86 177 126 339 18193 18028 17626 17344 251 165 143 402 282 206 63 17093 224 16869 153 164 98 143 370 327 269 58 227
internal_count=19925 18983 942 790 799 756 693 669 460 440 393 47 216 130 86 177 126 339 18193 18028 17626 17344 251 165 143 402 282 206 63 17093 224 16869 153 164 98 143 370 327 269 58 227
is_linear=0
shrinkage=0.0888606


Tree=11
num_leaves=42
num_cat=0
split_feature=9 9 0 3 6 0 5 1 3 9 3 1 3 1 7 6 3 2 9 10 0 5 6 0 4 4 5 9 9 5 1 1 0 0 7 6 5 1 9 8 7
split_gain=82.3427 9.80275 7.10749 1.76445 0.424778 0.219428 0.215418 0.156638 0.336461 0.133314 0.124069 0.123408 0.264335 0.28898 0.116838 0.124114 0.114372 0.114642 0.100623 0.172847 0.0966066 0.0912406 0.210767 0.126491 0.184267 0.344537 0.133932 0.10739 0.138558 0.1095 0.0906146 0.143406 0.134164 0.0885213 0.0866886 0.0769874 0.167369 0.152966 0.122091 0.0987637 0.114141
threshold=0.18574499110609408 0.95453953428124494 4012.5000000000005 6164.6250000000009 1142.9400000000003 444.50000000000006 5920.5700000000006 8131.0000000000009 7813.9783333333344 0.046198318622353511 8078.3966666666674 7491.5200000000013 7052.5700000000006 7243.9800000000005 1012.9200000000001 1142.9400000000003 7317.0000000000009 21389.060000000005 5.4250000000000007 -1.0000000180025095e-35 905.50000000000011 977.84500000000014 2121.3950000000004 1958.5000000000002 1.0000000180025095e-35 -1.0000000180025095e-35 779.70500000000004 62.215000000000011 61.160000000000004 779.70500000000004 7095.7150000000011 5853.6100000000015 337.00000000000006 2384.5000000000005 299.37500000000006 162375.50500000003 37098.290000000008 60116.005000000005 56.250000000000007 1.0000000180025095e-35 6386.5850000000009
decision_type=2 2 2 2 2 2 2 2 2 2 2 2 2 2 2 2 2 2 2 2 2 2 2 2 2 2 2 2 2 2 2 2 2 2 2 2 2 2 2 2 2
left_child=2 3 5 20 -5 7 -6 8 9 16 11 12 14 -14 15 -7 17 -1 19 -3 -2 23 -23 27 25 33 -26 28 29 -20 31 -11 -32 -25 -29 39 38 -38 -37 40 -24
right_child=1 18 -4 4 6 10 -8 -9 -10 30 -12 -13 13 -15 -16 -17 -18 -19 21 -21 -22 22 35 24 26 -27 -28 34 -30 -31 32 -33 -34 -35 -36 36 37 -39 -40 -41 -42
leaf_value=-0.031565156741488007 -0.030576672639125127 0.0023327645387036101 -0.0073984850229333755 0.0047295297108240894 -0.011226564121170584 -0.026661179214093507 -0.0071199076957485117 -0.035335545148152299 -0.020048195113870539 -0.023163987062912835 -0.020389268663145693 -0.030224097251620105 -0.026200469755085245 -0.014568541153060758 -0.022854142628459501 -0.032396702148986239 -0.034560461617769059 -0.026527614400047264 0.0018780905719936007 -0.0058064220011607402 -0.021947279649110984 -0.0038980583071766342 0.0021829790181343237 0.0020738191195796029 0.01333570765091905 -0.0047559365578512111 0.0053576593267332445 0.0045642733196595165 0.007895882561743622 0.0041655830298441806 -0.029313071935709766 -0.031784395739707184 -0.019798357360663189 0.0088395730510760391 9.6407309444709738e-05 0.0078477075770049063 -0.0043523096565154578 0.0024192325497016105 0.0021084889606375404 0.001313373436482011 0.0015769543444146205
leaf_weight=148 21 45 143 22 121 55 606 42 27 20 20 98 48 26 23 65 69 47 908 38 20 54 3740 26 24 37 54 39 36 202 25 64 22 37 284 75 30 216 48 5163 7137
leaf_count=148 21 45 143 22 121 55 606 42 27 20 20 98 48 26 23 65 69 47 908 38 20 54 3740 26 24 37 54 39 36 202 25 64 22 37 284 75 30 216 48 5163 7137
internal_value=6.28933e-12 0.00127252 -0.0256436 -0.00841783 -0.00743529 -0.028909 -0.00780341 -0.0301603 -0.0296452 -0.0303012 -0.027176 -0.0276069 -0.0264249 -0.0221136 -0.0286559 -0.0297679 -0.0314512 -0.030351 0.00169331 -0.00139361 -0.0263672 0.00170746 0.00164437 0.00233805 0.00457519 0.00205014 0.00781244 0.00206698 0.00247034 0.00229437 -0.0279838 -0.0297319 -0.0248594 0.00604736 0.000635871 0.00166261 0.00293163 0.00159343 0.00560801 0.00163342 0.00178533
internal_weight=19925 18983 942 790 749 799 727 464 422 395 335 315 217 74 143 120 264 195 18193 83 41 18110 16463 1647 178 100 78 1469 1146 1110 131 84 47 63 323 16409 369 246 123 16040 10877
internal_count=19925 18983 942 790 749 799 727 464 422 395 335 315 217 74 143 120 264 195 18193 83 41 18110 16463 1647 178 100 78 1469 1146 1110 131 84 47 63 323 16409 369 246 123 16040 10877
is_linear=0
shrinkage=0.0888606


Tree=12
num_leaves=42
num_cat=0
split_feature=9 9 0 5 7 3 3 6 1 3 1 0 5 7 0 6 7 4 1 0 7 9 7 7 10 5 9 7 8 9 9 4 6 0 1 5 9 2 6 9 0
split_gain=68.3588 8.13799 5.90046 1.51896 0.216059 0.191782 1.25824 0.331092 0.179174 0.480355 0.189873 0.167593 0.124771 0.100946 0.0896951 0.0885336 0.152703 0.221052 0.161703 0.166111 0.172204 0.19334 0.146973 0.146578 0.186795 0.106155 0.0929983 0.0928687 0.0901974 0.128463 0.156562 0.0843366 0.125108 0.0751931 0.0607858 0.0599865 0.0802263 0.0598045 0.0397685 0.0346388 0.0339104
threshold=0.18574499110609408 0.95453953428124494 4012.5000000000005 1115.2050000000002 1.0000000180025095e-35 7184.0050000000001 7357.2500000000009 15451.815000000001 8131.0000000000009 7887.2216666666673 5954.5550000000012 337.00000000000006 242.96000000000001 4561.3550000000005 795.00000000000011 929.13000000000011 475.6783333333334 1.0000000180025095e-35 638.75000000000011 863.50000000000011 881.94500000000005 36.20000000000001 971.5100000000001 535.51666666666677 1.0000000180025095e-35 242.96000000000001 52.210000000000008 1314.2650000000001 1.0000000180025095e-35 69.635000000000005 57.545000000000009 -1.0000000180025095e-35 689.35000000000002 444.50000000000006 399.99500000000006 511926.08280260285 0.11438202418588916 19462.020000000004 16860.065000000006 0.092289158474982272 294.50000000000006
decision_type=2 2 2 2 2 2 2 2 2 2 2 2 2 2 2 2 2 2 2 2 2 2 2 2 2 2 2 2 2 2 2 2 2 2 2 2 2 2 2 2 2
left_child=2 3 4 -2 14 13 -7 -8 9 10 -6 37 -13 -5 40 28 17 25 23 22 21 -21 -20 -18 -25 -17 -24 -22 29 30 31 32 -3 -30 -32 39 -37 -12 -9 -4 -1
right_child=1 15 35 5 8 6 7 38 -10 -11 11 12 -14 -15 -16 16 18 -19 19 20 27 -23 26 24 -26 -27 -28 -29 33 -31 34 -33 -34 -35 -36 36 -38 -39 -40 -41 -42
leaf_value=-0.029784132620440051 -0.026633756626230676 -0.0031992581536540313 -0.012026361889864744 -0.015285631189659846 -0.01695660087530285 0.015027900107388971 -0.01574243196198007 -0.010507788325889776 -0.031846695525998635 -0.013155626294068773 -0.032215985112938328 -0.018124742144077603 -0.024930564467561089 -0.0086677703801722409 -0.025102627083599637 0.00457249250008034 0.0099528349201249283 -0.0096794277239769782 -0.0036079994645690492 0.0068383436336921137 0.00025049832347752031 0.001960888080043834 0.0046732345503984838 -0.0017494558822598997 0.0077226949566851508 -0.0028160297212529483 -0.0028128398356110154 0.0015398109989417552 0.0025184251067537394 0.0098146460050256793 -0.0048021235013019073 0.0062531880690457203 0.0051042585201140165 -0.0037730532380916963 0.0018035033641465653 -0.0012526322582975622 -0.0070331631030784141 -0.027256920881697837 -0.0064802673893955814 -0.0071741095349938562 -0.027801796357833308
leaf_weight=131 32 23 21 28 20 21 33 20 29 27 22 24 187 52 66 28 33 23 93 101 453 176 38 35 31 34 20 16843 40 26 22 90 38 24 22 26 70 151 604 26 142
leaf_count=131 32 23 21 28 20 21 33 20 29 27 22 24 187 52 66 28 33 23 93 101 453 176 38 35 31 34 20 16843 40 26 22 90 38 24 22 26 70 151 604 26 142
internal_value=2.20935e-11 0.00115945 -0.0233649 -0.00766981 -0.0263402 -0.00686923 -0.0063837 -0.00706809 -0.0250857 -0.0246308 -0.0253977 -0.0258374 -0.0241564 -0.010984 -0.0280423 0.00154284 0.00151811 -0.00223932 0.00153603 0.00151603 0.00154125 0.00373931 -0.00141866 0.00511733 0.00269958 0.000520722 0.00209183 0.00150604 0.0030967 0.00394741 0.00316511 0.00452428 0.00197342 0.000159121 -0.00149931 -0.00674105 -0.0054676 -0.0278876 -0.00660935 -0.00934214 -0.028753
internal_weight=19925 18983 942 790 799 758 678 657 460 431 404 384 211 80 339 18193 17908 85 17823 17724 17573 277 151 99 66 62 58 17296 285 221 195 151 61 64 44 143 96 173 624 47 273
internal_count=19925 18983 942 790 799 758 678 657 460 431 404 384 211 80 339 18193 17908 85 17823 17724 17573 277 151 99 66 62 58 17296 285 221 195 151 61 64 44 143 96 173 624 47 273
is_linear=0
shrinkage=0.0888606


Tree=13
num_leaves=42
num_cat=0
split_feature=9 9 0 5 6 7 5 1 3 1 7 6 2 9 10 9 5 6 9 0 0 7 0 6 8 7 2 9 6 5 0 1 2 0 5 7 1 5 0 1 2
split_gain=56.7498 6.75596 4.89842 1.261 0.186318 0.179366 0.172421 0.148746 0.400252 0.160537 0.169247 0.275473 0.125446 0.0819498 0.141804 0.0816832 0.134021 0.367132 0.202578 0.157454 0.166183 0.120303 0.367645 0.153666 0.0983305 0.16928 0.258327 0.234702 0.159792 0.33259 0.313737 0.144512 0.272938 0.280067 0.141711 0.104059 0.0973636 0.0750857 0.0530488 0.0514087 0.0368887
threshold=0.18574499110609408 0.95453953428124494 4012.5000000000005 1115.2050000000002 2844.3900000000008 1.0000000180025095e-35 5862.5650000000005 8131.0000000000009 7813.9783333333344 5954.5550000000012 971.5100000000001 3061.0000000000005 20412.125000000004 5.4250000000000007 -1.0000000180025095e-35 45.365000000000002 45652.660000000011 178882.56500000003 44.005000000000003 61763.000000000007 74979.000000000015 5244.6550000000007 5068.5000000000009 22275.725000000002 1.0000000180025095e-35 52279.110000000008 165284.00000000003 71.185000000000016 27336.945000000003 7771.2350000000015 10951.500000000002 79202.385000000024 183992.09000000003 50595.500000000007 35771.570000000007 56865.005000000012 65691.260000000024 816.0200000000001 73424.500000000015 1979809.1319193111 21562.125000000004
decision_type=2 2 2 2 2 2 2 2 2 2 2 2 2 2 2 2 2 2 2 2 2 2 2 2 2 2 2 2 2 2 2 2 2 2 2 2 2 2 2 2 2
left_child=2 3 5 -2 -5 37 40 8 9 -7 12 -12 -11 14 -3 16 17 21 19 -18 -21 23 -23 -15 31 28 34 -28 30 -30 -26 32 33 -17 -27 -33 -34 -1 -19 -4 -6
right_child=1 13 39 4 6 7 -8 -9 -10 10 11 -13 -14 15 -16 24 18 38 -20 20 -22 22 -24 -25 25 26 27 -29 29 -31 -32 35 36 -35 -36 -37 -38 -39 -40 -41 -42
leaf_value=-0.026113393400906612 -0.024267063917479667 0.0019951402628767588 -0.01020300821998832 0.00099019921036338858 -0.0080480423737290807 -0.01544982651116051 -0.0059217651218921559 -0.029016777825617675 -0.012880116547128418 -0.027072041454820926 -0.012402653707311509 -0.024406132294435234 -0.023257674754004254 0.0019927105898847187 -0.0053770215692999935 0.0014578916082432151 -0.0063609733468719849 0.0064329231368681636 0.0071231994386302053 0.001931350698548248 -0.0036219800577995411 -0.0026225004622529228 0.00149790661774248 0.0083826056527191717 0.00040576299877832333 0.010075357636519637 -0.0015724741716942516 0.0061432692918504265 -0.0085387837305831837 -0.0001863635536850561 0.0035041862377881727 -0.0082726615479213183 0.0073944240675183001 -0.0024090849255757087 0.0026721696477923205 -0.00010191118907417886 0.0031436762327360212 -0.02244356829593909 0.012405019414687454 -0.0054430172379552654 -0.011164027165628298
leaf_weight=287 32 45 21 27 60 20 611 29 32 99 26 36 218 3154 38 5469 40 23 25 111 69 176 6005 30 1565 49 101 45 41 460 309 20 73 152 35 32 102 52 24 122 60
leaf_count=287 32 45 21 27 60 20 611 29 32 99 26 36 218 3154 38 5469 40 23 25 111 69 176 6005 30 1565 49 101 45 41 460 309 20 73 152 35 32 102 52 24 122 60
internal_value=1.93456e-12 0.00105642 -0.0212887 -0.00698827 -0.00625882 -0.0239996 -0.00652657 -0.0228566 -0.0224421 -0.023209 -0.0236185 -0.0193724 -0.0244489 0.00140574 -0.00138007 0.00141851 0.00159507 0.00164848 -0.000456717 -0.00131807 -0.000197426 0.00160917 0.00138058 0.00205292 0.0012168 0.000762703 0.00306455 0.000805666 0.000539787 -0.000869895 0.000916656 0.00141908 0.00146092 0.00135332 0.0069907 -0.00324451 0.00491685 -0.0255505 0.0094825 -0.00614204 -0.00960603
internal_weight=19925 18983 942 790 758 799 731 460 431 399 379 62 317 18193 83 18110 9657 9412 245 220 180 9365 6181 3184 8453 2605 230 146 2375 501 1874 5848 5796 5621 84 52 175 339 47 143 120
internal_count=19925 18983 942 790 758 799 731 460 431 399 379 62 317 18193 83 18110 9657 9412 245 220 180 9365 6181 3184 8453 2605 230 146 2375 501 1874 5848 5796 5621 84 52 175 339 47 143 120
is_linear=0
shrinkage=0.0888606


Tree=14
num_leaves=42
num_cat=0
split_feature=9 9 0 3 6 7 2 1 3 1 0 6 9 9 0 7 0 9 1 0 9 5 1 2 5 7 1 6 2 5 6 9 4 6 9 1 3 0 1 7 0
split_gain=47.1122 5.60863 4.06654 1.10369 0.322611 0.148906 0.129378 0.123485 0.336597 0.131057 0.129718 0.12195 0.0753217 0.180704 0.301581 0.214411 0.261265 0.230614 0.144641 0.180647 0.140587 0.125551 0.219056 0.196313 0.290288 0.148685 0.19259 0.217559 0.127458 0.153294 0.125528 0.119406 0.118537 0.114485 0.0870409 0.0726381 0.0725984 0.0683022 0.468464 0.0946817 0.0969653
threshold=0.18574499110609408 0.95453953428124494 4012.5000000000005 6164.6250000000009 1142.9400000000003 1.0000000180025095e-35 25667.920000000002 8131.0000000000009 7887.2216666666673 5954.5550000000012 337.00000000000006 1285.8950000000002 77.385000000000005 72.875000000000014 38556.500000000007 15827.550000000001 9117.5000000000018 74.710000000000022 20235.440000000002 21752.000000000004 77.190000000000012 46990.240000000013 54582.840000000004 170489.96000000005 35771.570000000007 99889.205000000016 61376.460000000014 118076.88500000002 150767.03500000003 41715.110000000008 178882.56500000003 68.915000000000006 1.0000000180025095e-35 23339.970000000005 78.02500000000002 69410.645000000019 6939.005000000001 17011.500000000004 15187.400000000003 29466.970000000005 44513.000000000007
decision_type=2 2 2 2 2 2 2 2 2 2 2 2 2 2 2 2 2 2 2 2 2 2 2 2 2 2 2 2 2 2 2 2 2 2 2 2 2 2 2 2 2
left_child=2 3 5 -2 -5 -1 -6 8 9 -7 36 -12 13 21 15 16 20 -18 33 -20 -15 22 28 30 -25 26 27 -23 31 -30 -24 -3 37 -17 -34 -28 -11 38 -14 -39 -41
right_child=1 12 -4 4 6 7 -8 -9 -10 10 11 -13 32 14 -16 18 17 -19 19 -21 -22 25 23 24 -26 -27 35 -29 29 -31 -32 -33 34 -35 -36 -37 -38 39 -40 40 -42
leaf_value=-0.023280039145809155 -0.020563340695715509 0.0012962862908514124 -0.0055962514464930647 0.0050112252217745842 -0.0085378812867197614 -0.014076944866459691 -0.0053760728660329138 -0.026438328692410779 -0.010842073262973663 -0.020823172354096354 -0.016240706314642271 -0.021197970108341579 0.00069906028663157811 0.0011833382643589947 0.0068452375708304165 0.00098418318643877373 0.0078691371941273357 0.0023635191035225192 0.0068242947159284995 -0.002622347507303213 0.006983157992781595 0.0064739891415658713 0.0046906759690924713 0.00013415874299595884 0.0042895103563270797 0.0043625780941400497 -0.0046635074847958657 -0.0018576823361203534 -0.0034991139520921528 0.0031380898890084499 0.011926377777233257 0.0002312614372046506 -0.0054029011298340869 -0.005396491271112764 -0.0006000255173177865 -0.0013131214049276097 -0.024619280795509381 -0.0041606100713767243 0.012807599110238845 0.0058345131547085354 -0.0011595616004193101
leaf_weight=339 41 14444 143 22 123 20 604 29 27 62 52 159 255 578 109 34 114 127 33 31 35 50 78 266 265 47 72 49 93 39 25 882 37 64 153 176 111 40 28 24 45
leaf_count=339 41 14444 143 22 123 20 604 29 27 62 52 159 255 578 109 34 114 127 33 31 35 50 78 266 265 47 72 49 93 39 25 882 37 64 153 176 111 40 28 24 45
internal_value=-2.45364e-11 0.000962543 -0.019397 -0.00636729 -0.0055902 -0.0218669 -0.00591101 -0.0208256 -0.0204479 -0.0210899 -0.0214551 -0.0199763 0.00128083 0.0013137 0.00240334 0.0019268 0.00248903 0.00496784 -0.00103706 0.00224858 0.00151449 0.00123934 0.00127771 0.00289659 0.00220792 -0.000327837 -0.000963138 0.00235023 0.00121131 -0.00153812 0.00644691 0.00123499 0.000286229 -0.00318279 -0.00153532 -0.00228581 -0.0232588 0.00116912 0.00189708 -0.000720884 0.00127316
internal_weight=19925 18983 942 790 749 799 727 460 431 404 384 211 18193 17611 1125 1016 854 241 162 64 613 16486 16092 634 531 394 347 99 15458 132 103 15326 582 98 190 248 173 392 283 109 69
internal_count=19925 18983 942 790 749 799 727 460 431 404 384 211 18193 17611 1125 1016 854 241 162 64 613 16486 16092 634 531 394 347 99 15458 132 103 15326 582 98 190 248 173 392 283 109 69
is_linear=0
shrinkage=0.0888606


Tree=15
num_leaves=42
num_cat=0
split_feature=9 9 0 1 0 0 6 7 5 1 7 1 2 7 3 0 5 7 10 0 0 4 6 1 4 6 0 0 7 6 6 7 7 6 0 7 9 9 1 9 3
split_gain=39.1114 4.65614 3.38854 0.937081 0.180689 0.16117 0.543548 0.130162 0.12416 0.105781 0.0957506 0.0846876 0.080774 0.12366 0.22223 0.168377 0.0761587 0.184393 0.100656 0.10825 0.144521 0.123495 0.213331 0.112874 0.104075 0.11328 0.174842 0.0972559 0.148698 0.112125 0.102729 0.0889995 0.124747 0.129833 0.195951 0.0900987 0.0862945 0.0859224 0.0855593 0.0855263 0.0821756
threshold=0.18574499110609408 0.95453953428124494 79241.500000000015 2547.5850000000005 795.00000000000011 4828.0000000000009 13258.630000000003 535.51666666666677 909.94000000000017 5794.1600000000008 4748.1400000000003 7292.6950000000006 20412.125000000004 1.0000000180025095e-35 6815.130000000001 167.00000000000003 1468.5450000000003 1314.2650000000001 1.0000000180025095e-35 3898.5000000000005 3613.5000000000005 1.0000000180025095e-35 858.7600000000001 3560.9850000000006 1.0000000180025095e-35 2258.3600000000006 936.00000000000011 3179.0000000000005 2300.1950000000002 4548.0150000000012 7883.7700000000013 1372.5950000000003 1976.9750000000001 4682.5300000000007 2138.5000000000005 2088.8700000000003 66.460000000000022 31.340000000000003 3754.1850000000004 36.835000000000008 9701.715000000002
decision_type=2 2 2 2 2 2 2 2 2 2 2 2 2 2 2 2 2 2 2 2 2 2 2 2 2 2 2 2 2 2 2 2 2 2 2 2 2 2 2 2 2
left_child=2 3 4 -2 9 7 -7 -5 11 -1 -8 -6 -11 -14 -15 -16 18 -18 19 20 21 23 -23 -3 27 26 37 28 36 -30 -29 -19 33 34 -33 38 -20 -26 -34 -35 -37
right_child=1 16 -4 5 8 6 10 -9 -10 12 -12 -13 13 14 15 -17 17 31 24 -21 -22 22 -24 -25 25 -27 -28 30 29 -31 -32 32 35 39 -36 40 -38 -39 -40 -41 -42
leaf_value=-0.015832555124418956 -0.021766997954858324 0.0015408118684130984 -0.0044126921401172366 -0.014183439427926462 -0.016345995757498257 0.009252896933717154 -0.010258562017290675 -0.0060215756557667121 -0.01910622493889989 -0.022312203069516381 -0.0050397248874492614 -0.0093964778772911636 -0.022023177866118272 -0.010730316099438513 -0.024053500465901642 -0.018369633932163378 -0.004718154849036719 0.0061142046156270483 0.0024736910048780087 -0.0047163903469924261 0.0072084541573745773 0.0060248824226332206 -0.00060617369582448234 0.0074623453956261677 0.00071202073910282338 0.004906378895237251 -0.0034230241870249335 0.0071550596352064864 -0.0067923680308667866 -1.5788312339934748e-07 0.00068667781445893835 -0.0041343958531915286 0.0015908843437562672 -0.0078417350134809272 0.0036491018268212209 0.00089109541820484874 -0.0011197044206542872 0.005947722906206065 0.0081403050212426158 -0.0018495916140106687 0.0013050211205881115
leaf_weight=36 28 1136 131 27 45 21 29 36 110 189 649 20 160 24 54 173 43 28 325 24 32 42 436 26 45 206 39 47 28 61 33 39 36 26 74 6996 63 55 28 68 8257
leaf_count=36 28 1136 131 27 45 21 29 36 110 189 649 20 160 24 54 173 43 28 325 24 32 42 436 26 45 206 39 47 28 61 33 39 36 26 74 6996 63 55 28 68 8257
internal_value=-9.77998e-12 0.000877011 -0.0176734 -0.00580149 -0.0198153 -0.00521483 -0.00482685 -0.00951952 -0.0172868 -0.0205111 -0.00526295 -0.0142077 -0.0207918 -0.0200926 -0.018862 -0.0197217 0.00116701 0.00109281 0.00161245 0.00120909 0.00129414 0.00117874 -2.35286e-05 0.00167331 0.00237089 0.00358372 0.00162351 0.00161968 0.00113881 -0.00213703 0.00448685 0.00110887 0.00109985 -0.00106698 0.000962762 0.00112913 0.00189023 0.00359166 0.00445626 -0.00350699 0.00111517
internal_weight=19925 18983 942 790 811 762 699 63 175 636 678 65 600 411 251 227 18193 15595 2598 1696 1672 1640 478 1162 902 345 139 557 477 89 80 15552 15524 207 113 15317 388 100 64 94 15253
internal_count=19925 18983 942 790 811 762 699 63 175 636 678 65 600 411 251 227 18193 15595 2598 1696 1672 1640 478 1162 902 345 139 557 477 89 80 15552 15524 207 113 15317 388 100 64 94 15253
is_linear=0
shrinkage=0.0888606


Tree=16
num_leaves=42
num_cat=0
split_feature=9 9 0 3 6 0 5 2 1 1 1 1 6 1 9 5 2 0 6 1 9 7 0 9 5 5 6 6 10 0 9 1 0 1 1 1 5 5 1 9 5
split_gain=32.4693 3.86541 2.81308 0.800287 0.239024 0.150003 0.103075 0.0918142 0.0901129 0.212243 0.127269 0.0828916 0.234968 0.123324 0.0748556 0.0784495 0.0797623 0.106307 0.0719213 0.0703055 0.0691668 0.100799 0.288011 0.211024 0.155668 0.13747 0.128426 0.118414 0.242692 0.181019 0.0945599 0.1729 0.155712 0.16968 0.224655 0.207241 0.145666 0.191579 0.133937 0.0919447 0.07639
threshold=0.18574499110609408 0.95453953428124494 79241.500000000015 6164.6250000000009 1142.9400000000003 795.00000000000011 909.94000000000017 25667.920000000002 8131.0000000000009 7944.6500000000005 7780.6650000000009 7095.7150000000011 596.50000000000011 5794.1600000000008 5.8150000000000004 5237.630000000001 11724.220000000003 4513.5000000000009 30718.765000000003 7292.6950000000006 45.365000000000002 5244.6550000000007 5068.5000000000009 37.530000000000008 2150.9450000000002 5743.2850000000008 22275.725000000002 18331.690000000002 1.0000000180025095e-35 6605.5000000000009 64.035000000000011 79202.385000000024 67752.000000000015 16964.740000000002 16633.585000000003 19140.810000000005 541.20000000000016 3848.5200000000004 73545.165000000023 50.475000000000001 2673.1450000000004
decision_type=2 2 2 2 2 2 2 2 2 2 2 2 2 2 2 2 2 2 2 2 2 2 2 2 2 2 2 2 2 2 2 2 2 2 2 2 2 2 2 2 2
left_child=2 3 5 -2 -5 8 19 -6 9 10 11 13 -13 -1 15 16 -3 -18 -17 -7 21 26 23 -23 -24 -26 27 29 -29 -16 31 36 33 34 -32 -35 39 -38 -34 -22 -25
right_child=1 14 -4 4 7 6 -8 -9 -10 -11 -12 12 -14 -15 20 18 17 -19 -20 -21 30 22 24 40 25 -27 -28 28 -30 -31 32 -33 38 35 -36 -37 37 -39 -40 -41 -42
leaf_value=-0.014425663960471529 -0.017374329609829112 -0.0021642849910162346 -0.0040205775465568657 0.0045010043898462641 -0.0071132991599519918 -0.014893480271997418 -0.01740843327209933 -0.0044497504314214625 -0.021770886179352342 -0.010636182143645938 -0.023667557249892356 -0.020486062083078804 -0.014461829161351632 -0.019977614460972931 0.0014782548732853993 -0.0076206428172340785 0.0078262937257791119 1.8733951972661523e-05 -0.0010770742230449466 -0.0085615006189587485 2.0743729340986844e-05 -0.0046831472458288828 0.0057645368380466093 0.0057249395405802204 0.00040563266809737084 0.0013514881647781027 0.0074433496487214543 -0.0059182400278272535 0.0043549350247261039 0.0039347980207318726 0.0013103553171453608 -0.0058912763916613596 0.0064350146063306976 -0.0034172886400406265 0.0085735387908942775 0.0005687642437300196 -0.00025579091068532125 0.00099162442949483442 0.00085540742311536098 0.0044219235023056748 -0.00086380264339663642
leaf_weight=36 41 47 131 22 123 45 110 604 67 27 38 88 122 258 2771 21 21 40 36 20 53 117 57 24 1654 4554 30 46 30 259 3061 32 82 125 34 585 1487 2808 58 128 33
leaf_count=36 41 47 131 22 123 45 110 604 67 27 38 88 122 258 2771 21 21 40 36 20 53 117 57 24 1654 4554 30 46 30 259 3061 32 82 125 34 585 1487 2808 58 128 33
internal_value=1.51034e-11 0.000799079 -0.0161029 -0.00528596 -0.00462425 -0.0180545 -0.0157507 -0.00490039 -0.0186885 -0.0183255 -0.0187085 -0.0183347 -0.0169863 -0.0192978 0.00106331 -0.000820776 0.000586853 0.00270658 -0.00348786 -0.0129452 0.00108056 0.00124409 0.00104289 -0.00252319 0.00114193 0.00109948 0.00165723 0.00160134 -0.00186304 0.00168824 0.00089531 0.000617282 0.00121302 0.00110593 0.00139014 -0.000133006 0.000663813 0.000559749 0.00412346 0.00313318 0.0019104
internal_weight=19925 18983 942 790 749 811 175 727 636 569 542 504 210 294 18193 165 108 61 57 65 18028 9575 6439 174 6265 6208 3136 3106 76 3030 8453 4508 3945 3805 3095 710 4476 4295 140 181 57
internal_count=19925 18983 942 790 749 811 175 727 636 569 542 504 210 294 18193 165 108 61 57 65 18028 9575 6439 174 6265 6208 3136 3106 76 3030 8453 4508 3945 3805 3095 710 4476 4295 140 181 57
is_linear=0
shrinkage=0.0888606


Tree=17
num_leaves=42
num_cat=0
split_feature=9 9 0 1 5 5 6 6 7 1 3 1 1 1 8 3 9 9 4 9 0 7 1 0 5 1 2 7 1 2 1 0 1 7 7 0 0 0 9 0 6
split_gain=26.9552 3.20897 2.34319 0.680257 0.123747 0.55216 0.23426 0.209642 0.103483 0.0916166 0.261131 0.152503 0.472697 0.105595 0.0951936 0.121146 0.0632198 0.156327 0.100082 0.0860769 0.241183 0.12766 0.207654 0.152583 0.104184 0.170143 0.164238 0.121811 0.154482 0.108067 0.0805266 0.166303 0.143932 0.118178 0.0801224 0.1189 0.0549288 0.0532847 0.0861431 0.051626 0.0932864
threshold=0.18574499110609408 0.95453953428124494 4012.5000000000005 2547.5850000000005 4789.3100000000004 5089.4950000000008 13258.630000000003 14867.435000000001 1.0000000180025095e-35 8131.0000000000009 7813.9783333333344 7491.5200000000013 7372.670000000001 5954.5550000000012 -1.0000000180025095e-35 7520.836666666667 77.385000000000005 77.190000000000012 1.0000000180025095e-35 72.875000000000014 38556.500000000007 15827.550000000001 8868.2950000000019 17628.000000000004 46990.240000000013 54582.840000000004 170489.96000000005 99889.205000000016 61376.460000000014 150767.03500000003 23271.750000000004 17011.500000000004 8281.8750000000018 4966.3450000000003 16652.740000000002 6083.5000000000009 294.50000000000006 46365.000000000007 75.77500000000002 50595.500000000007 32155.235000000004
decision_type=2 2 2 2 2 2 2 2 2 2 2 2 2 2 2 2 2 2 2 2 2 2 2 2 2 2 2 2 2 2 2 2 2 2 2 2 2 2 2 2 2
left_child=2 3 8 -2 6 -6 -5 -7 36 10 11 12 13 -10 15 -13 17 19 39 24 21 22 -21 -23 25 29 -27 28 -26 -3 31 32 33 -20 35 -19 -1 -22 -39 40 -18
right_child=1 16 -4 4 5 7 -8 -9 9 -11 -12 14 -14 -15 -16 -17 18 34 30 20 37 23 -24 -25 27 26 -28 -29 -30 -31 -32 -33 -34 -35 -36 -37 -38 38 -40 -41 -42
leaf_value=-0.019150205288353504 -0.018419132016789762 0.00093085685906479953 -0.0041960234053793422 -0.01573303635753907 0.0092838014534602168 -0.012770751404106075 -0.0044804405293620416 -0.0041373526611838268 -0.0098019124839455393 -0.020513310469586828 -0.0076299981689020406 -0.021225594643900288 -0.0027949990779584538 -0.016494405304670976 -0.022102450177207692 -0.011669881118511213 0.00022281241780490856 0.0027616732984636445 -0.0032434397742502718 0.0007032080529286752 0.0095976930919329656 -0.007142650892231075 0.0036859434156992468 0.00026821681970124844 0.0018974872718833856 0.0056416645521114887 0.0017643996452179811 0.003750423927189397 -0.0022546358254587435 -0.001622615637779824 -0.0053997832474533122 0.0059015743322199006 -0.0074091568445833166 0.0029122879205937748 0.00098479424004002669 0.011899245477910634 -0.016827243571337282 0.0021593508025742427 0.0079911795606042776 -0.0029572006639323762 0.0033333641249458268
leaf_weight=131 28 15326 143 21 24 23 48 646 20 29 32 20 23 269 45 22 258 22 53 525 23 27 284 117 99 103 531 47 248 132 36 25 30 46 23 23 208 45 36 26 108
leaf_count=131 28 15326 143 21 24 23 48 646 20 29 32 20 23 269 45 22 258 22 53 525 23 27 284 117 99 103 531 47 248 132 36 25 30 46 23 23 208 45 36 26 108
internal_value=-1.94571e-12 0.000728072 -0.014672 -0.00481625 -0.00431641 -0.00395908 -0.00790514 -0.00443417 -0.0165469 -0.0156787 -0.0153535 -0.0159729 -0.0150555 -0.0160313 -0.0192628 -0.0162202 0.000968825 0.000998938 5.76239e-05 0.000982455 0.00175981 0.00131639 0.0017503 -0.00112132 0.000932615 0.000967569 0.0023943 -0.000494996 -0.00107002 0.000909052 -0.00161613 -0.000731639 -0.00201715 -0.000383203 0.00525132 0.00743199 -0.0177249 0.00582308 0.00475127 0.000868882 0.00114068
internal_weight=19925 18983 942 790 762 693 69 669 799 460 431 399 312 289 87 42 18193 17611 582 17543 1057 953 809 144 16486 16092 634 394 347 15458 190 154 129 99 68 45 339 104 81 392 366
internal_count=19925 18983 942 790 762 693 69 669 799 460 431 399 312 289 87 42 18193 17611 582 17543 1057 953 809 144 16486 16092 634 394 347 15458 190 154 129 99 68 45 339 104 81 392 366
is_linear=0
shrinkage=0.0888606


Tree=18
num_leaves=42
num_cat=0
split_feature=9 9 0 3 6 0 5 5 5 1 3 1 4 7 2 6 6 0 6 0 1 6 4 6 7 7 2 5 9 9 9 6 7 0 9 9 5 9 9 5 5
split_gain=22.3775 2.66401 1.95709 0.565458 0.214334 0.116949 0.0760094 0.0759319 0.106527 0.0698728 0.069718 0.0622297 0.085724 0.0621471 0.261572 0.31997 0.247035 0.255238 0.218168 0.211041 0.144308 0.12631 0.226626 0.214752 0.122293 0.256277 0.193092 0.192208 0.117949 0.116782 0.166438 0.152272 0.115164 0.154676 0.113828 0.23894 0.140903 0.112603 0.107456 0.127132 0.103824
threshold=0.18574499110609408 0.95453953428124494 79241.500000000015 6164.6250000000009 1142.9400000000003 795.00000000000011 909.94000000000017 5184.5200000000013 4789.3100000000004 5794.1600000000008 6862.5316666666668 6346.7650000000003 1.0000000180025095e-35 8560.9450000000015 27667.190000000006 30206.745000000006 25300.435000000001 8090.5000000000009 7883.7700000000013 8090.5000000000009 8358.2500000000018 12647.825000000003 1.0000000180025095e-35 11382.270000000002 24159.805000000004 21649.550000000003 54583.575000000004 11331.345000000003 28.485000000000003 42.465000000000011 69.980000000000004 24579.405000000002 8675.090000000002 9046.0000000000018 20.815000000000001 25.795000000000005 45652.660000000011 22.755000000000006 50.475000000000001 6176.1350000000011 10908.780000000001
decision_type=2 2 2 2 2 2 2 2 2 2 2 2 2 2 2 2 2 2 2 2 2 2 2 2 2 2 2 2 2 2 2 2 2 2 2 2 2 2 2 2 2
left_child=2 3 5 -2 -5 9 10 8 -6 -1 -7 -11 -13 14 16 19 17 21 -15 -16 -18 23 -23 -3 25 32 27 40 -29 31 -31 -21 33 -20 36 -36 -28 -34 39 -19 -26
right_child=1 13 -4 4 7 6 -8 -9 -10 11 -12 12 -14 18 15 -17 20 38 24 29 -22 22 -24 -25 26 -27 34 28 -30 30 -32 -33 37 -35 35 -37 -38 -39 -40 -41 -42
leaf_value=-0.011753392421124451 -0.014549472556513714 0.00099638161511657157 -0.0032904452037597646 0.0048090592321692396 -0.0047394230026151464 -0.01285337687670548 -0.014385387801310077 -0.0037878321409281494 -0.012331197797069144 -0.019125490089727835 -0.0068714855751460836 -0.015844357597367301 -0.011575095327545427 -0.0072592613543122153 0.010210419627454323 -0.0021300818227067381 0.0021882171375962492 -0.002423094212613624 0.00022462579316192145 0.00050622775938807666 0.012151821604541905 0.0009466070396320468 -0.00141584266316088 0.0030159419381054833 0.005319257131591734 -0.0017577007046579039 0.00056258018830859346 0.0044585849441658746 -0.0029463155511701305 0.0048528088961869685 0.00046769170506337087 0.0048621902810962805 0.0014983800857558828 -0.0083501237060933271 0.0042719037074692452 0.0010490234312741241 -0.0031157845598857314 0.00050408764491472532 -0.0031879488596345527 0.0018493142968932712 0.012488563480242862
leaf_weight=36 41 5949 131 22 54 40 110 653 20 41 25 519 40 27 32 103 22 103 46 249 24 1069 458 447 58 369 511 35 33 306 88 85 1127 26 200 1979 98 4453 156 118 22
leaf_count=36 41 5949 131 22 54 40 110 653 20 41 25 519 40 27 32 103 22 103 46 249 24 1069 458 447 58 369 511 35 33 306 88 85 1127 26 200 1979 98 4453 156 118 22
internal_value=-9.64514e-13 0.000663375 -0.0133682 -0.00438827 -0.00383205 -0.0149961 -0.0129618 -0.00409354 -0.00679125 -0.0155558 -0.0105526 -0.015784 -0.0155389 0.000882735 0.00104495 0.00251772 0.000892664 0.000856673 0.000716455 0.00314761 0.00738662 0.000964163 0.000238027 0.00113752 0.000740497 0.000511213 0.0012107 0.00433843 0.00086503 0.00283716 0.00387339 0.00161478 0.000659343 -0.00287181 0.00104467 0.00134484 -2.93406e-05 0.000704906 -0.00140233 -0.000141899 0.00729082
internal_weight=19925 18983 942 790 749 811 175 727 74 636 65 600 559 18193 9209 863 8346 8300 8984 760 46 7923 1527 6396 8957 6021 2936 148 68 728 394 334 5652 72 2788 2179 609 5580 377 221 80
internal_count=19925 18983 942 790 749 811 175 727 74 636 65 600 559 18193 9209 863 8346 8300 8984 760 46 7923 1527 6396 8957 6021 2936 148 68 728 394 334 5652 72 2788 2179 609 5580 377 221 80
is_linear=0
shrinkage=0.0888606


Tree=19
num_leaves=42
num_cat=0
split_feature=9 9 0 1 6 0 0 0 0 5 0 5 2 3 7 9 5 1 1 3 10 1 3 3 6 5 7 7 7 5 1 9 1 7 9 1 9 5 5 5 0
split_gain=18.5773 2.21188 1.62473 0.632171 0.147468 0.525003 0.757298 0.113397 0.104682 0.137579 0.172083 0.100668 0.0900701 0.0876534 0.102816 0.0799672 0.111593 0.142845 0.195249 0.0935739 0.0897937 0.131519 0.135824 0.110296 0.102041 0.0795592 0.066303 0.0651428 0.0601835 0.232751 0.216027 0.299089 0.26101 0.235188 0.226604 0.246497 0.20954 0.255453 0.209812 0.198437 0.190551
threshold=0.18574499110609408 5.4250000000000007 79241.500000000015 2547.5850000000005 13548.970000000003 5370.5000000000009 4715.5000000000009 6605.5000000000009 444.50000000000006 276.97000000000008 637.00000000000011 691.47500000000014 23666.390000000003 7357.2500000000009 971.5100000000001 0.036656771528894509 211.76500000000001 6769.4300000000012 7187.3750000000009 7095.5833333333348 1.0000000180025095e-35 7372.670000000001 7002.3700000000008 6696.4250000000011 1478.5100000000002 603.7600000000001 1.0000000180025095e-35 556000.75327577337 6386.5850000000009 7033.0500000000011 8358.2500000000018 56.250000000000007 4526.5650000000014 11915.640000000001 45.025000000000013 6031.2250000000013 32.770000000000003 7632.9900000000007 6111.3550000000005 6670.0250000000005 7662.5000000000009
decision_type=2 2 2 2 2 2 2 2 2 2 2 2 2 2 2 2 2 2 2 2 2 2 2 2 2 2 2 2 2 2 2 2 2 2 2 2 2 2 2 2 2
left_child=2 3 8 -2 5 6 -5 -6 15 10 -10 25 13 14 -13 16 17 -1 -19 -20 24 22 23 -22 -17 -11 -18 -9 29 39 31 34 -33 -34 36 -36 37 -30 -38 -3 -32
right_child=1 28 -4 4 7 -7 -8 27 9 11 -12 12 -14 -15 -16 20 26 18 19 -21 21 -23 -24 -25 -26 -27 -28 -29 30 -31 40 32 33 -35 35 -37 38 -39 -40 -41 -42
leaf_value=-0.017989644008429641 -0.01529440010292225 0.00097543386216663881 -0.0029980540976862497 -0.0045893047463364065 -0.0061897227428522727 -0.011481466847449445 0.015279506145732894 -0.00032411267379487329 -0.00215104976622108 -0.014094133121917171 -0.012084586897596995 -0.014077354350379557 -0.0064411121981762269 -0.016770789683235258 -0.0086629700895709278 -0.017675882082060491 -0.016131989318268036 -0.0076970727545974463 -0.019078398448736985 -0.01316169475715665 -0.013928561527408357 -0.0073772428873648179 -0.017756886524555492 -0.0061320816252528349 -0.010412491019379825 -0.019715975433121837 -0.022603730344166829 -0.0034725450239803434 0.00055545705296786911 0.0042170665891285179 0.0042337030484301047 0.0069825256531336191 -0.0017718138183487066 -0.01112893804779296 0.0070660977292896238 0.0011172325441795 -0.00092012020704001032 0.0095206678108434653 -0.0073768577034004608 -0.0047579169106797782 0.00081976083510946877
leaf_weight=68 36 6887 131 33 118 22 28 57 21 97 40 58 21 32 53 56 25 39 32 62 38 37 38 23 21 25 25 579 722 175 131 26 591 22 80 176 292 26 46 48 8888
leaf_count=68 36 6887 131 33 118 22 28 57 21 97 40 58 21 32 53 56 25 39 32 62 38 37 38 23 21 25 25 579 722 175 131 26 591 22 80 176 292 26 46 48 8888
internal_value=1.42233e-11 0.000604427 -0.0121803 -0.00376435 -0.00326843 0.000286588 0.00453081 -0.00365977 -0.0136635 -0.0124961 -0.00866484 -0.0133132 -0.0118753 -0.0126734 -0.0114921 -0.0145366 -0.0156112 -0.0146767 -0.0129829 -0.0151759 -0.0132702 -0.0118974 -0.0135867 -0.0109889 -0.015695 -0.0152461 -0.0193679 -0.00319037 0.000815026 0.00101651 0.000684791 -0.000155449 -0.00173777 -0.00210763 0.000597979 0.00297625 3.73543e-05 0.000867082 -0.00179885 0.000935751 0.000869348
internal_weight=19925 18983 942 873 837 83 61 754 811 347 61 286 164 143 111 464 251 201 133 94 213 136 99 61 77 122 50 636 18110 7110 11000 1981 639 613 1342 256 1086 748 338 6935 9019
internal_count=19925 18983 942 873 837 83 61 754 811 347 61 286 164 143 111 464 251 201 133 94 213 136 99 61 77 122 50 636 18110 7110 11000 1981 639 613 1342 256 1086 748 338 6935 9019
is_linear=0
shrinkage=0.0888606


Tree=20
num_leaves=42
num_cat=0
split_feature=9 9 0 1 6 0 0 1 1 1 9 1 7 1 0 6 3 7 8 7 7 9 5 6 7 1 9 0 1 6 10 6 7 6 7 7 6 9 5 6 7
split_gain=15.4224 1.83625 1.35715 0.524813 0.124074 0.456755 0.867096 0.0850486 0.228096 0.1191 0.0938945 0.263273 0.188955 0.169311 0.0805737 0.0644369 0.0804897 0.0552396 0.0543431 0.148729 0.137049 0.177174 0.231924 0.20774 0.162441 0.232949 0.207831 0.132347 0.123869 0.168 0.122195 0.106476 0.0974842 0.224957 0.211111 0.209164 0.212126 0.223067 0.186443 0.256367 0.241632
threshold=0.18574499110609408 5.4250000000000007 4012.5000000000005 2547.5850000000005 12773.685000000003 5370.5000000000009 4715.5000000000009 8131.0000000000009 7944.6500000000005 7780.6650000000009 0.046198318622353511 7372.670000000001 257.82166666666672 5794.1600000000008 6605.5000000000009 929.13000000000011 6939.005000000001 8560.9450000000015 1.0000000180025095e-35 59032.330000000009 20804.985000000004 48.285000000000004 12162.245000000001 42467.145000000011 13772.560000000003 8868.2950000000019 55.040000000000013 14499.500000000002 15966.525000000003 35397.720000000008 -1.0000000180025095e-35 37107.185000000005 8560.9450000000015 23737.225000000002 8414.3600000000024 8951.8600000000024 24272.255000000005 20.815000000000001 8374.7650000000012 22581.395000000004 10988.135000000002
decision_type=2 2 2 2 2 2 2 2 2 2 2 2 2 2 2 2 2 2 2 2 2 2 2 2 2 2 2 2 2 2 2 2 2 2 2 2 2 2 2 2 2
left_child=2 3 7 -2 5 6 -5 8 9 10 15 13 -13 -12 -6 16 -1 -16 32 20 21 22 23 -20 25 -23 -26 -24 -22 -30 -21 -31 34 38 -3 -35 -37 -38 39 -34 -40
right_child=1 18 -4 4 14 -7 -8 -9 -10 -11 11 12 -14 -15 17 -17 -18 -19 19 30 28 24 27 -25 26 -27 -28 -29 29 31 -32 -33 33 35 -36 36 37 -39 40 -41 -42
leaf_value=-0.012501542305579216 -0.013935329882928301 0.0010334368991339574 -0.0031252959315967513 -0.0049543433027957589 -0.005358410569910866 -0.010975379114719321 0.017817343262859157 -0.015254390629765044 -0.0052203911748629111 -0.016706203499153648 -0.0047796461033454869 -0.012119705959167339 -0.0022233145690147382 -0.013093468271825448 0.001574734711767485 -0.0097301315290414976 -0.015612917236191079 -0.0030599063417255973 0.00087212264987811619 0.0047191097396735203 0.0034517632539505252 -0.00040196161376909837 0.0083575230324637612 -0.0063310870578054184 -0.010404284263849943 0.0019149147039559463 -0.0013771181273723853 0.0027438947849841482 -0.0047520612950117235 0.0049128784513430314 0.0010867983914841675 -0.00080958671823881147 0.00062034606412134357 -0.0057136851251200944 0.0053452040839587324 0.0051709415778920017 -0.00049724081902940964 0.0012032126647611254 0.0017531315667118829 -0.0049519770219198086 -0.0028725187088327014
leaf_weight=153 36 6108 143 31 127 20 23 81 35 51 21 25 39 245 21 34 115 615 2625 114 51 1230 40 32 22 475 238 194 86 27 204 523 1182 37 91 94 740 3445 118 69 365
leaf_count=153 36 6108 143 31 127 20 23 81 35 51 21 25 39 245 21 34 115 615 2625 114 51 1230 40 32 22 475 238 194 86 27 204 523 1182 37 91 94 740 3445 118 69 365
internal_value=-5.35408e-13 0.000550718 -0.011098 -0.00342985 -0.002978 0.000496036 0.00474471 -0.0125249 -0.0122169 -0.0125755 -0.0122421 -0.011206 -0.00608909 -0.0124371 -0.00331493 -0.0133743 -0.0138366 -0.00290688 0.000742602 0.000520073 0.000412856 0.00057905 0.00102156 0.00078537 -7.19983e-05 0.000243502 -0.00214096 0.00370349 -0.000761868 -0.00109975 0.00238895 -0.000528666 0.00084908 0.000595328 0.00109673 0.000938779 0.000996302 0.000902535 -0.000259537 0.000313 -0.00174244
internal_weight=19925 18983 942 873 837 74 54 799 718 683 632 330 64 266 763 302 268 636 18110 5861 5543 4856 2891 2657 1965 1705 260 234 687 636 318 550 12249 6050 6199 4316 4279 4185 1734 1251 483
internal_count=19925 18983 942 873 837 74 54 799 718 683 632 330 64 266 763 302 268 636 18110 5861 5543 4856 2891 2657 1965 1705 260 234 687 636 318 550 12249 6050 6199 4316 4279 4185 1734 1251 483
is_linear=0
shrinkage=0.0888606


Tree=21
num_leaves=42
num_cat=0
split_feature=9 9 0 1 6 5 2 0 5 5 5 0 4 1 1 3 5 7 3 1 1 1 0 5 5 6 7 0 5 7 9 9 0 6 9 7 5 2 7 7 5
split_gain=12.8033 1.52441 1.13005 0.435686 0.108049 0.401064 0.230136 0.0786095 0.106931 0.213469 0.0897333 0.0881067 0.0725702 0.0895852 0.441786 0.180383 0.0793006 0.0646602 0.0642239 0.13893 0.0567692 0.125203 0.0562432 0.0755824 0.0522624 0.0777882 0.0763397 0.0487988 0.0485437 0.0507599 0.0473305 0.106388 0.11345 0.0886232 0.0646574 0.135095 0.0837901 0.0444824 0.0400361 0.0611951 0.0406636
threshold=0.18574499110609408 5.4250000000000007 79241.500000000015 2547.5850000000005 10384.610000000002 4789.3100000000004 17941.310000000001 444.50000000000006 299.58500000000009 146.50000000000003 691.47500000000014 1093.5000000000002 -1.0000000180025095e-35 7095.7150000000011 7187.3750000000009 7813.9783333333344 299.58500000000009 511.26500000000004 7052.5700000000006 7491.5200000000013 6914.8600000000015 7491.5200000000013 6605.5000000000009 4232.7600000000011 104.00000000000001 374.00000000000006 206.83333333333331 905.50000000000011 1778486.6986842675 5505222.7922923351 78.875000000000014 79.740000000000023 4912.5000000000009 32669.125000000004 72.875000000000014 60982.185000000005 46990.240000000013 12710.315000000002 163.83333333333334 1.0000000180025095e-35 276.97000000000008
decision_type=2 2 2 2 2 2 2 2 2 2 2 2 2 2 2 2 2 2 2 2 2 2 2 2 2 2 2 2 2 2 2 2 2 2 2 2 2 2 2 2 2
left_child=2 3 7 -2 5 6 -5 12 9 37 17 20 -1 38 -15 16 -16 18 -10 -20 27 -22 23 -6 -3 -26 -27 -12 -24 -30 34 32 -32 -33 36 -36 -28 -9 39 -14 -40
right_child=1 24 -4 4 22 -7 -8 8 10 -11 11 -13 13 14 15 -17 -18 -19 19 -21 21 -23 28 -25 25 26 30 -29 29 -31 31 33 -34 -35 35 -37 -38 -39 40 -41 -42
leaf_value=-0.016121470180771875 -0.012697027481536173 0.005216546364716493 -0.0024539292656095752 0.0023898147916438608 2.2559014605106182e-05 0.010852211229389959 -0.010765690059332747 -0.0079645475493393576 -0.01415654858417535 -0.00020652609568345672 -0.0084390239825798685 -0.013625141810732457 -0.013049172078681328 0.001729281594021914 -0.014366952408649008 -0.0055036827107990587 -0.010209029355650644 -0.016773508558397023 -0.0039146865102045302 -0.013851078209060707 -0.0033455952235509588 -0.010218321840555799 -0.0016446455032761006 -0.0055575990792647535 -0.0042817195029289041 0.0047106184802769334 0.00066813034894080221 -0.014503764517646768 -0.0037003984256856683 -0.0010183911400090569 0.0019906572732700367 -0.00084586392773040647 -0.0029744250528013841 0.0061053002213886419 0.0010363941652926569 0.004610011250526614 -0.00064364091309532061 -0.013748287069060467 -0.016682972535408413 -0.0081726180195997779 -0.012955793685023561
leaf_weight=33 36 20 131 21 23 21 21 21 46 23 22 36 93 21 110 30 54 27 20 25 36 50 238 115 25 37 15945 20 331 67 50 28 133 30 1359 89 394 21 38 26 59
leaf_count=33 36 20 131 21 23 21 21 21 46 23 22 36 93 21 110 30 54 27 20 25 36 50 238 115 25 37 15945 20 331 67 50 28 133 30 1359 89 394 21 38 26 59
internal_value=5.35477e-12 0.000501781 -0.0101118 -0.00312507 -0.00271337 0.000825445 -0.00418794 -0.0113487 -0.0103371 -0.00708799 -0.011086 -0.00974144 -0.0121053 -0.0117978 -0.0105137 -0.011839 -0.0129979 -0.0129547 -0.0118217 -0.0094349 -0.00864915 -0.00734137 -0.00300141 -0.00462757 0.000676614 0.000671595 0.00067845 -0.011327 -0.00264857 -0.0032489 0.000670174 -0.000566767 -0.00161785 0.00274957 0.000686934 0.00125604 0.000636498 -0.0108564 -0.013076 -0.0119837 -0.0144159
internal_weight=19925 18983 942 873 837 63 42 811 347 65 282 164 464 431 215 194 164 118 91 45 128 86 774 138 18110 18090 18065 42 636 398 18028 241 183 58 17787 1448 16339 42 216 119 97
internal_count=19925 18983 942 873 837 63 42 811 347 65 282 164 464 431 215 194 164 118 91 45 128 86 774 138 18110 18090 18065 42 636 398 18028 241 183 58 17787 1448 16339 42 216 119 97
is_linear=0
shrinkage=0.0888606


Tree=22
num_leaves=42
num_cat=0
split_feature=9 9 0 3 6 1 1 1 1 3 1 7 5 7 6 7 7 0 9 5 4 7 7 7 6 10 7 9 2 9 6 6 9 5 7 0 1 3 7 2 0
split_gain=10.629 1.26592 0.941134 0.329214 0.135227 0.0693234 0.189686 0.0972388 0.0803535 0.166324 0.195602 0.0738169 0.0530409 0.139809 0.0912464 0.220081 0.101794 0.0995275 0.129374 0.120436 0.103425 0.101315 0.0758646 0.102375 0.118664 0.087294 0.0791213 0.073092 0.0586251 0.0576091 0.0563085 0.0540031 0.174953 0.0882888 0.163246 0.0833471 0.0474685 0.042265 0.0413177 0.0449087 0.0568906
threshold=0.18574499110609408 0.95453953428124494 4012.5000000000005 6164.6250000000009 1142.9400000000003 8131.0000000000009 7944.6500000000005 7780.6650000000009 7654.4150000000009 7357.2500000000009 7372.670000000001 1.0000000180025095e-35 1468.5450000000003 1314.2650000000001 4835.9250000000011 3251.6650000000004 4561.3550000000005 3613.5000000000005 34.765000000000008 1255.345 1.0000000180025095e-35 3053.1500000000005 1372.5950000000003 1976.9750000000001 6351.5900000000011 1.0000000180025095e-35 2016.0100000000002 26.115000000000006 10688.875000000002 54.50500000000001 4047.9100000000003 4204.8850000000011 74.300000000000026 1343.4400000000003 2650.4800000000005 2609.5000000000005 1577.7800000000002 4701.0800000000008 535.51666666666677 20265.220000000005 4980.0000000000009
decision_type=2 2 2 2 2 2 2 2 2 2 2 2 2 2 2 2 2 2 2 2 2 2 2 2 2 2 2 2 2 2 2 2 2 2 2 2 2 2 2 2 2
left_child=2 3 5 37 -5 6 7 8 9 10 -1 -11 14 30 15 31 17 18 21 -19 -20 -16 -15 24 25 -24 -25 -17 -28 -21 -14 33 35 34 -3 -33 -35 -2 -6 -40 -41
right_child=1 12 -4 4 38 -7 -8 -9 -10 11 -12 -13 13 22 16 27 -18 19 20 29 -22 -23 23 26 -26 -27 28 -29 -30 -31 -32 32 -34 36 -36 -37 -38 -39 39 40 -42
leaf_value=-0.010301886963293332 -0.0079940974607985368 0.00095313078421456487 -0.002574054425374049 0.004262952036964059 -0.0058328064279212838 -0.012865796551639008 -0.0037431673950804813 -0.014182867421389958 -0.0061312293908722219 -0.010945472797660687 -0.0043306206062699339 -0.015741546344973576 -0.0013717767674641885 0.0051817088022703978 0.002044225155391443 -0.0018367029373795227 -0.0034993764552227339 0.010247531246156681 0.0016639448419344175 5.2045216385093898e-05 -0.0022510558011899096 0.0068459072670070667 0.00073561693241157679 0.0049926074259961633 -0.0070243440552093224 -0.0034462909770538674 -0.00014156345181307091 -0.0081797323490095924 0.00061201638003146512 0.0054807344721727437 -0.0078047194367335355 -0.0051086769397336905 0.0059394867209198246 0.0055322173611437511 -0.0045882026571860378 0.0016236179081855948 0.0018597534070395692 -0.013701878188604339 0.0012905164939396537 -0.0068648795107774038 -0.0026252850978260595
leaf_weight=444 21 1768 143 22 34 81 35 51 37 45 48 58 22 28 94 32 25 25 184 29 75 55 123 32 26 58 864 26 14421 33 21 53 21 47 43 20 68 20 22 26 645
leaf_count=444 21 1768 143 22 34 81 35 51 37 45 48 58 22 28 94 32 25 25 184 29 75 55 123 32 26 58 864 26 14421 33 21 53 21 47 43 20 68 20 22 26 645
internal_value=-5.66851e-12 0.000457192 -0.00921324 -0.00302512 -0.00260071 -0.0104015 -0.0101235 -0.0104504 -0.0101492 -0.0103991 -0.00971932 -0.0136462 0.000608406 0.000546477 0.000980143 0.000716706 0.00203288 0.00231228 0.00173044 0.00504094 0.000530257 0.00381666 0.000560468 0.000552132 -0.00141081 -0.000604442 0.00057866 -0.00468013 0.00056942 0.00294151 -0.00451345 0.000871664 -0.00120807 0.000973167 0.000821559 -0.00326421 0.00336067 -0.0107784 -0.00280842 -0.00266004 -0.00278956
internal_weight=19925 18983 942 790 749 799 718 683 632 595 492 103 18193 15595 2598 2078 520 495 408 87 259 149 15552 15524 207 181 15317 58 15285 62 43 2020 94 1926 1811 73 115 41 727 693 671
internal_count=19925 18983 942 790 749 799 718 683 632 595 492 103 18193 15595 2598 2078 520 495 408 87 259 149 15552 15524 207 181 15317 58 15285 62 43 2020 94 1926 1811 73 115 41 727 693 671
is_linear=0
shrinkage=0.0888606


Tree=23
num_leaves=42
num_cat=0
split_feature=9 9 0 1 7 6 5 0 1 5 3 1 1 10 4 1 1 3 0 10 9 9 5 5 0 0 3 5 6 0 0 9 4 1 7 0 9 1 5 5 7
split_gain=8.82389 1.06509 0.786198 0.330759 0.250745 0.110728 0.288375 0.0636261 0.101569 0.220688 0.116728 0.0719325 0.20963 0.0664764 0.0609257 0.0703231 0.372869 0.151776 0.119514 0.0564427 0.0476153 0.102204 0.176174 0.244468 0.14254 0.219866 0.245241 0.129599 0.323795 0.136583 0.136318 0.12929 0.118884 0.0897526 0.148385 0.119818 0.0789554 0.132431 0.115659 0.159429 0.306005
threshold=0.18574499110609408 5.4250000000000007 79241.500000000015 3847.9350000000004 413.15333333333336 10384.610000000002 4789.3100000000004 444.50000000000006 6505.6550000000016 376.41500000000002 8078.3966666666674 6880.5600000000004 6966.2850000000008 1.0000000180025095e-35 -1.0000000180025095e-35 7095.7150000000011 7187.3750000000009 7095.5833333333348 255.00000000000003 -1.0000000180025095e-35 45.365000000000002 42.465000000000011 2065.6050000000005 1704.3350000000003 5647.0000000000009 6605.5000000000009 8362.3883333333342 45652.660000000011 178882.56500000003 61763.000000000007 74979.000000000015 19.400000000000002 1.0000000180025095e-35 54582.840000000004 39630.810000000005 49069.000000000007 64.035000000000011 79202.385000000024 541.20000000000016 3848.5200000000004 8290.7350000000024
decision_type=2 2 2 2 2 2 2 2 2 2 2 2 2 2 2 2 2 2 2 2 2 2 2 2 2 2 2 2 2 2 2 2 2 2 2 2 2 2 2 2 2
left_child=2 3 7 4 -2 6 -5 14 9 -9 11 -10 -13 -14 -1 -16 -17 19 -19 -18 21 27 23 -23 -24 32 -27 28 33 -29 31 -31 -26 34 -3 -35 37 38 -22 -40 -41
right_child=1 20 -4 5 -6 -7 -8 8 10 -11 -12 12 13 -15 15 16 17 18 -20 -21 36 22 24 -25 25 26 -28 29 -30 30 -32 -33 -34 35 -36 -37 -38 -39 39 40 -42
leaf_value=-0.013786818716618306 -0.016541801851286973 0.00063481614796983275 -0.0020071393803847005 -0.0033449796183633884 -0.0029373510838018304 -0.0024974192852329218 0.0098266287981266728 0.0024329022002014633 -0.01225844567621652 -0.009099121445322168 -0.0026476950431004553 -0.00022392252730696823 -0.0087996482987894292 -0.012646115988926116 -0.010957627451967784 0.0025601020022771089 -0.016391690327654817 -0.010679991872915002 -0.0053169396713927414 -0.011018240558500413 0.0023957389734480207 0.0027322496647127839 -0.0023024538321807756 0.011946396409255374 0.0086422528209047084 -0.0059164456352978631 0.0014377668349198729 -0.006216305237586899 0.0081825806025559722 -0.0021527632008222124 -0.0035773781135935972 0.0040035111513605746 0.00062609581308278514 0.0082609934529503763 -0.00156785104203273 0.0016052224846229211 0.00069900951730033625 -0.0055415111094583242 -0.00064132821623094313 0.0020807515543102843 -4.6584027315997053e-05
leaf_weight=33 23 8015 131 35 20 774 21 20 65 38 20 20 136 48 216 21 29 71 61 33 181 144 90 27 48 39 437 40 45 46 69 65 21 23 249 299 3945 32 1487 717 2091
leaf_count=33 23 8015 131 35 20 774 21 20 65 38 20 20 136 48 216 21 29 71 61 33 181 144 90 27 48 39 437 40 45 46 69 65 21 23 249 299 3945 32 1487 717 2091
internal_value=1.83491e-13 0.000416566 -0.00839455 -0.00261504 -0.0102142 -0.00222135 0.00159437 -0.0094263 -0.00851615 -0.00512256 -0.00919722 -0.00968418 -0.00886394 -0.00980307 -0.0101069 -0.0098252 -0.0086875 -0.00990502 -0.00820161 -0.0135316 0.000562705 0.000697511 0.00165548 0.00418711 0.000973729 0.00151475 0.000835216 0.000610275 0.000664562 -0.0015195 -0.000475767 0.00145226 0.00620255 0.00062516 0.000568448 0.00208063 0.000408699 0.000154644 0.000195368 0.000102639 0.000496614
internal_weight=19925 18983 942 873 43 830 56 811 347 58 289 269 204 184 464 431 215 194 132 62 18110 9657 806 171 635 545 476 8851 8631 220 180 111 69 8586 8264 322 8453 4508 4476 4295 2808
internal_count=19925 18983 942 873 43 830 56 811 347 58 289 269 204 184 464 431 215 194 132 62 18110 9657 806 171 635 545 476 8851 8631 220 180 111 69 8586 8264 322 8453 4508 4476 4295 2808
is_linear=0
shrinkage=0.0888606


Tree=24
num_leaves=42
num_cat=0
split_feature=9 9 0 1 7 3 3 6 5 7 1 1 1 3 7 6 6 9 9 0 4 7 0 7 6 7 7 0 7 0 9 5 7 9 8 9 9 0 9 7 5
split_gain=7.32537 0.88421 0.652682 0.274588 0.208162 0.0990864 0.775232 0.376187 0.175255 0.07619 0.0631459 0.151433 0.0846967 0.0741998 0.0869374 0.182507 0.0796279 0.0471664 0.131644 0.0813944 0.0650371 0.104894 0.205864 0.0901656 0.0844183 0.139342 0.113717 0.0745199 0.0627575 0.100701 0.0604854 0.176182 0.166535 0.177342 0.136132 0.0776342 0.154134 0.135551 0.106616 0.149093 0.0642335
threshold=0.18574499110609408 5.4250000000000007 79241.500000000015 3847.9350000000004 413.15333333333336 7357.2500000000009 7184.0050000000001 14680.615000000002 4146.8200000000006 4678.6750000000002 8131.0000000000009 7944.6500000000005 7780.6650000000009 7838.8600000000015 971.5100000000001 3061.0000000000005 1285.8950000000002 77.385000000000005 77.190000000000012 59395.500000000007 -1.0000000180025095e-35 20175.025000000005 13756.000000000002 3251.6650000000004 32898.100000000013 11473.960000000001 18283.420000000002 9117.5000000000018 16652.740000000002 6083.5000000000009 72.875000000000014 17889.650000000005 15827.550000000001 73.915000000000006 1.0000000180025095e-35 68.915000000000006 69.325000000000003 15015.000000000002 68.715000000000018 7381.0250000000005 54060.430000000008
decision_type=2 2 2 2 2 2 2 2 2 2 2 2 2 2 2 2 2 2 2 2 2 2 2 2 2 2 2 2 2 2 2 2 2 2 2 2 2 2 2 2 2
left_child=2 3 10 4 -2 6 8 -7 -5 -10 11 12 13 14 16 -16 -1 18 30 20 21 22 23 -19 25 27 -27 -22 29 -20 35 32 33 -32 -34 38 -37 -38 40 -40 -3
right_child=1 17 -4 5 -6 7 -8 -9 9 -11 -12 -13 -14 -15 15 -17 -18 19 28 -21 24 -23 -24 -25 -26 26 -28 -29 -30 -31 31 -33 34 -35 -36 36 37 -39 39 -41 -42
leaf_value=-0.0081913279784764023 -0.015071886999594658 0.00053606755630854111 -0.0018287836404320824 0.0017823894363563238 -0.0026763363324479573 -0.013892772200765959 0.015871545834116346 -0.0020834289659506164 -0.0099845701232900309 -0.0035641648132388954 -0.010942587398947566 -0.002624317913687921 -0.012100541460814074 -0.0030108768308111434 0.00028016548304940801 -0.0098915858355058828 -0.01054857629585718 -0.0028519203734954264 0.0020729336957447764 -0.0054549772228987712 -0.0010916956924446571 -0.0017170392624244579 0.010535725313679084 0.0027709741046561026 0.0015221918674803504 -0.0092257652089641137 -0.001276686724329977 0.0042622230449909856 0.00066506641688843205 0.010482192299887869 0.0028818122924015245 0.0041861016280898668 -0.00039774479864472024 0.00016533095799462191 -0.0070549810688257369 -0.0043155426902374257 0.00063068163868496539 -0.0020081899832468499 0.0075408057098390706 -0.00074616743880207578 -0.00094129761593693081
leaf_weight=412 23 15163 131 44 20 22 21 669 20 54 81 35 51 20 26 30 156 32 22 23 191 63 22 76 95 30 27 23 23 23 304 134 79 505 35 70 664 200 40 30 236
leaf_count=412 23 15163 131 44 20 22 21 669 20 54 81 35 51 20 26 30 156 32 22 23 191 63 22 76 95 30 27 23 23 23 304 134 79 505 35 70 664 200 40 30 236
internal_value=-4.71812e-12 0.000379549 -0.0076486 -0.00238266 -0.00930651 -0.00202396 0.000140801 -0.00245941 -0.00265874 -0.00529941 -0.00858867 -0.00832749 -0.0086147 -0.00833864 -0.0085094 -0.00516899 -0.00883874 0.000512703 0.000538834 -0.000274291 -6.11323e-05 0.00125878 0.00270091 0.00110493 -0.000757153 -0.00155619 -0.00546041 -0.000516275 0.00444105 0.006371 0.000523637 0.00117517 0.000738046 0.00118611 -0.00244163 0.000481652 -0.000305089 1.98317e-05 0.000529155 0.00398925 0.000513426
internal_weight=19925 18983 942 873 43 830 139 691 118 74 811 730 695 644 624 56 568 18110 17528 582 559 193 130 108 366 271 57 214 68 45 17460 1057 923 809 114 16403 934 864 15469 70 15399
internal_count=19925 18983 942 873 43 830 139 691 118 74 811 730 695 644 624 56 568 18110 17528 582 559 193 130 108 366 271 57 214 68 45 17460 1057 923 809 114 16403 934 864 15469 70 15399
is_linear=0
shrinkage=0.0888606


Tree=25
num_leaves=42
num_cat=0
split_feature=9 9 0 1 3 3 6 7 5 7 6 9 6 3 1 2 3 7 6 7 2 7 7 5 8 7 7 5 7 6 6 5 5 6 7 6 6 7 2 2 0
split_gain=6.08134 0.734049 0.541844 0.234278 0.0693609 0.659458 0.312301 0.179806 0.132583 0.0601841 0.0785776 0.321512 0.272658 0.230429 0.12779 0.170212 0.0938591 0.0974864 0.112654 0.0727003 0.0563928 0.0486524 0.243083 0.180587 0.190016 0.126672 0.331889 0.18155 0.125911 0.222638 0.14517 0.14521 0.129632 0.123831 0.118603 0.0929895 0.356606 0.23098 0.152655 0.131358 0.159451
threshold=0.18574499110609408 5.4250000000000007 5647.0000000000009 2547.5850000000005 7357.2500000000009 7184.0050000000001 14680.615000000002 535.51666666666677 4146.8200000000006 1.0000000180025095e-35 1285.8950000000002 0.057784353150919961 1530.2300000000002 7813.9783333333344 7424.7150000000011 21723.000000000004 7052.5700000000006 1012.9200000000001 2697.2850000000003 1012.9200000000001 21991.155000000002 24159.805000000004 21649.550000000003 16922.145000000004 1.0000000180025095e-35 55775.385000000002 39630.810000000005 12518.760000000002 32006.870000000006 40872.720000000008 41688.575000000004 21768.470000000005 20327.790000000005 122125.94500000002 28464.370000000003 35397.720000000008 36704.775000000009 9248.1600000000017 39541.070000000007 66301.49500000001 12404.500000000002
decision_type=2 2 2 2 2 2 2 2 2 2 2 2 2 2 2 2 2 2 2 2 2 2 2 2 2 2 2 2 2 2 2 2 2 2 2 2 2 2 2 2 2
left_child=2 3 9 -2 5 7 -6 -5 -9 -1 11 13 20 14 15 -11 19 18 -18 -14 -12 22 35 24 25 26 27 -23 30 -30 -25 32 -32 -33 -26 39 -37 -38 -39 40 -3
right_child=1 21 -4 4 6 -7 -8 8 -10 10 12 -13 16 -15 -16 -17 17 -19 -20 -21 -22 23 -24 28 34 -27 -28 -29 29 -31 31 33 -34 -35 -36 36 37 38 -40 -41 -42
leaf_value=-0.0087073927403282687 -0.0091900125315403092 0.00041991528054047088 -0.0016896414303732147 -0.0085543915437221417 -0.012658251454011506 0.014461189905948097 -0.0018982939945078482 0.0033147383318009429 -0.003433486787514305 -0.0083470258304381671 -0.011662562279533233 0.003073671287758348 -0.01075873243187175 0.001884033315928673 -0.011858204755594098 -0.0009210157224513216 -0.0057210515385137904 -0.0095959650410801321 0.002055410921925572 -0.0049850734727368813 -0.017609095456953616 0.0017111619024589816 -0.0018497358912547214 -0.0046129515542818736 0.00067644441326614093 0.009114699574791163 -0.005532268524118914 0.0050058848327884879 0.0070676710851873999 0.00052195902791599353 -4.1905004339126429e-05 -0.0033106804437313701 0.0060043594271873609 0.0042554877831545252 -0.0048814198009680034 -0.0053280277297802362 -0.0060785365925470044 0.0047369429608270308 0.0001703938912885634 -0.0044934741655240302 0.0012985295276110892
leaf_weight=350 36 11556 132 30 22 21 669 39 56 114 34 27 51 20 53 31 38 22 24 26 20 353 369 76 109 23 39 211 42 1777 84 117 42 20 42 101 45 61 1103 41 1899
leaf_count=350 36 11556 132 30 22 21 669 39 56 114 34 27 51 20 53 31 38 22 24 26 20 353 369 76 109 23 39 211 42 1777 84 117 42 20 42 101 45 61 1103 41 1899
