tree
version=v4
num_class=1
num_tree_per_iteration=1
label_index=0
max_feature_idx=10
objective=regression
feature_names=total_spent total_spent_in_sheet_last_month total_spent_in_sheet_last_3_months average_spent_in_sheet_last_6_months sheet_spending_trend total_spent_in_category_last_month total_spent_in_category_last_3_months average_spent_in_category_last_6_months category_spending_trend category_spent_percentage_last_month category_spent_percentage_trend
feature_infos=[0:5985] [0:8749] [0:26247] [0:8749] [-1:1] [0:5985] [0:17060] [0:5536.666666666667] [-1:1] [0:2.7153885743695318] [-1:1]
tree_sizes=1247 1203 1287 1046 1049 1036 1039 1125 1279 1196 1276 1027 958 1125 1029 791 1024 798 788 1031 944 798 945 871 867 796 875 712 1037 789 716 952 792 874 716 874 716 714 716 713 713 870 715 1104 791 721 793 1108 951 1193 712 1258 717 715 869 946 953 1184 1099 868 799 877 864 882 1196 715 717 716 720 950 1105 953 792 792 954 1031 796 869 948 715 874 955 947 714 1191 1272 883 720 802 793 875 1019 714 712 710 792 794 793 957 874

Tree=0
num_leaves=14
num_cat=0
split_feature=0 0 0 0 6 0 6 0 0 1 5 2 5
split_gain=2.35368e+09 4.92917e+07 5.94663e+06 1.76391e+06 1.33913e+06 765200 571755 142793 164087 95355 84130 69893.8 45791.7
threshold=1197.5000000000002 804.50000000000011 301.50000000000006 4702.5000000000009 870.50000000000011 390.50000000000006 876.50000000000011 133.50000000000003 195.50000000000003 6643.5000000000009 941.50000000000011 21705.000000000004 1061.0000000000002
decision_type=2 2 2 2 2 2 2 2 2 2 2 2 2
left_child=1 2 4 -2 7 6 -4 -1 -9 -7 -3 -11 -12
right_child=3 10 5 -5 -6 9 -8 8 -10 11 12 -13 -14
leaf_value=1006.5830818494252 2039.673420359401 1170.0886365893111 1031.6549567858242 1991.241839501085 1052.0077623231641 1078.3104184104986 1063.7944352909526 1027.2743914505577 1012.203152642306 1062.1139066782926 1184.9521591546784 1071.83364310617 1175.8566468657677
leaf_weight=86 52 52 47 85 46 52 48 47 91 54 48 77 47
leaf_count=86 52 52 47 85 46 52 48 47 91 54 48 77 47
internal_value=1224.96 1070.28 1041.71 2009.62 1019.82 1062.98 1047.89 1013.21 1017.34 1070.81 1176.79 1067.83 1180.45
internal_weight=832 695 548 137 270 278 95 224 138 183 147 131 95
internal_count=832 695 548 137 270 278 95 224 138 183 147 131 95
is_linear=0
shrinkage=1


Tree=1
num_leaves=13
num_cat=0
split_feature=0 0 0 0 6 0 6 6 6 1 7 6
split_gain=1.47963e+09 3.09869e+07 3.73831e+06 1.12105e+06 860146 481707 522676 85065.1 94320.3 74693.4 111729 61523.9
threshold=1197.5000000000002 804.50000000000011 301.50000000000006 4680.0000000000009 827.50000000000011 416.50000000000006 1032.0000000000002 575.50000000000011 139.00000000000003 7344.5000000000009 311.25000000000006 2952.5000000000005
decision_type=2 2 2 2 2 2 2 2 2 2 2 2
left_child=1 2 4 -2 7 6 -4 8 -1 10 -7 -3
right_child=3 11 5 -5 -6 9 -8 -9 -10 -11 -12 -13
leaf_value=-165.36536230054105 647.10592236021159 -42.48848604062659 -152.29153062511946 608.015051796899 -139.93825167561036 -110.94659649553732 -122.94503481145711 -161.75104236328036 -175.5622482698125 -126.95275676676216 -124.74174267012096 -34.011816237253178
leaf_weight=68 49 75 60 88 56 48 46 55 91 71 53 72
leaf_count=68 49 75 60 88 56 48 46 55 91 71 53 72
internal_value=-0.143256 -122.781 -145.433 621.996 -162.792 -128.573 -139.556 -168.773 -171.201 -121.805 -118.186 -38.3366
internal_weight=832 695 548 137 270 278 106 214 159 172 101 147
internal_count=832 695 548 137 270 278 106 214 159 172 101 147
is_linear=0
shrinkage=0.207129


Tree=2
num_leaves=14
num_cat=0
split_feature=0 0 0 1 5 9 0 7 5 5 1 7 9
split_gain=9.30157e+08 1.95198e+07 2.27734e+06 791962 586676 315978 340468 92381 88813.6 85460.5 169839 65806.6 33052.3
threshold=1197.5000000000002 790.00000000000011 301.50000000000006 7171.0000000000009 301.50000000000006 0.048077721930950008 386.00000000000006 196.83333333333334 941.50000000000011 450.50000000000006 7358.5000000000009 1.0000000180025095e-35 0.14753429182831682
decision_type=2 2 2 2 2 2 2 2 2 2 2 2 2
left_child=1 2 4 -2 7 6 -4 11 -3 -7 -11 -1 -10
right_child=3 8 5 -5 -6 9 -8 -9 12 10 -12 -13 -14
leaf_value=-133.05200405493372 508.34641317103092 -37.902726530823891 -124.09709803474492 476.82882105603915 -109.98344998904415 -90.519745104910584 -100.32422505083859 -125.83899697856091 -23.638531621910445 -93.406422692893727 -109.85338414622876 -141.51971732760137 -31.326848171420547
leaf_weight=105 71 54 48 66 55 60 56 47 49 65 46 63 47
leaf_count=105 71 54 48 66 55 60 56 47 49 65 46 63 47
internal_value=-0.113582 -97.3493 -115.56 493.163 -129.073 -102.293 -111.296 -133.956 -31.1826 -96.8179 -100.222 -136.227 -27.4026
internal_weight=832 695 545 137 270 275 104 215 150 171 111 168 96
internal_count=832 695 545 137 270 275 104 215 150 171 111 168 96
is_linear=0
shrinkage=0.207129


Tree=3
num_leaves=11
num_cat=0
split_feature=0 0 6 0 0 6 8 0 8 5
split_gain=5.84738e+08 1.23173e+07 1.62082e+06 926260 569626 142390 156691 109997 140511 31352.5
threshold=1197.5000000000002 804.50000000000011 1054.0000000000002 383.50000000000006 4702.5000000000009 1598.5000000000002 1.0000000180025095e-35 133.50000000000003 1.0000000180025095e-35 1025.5000000000002
decision_type=2 2 2 2 2 2 2 2 2 2
left_child=1 2 3 7 -2 6 -4 -1 -9 -3
right_child=4 9 5 -5 -6 -7 -8 8 -10 -11
leaf_value=-110.58936527518995 408.0901928347555 -26.601727335311264 -87.721054965499079 -76.795302260347597 380.56782305137671 -67.450058917968235 -73.209437930878309 -96.25265505952737 -107.00385106311552 -20.500634633382024
leaf_weight=88 52 83 58 63 85 59 71 100 109 64
leaf_count=88 52 83 58 63 85 59 71 100 109 64
internal_value=-0.0900567 -77.1854 -91.467 -99.6074 391.014 -75.879 -79.734 -104.446 -101.86 -23.9455
internal_weight=832 695 548 360 137 188 129 297 209 147
internal_count=832 695 548 360 137 188 129 297 209 147
is_linear=0
shrinkage=0.207129


Tree=4
num_leaves=11
num_cat=0
split_feature=0 0 6 0 6 6 5 6 7 10
split_gain=3.67592e+08 7.74317e+06 1.01892e+06 588272 451637 89512.5 132309 85925.5 89720.4 32437.2
threshold=1197.5000000000002 804.50000000000011 1054.0000000000002 397.00000000000006 14442.000000000002 1598.5000000000002 461.50000000000006 139.00000000000003 222.75000000000003 -1.0000000180025095e-35
decision_type=2 2 2 2 2 2 2 2 2 2
left_child=1 2 3 7 -2 6 -4 -1 -9 -3
right_child=4 9 5 -5 -6 -7 -8 8 -10 -11
leaf_value=-77.155298390891147 322.17964131040486 -15.227978769864801 -57.408809421453583 -59.671039831039764 298.38878737900905 -53.47917303615796 -70.79249536374239 -87.624220883122945 -78.411157289984644 -21.505015113599129
leaf_weight=88 67 59 73 57 70 59 56 150 65 88
leaf_count=88 67 59 73 57 70 59 56 150 65 88
internal_value=-0.0714049 -61.1981 -72.5215 -78.9758 310.024 -60.1622 -63.2188 -82.6073 -84.8389 -18.9857
internal_weight=832 695 548 360 137 188 129 303 215 147
internal_count=832 695 548 360 137 188 129 303 215 147
is_linear=0
shrinkage=0.207129


Tree=5
num_leaves=11
num_cat=0
split_feature=0 0 5 3 0 7 1 2 3 6
split_gain=2.31084e+08 4.86882e+06 677449 401877 358214 99325.1 98885.5 141611 77760 46642.5
threshold=1197.5000000000002 790.00000000000011 356.50000000000006 7195.8333333333348 380.00000000000006 226.16666666666666 7694.5000000000009 20162.000000000004 6322.3333333333348 2952.5000000000005
decision_type=2 2 2 2 2 2 2 2 2 2
left_child=1 2 4 -2 5 8 7 -4 -1 -3
right_child=3 9 6 -5 -6 -7 -8 -9 -10 -11
leaf_value=-61.794145992396395 255.27807294701131 -19.032873134253983 -52.024132598208219 232.51840449358511 -48.891607487861016 -58.705002813378066 -55.187094001557981 -38.868937990470599 -70.548636643887221 -11.725329659275967
leaf_weight=59 80 77 66 57 62 59 58 75 166 73
leaf_count=59 80 77 66 57 62 59 58 75 166 73
internal_value=-0.0566143 -48.5222 -57.6173 245.809 -63.1555 -66.2694 -47.988 -45.0267 -68.253 -15.4765
internal_weight=832 695 545 137 346 284 199 141 225 150
internal_count=832 695 545 137 346 284 199 141 225 150
is_linear=0
shrinkage=0.207129


Tree=6
num_leaves=11
num_cat=0
split_feature=0 0 5 0 0 0 0 0 1 7
split_gain=1.4527e+08 3.07921e+06 463307 356939 324145 119009 46865.4 57786.6 33132.7 21987.9
threshold=1197.5000000000002 804.50000000000011 393.50000000000006 4680.0000000000009 383.50000000000006 383.50000000000006 133.50000000000003 201.50000000000003 7344.5000000000009 923.91666666666674
decision_type=2 2 2 2 2 2 2 2 2 2
left_child=1 2 4 -2 6 -4 -1 -8 -7 -3
right_child=3 9 5 -5 -6 8 7 -9 -10 -11
leaf_value=-56.615483135972724 209.06296033415646 -9.3017423131725625 -28.292777383384195 187.00528056960954 -37.496785018610097 -37.095296085325629 -45.803779931679962 -53.190251053163614 -44.172207051245579 -14.368320503790677
leaf_weight=89 49 73 52 88 76 64 65 151 51 74
leaf_count=89 49 73 52 88 76 64 65 151 51 74
internal_value=-0.0448874 -38.4718 -45.6124 194.895 -49.5998 -36.5156 -52.6156 -50.9675 -40.2338 -11.8523
internal_weight=832 695 548 137 381 167 305 216 115 147
internal_count=832 695 548 137 381 167 305 216 115 147
is_linear=0
shrinkage=0.207129


Tree=7
num_leaves=12
num_cat=0
split_feature=0 5 7 0 7 7 10 2 5 8 3
split_gain=8.5902e+07 2.23419e+06 478613 342154 332304 231760 229251 145351 108164 56162.6 30909.9
threshold=4014.5000000000005 837.50000000000011 1.0000000180025095e-35 334.50000000000006 4814.7500000000009 332.41666666666669 1.0000000180025095e-35 20928.000000000004 1025.5000000000002 -1.0000000180025095e-35 7030.2500000000009
decision_type=2 2 2 2 2 2 2 2 2 2 2
left_child=1 2 3 9 -2 10 -7 -5 -3 -1 -4
right_child=4 8 5 7 -6 6 -8 -9 -10 -11 -12
leaf_value=-33.326958729662771 143.54125485020873 -13.371722508709357 -44.837939730580473 -15.958985505145815 164.79850841023327 -43.941886688822009 -27.01943727752678 -29.616244946604976 -1.172354439507457 -41.578622952130544 -50.633276177176427
leaf_weight=67 74 55 73 64 55 77 62 70 72 75 86
leaf_count=67 74 55 73 64 55 77 62 70 72 75 86
internal_value=-2.73019 -31.3153 -36.8156 -30.6008 152.604 -42.5717 -36.3937 -23.0934 -6.45555 -37.6852 -47.9725
internal_weight=830 701 574 276 129 298 139 134 127 142 159
internal_count=830 701 574 276 129 298 139 134 127 142 159
is_linear=0
shrinkage=0.207129


Tree=8
num_leaves=14
num_cat=0
split_feature=0 5 5 7 3 7 0 5 5 6 5 3 10
split_gain=5.40017e+07 1.40451e+06 323123 300877 227488 328766 225170 112454 100537 71050.5 67996.7 67701.6 18883.4
threshold=4014.5000000000005 837.50000000000011 4562.5000000000009 1.0000000180025095e-35 6539.8333333333348 332.41666666666669 277.50000000000006 165.50000000000003 429.50000000000006 348.00000000000006 1025.5000000000002 7239.2500000000009 1.0000000180025095e-35
decision_type=2 2 2 2 2 2 2 2 2 2 2 2 2
left_child=1 3 -2 6 -5 12 9 -8 -9 -1 -3 -7 -6
right_child=2 10 -4 4 5 11 7 8 -10 -11 -12 -13 -14
leaf_value=-35.724857756848913 134.6882544720749 -10.602046272983729 113.14732533082247 -46.654571254656517 -35.927793163379476 -18.804976729784247 -10.633464056247211 -30.25830443474678 -17.792912855388003 -25.251522725649139 -0.92952516827350962 -28.779392652422636 -40.902756739289643
leaf_weight=66 47 55 82 49 67 65 46 46 70 48 72 53 64
leaf_count=66 47 55 82 49 67 65 46 46 70 48 72 53 64
internal_value=-2.16469 -24.829 120.996 -29.19 -33.7538 -31.2151 -24.2625 -19.2995 -22.7361 -31.315 -5.11841 -23.285 -38.3583
internal_weight=830 701 129 574 298 249 276 162 116 114 127 118 131
internal_count=830 701 129 574 298 249 276 162 116 114 127 118 131
is_linear=0
shrinkage=0.207129


Tree=9
num_leaves=13
num_cat=0
split_feature=0 5 5 7 0 5 3 7 10 5 3 3
split_gain=3.39479e+07 882937 304001 189144 148143 261612 143009 206677 74727.7 65552.6 42560.2 18343.1
threshold=4014.5000000000005 837.50000000000011 5150.0000000000009 1.0000000180025095e-35 538.50000000000011 382.50000000000006 6539.8333333333348 332.41666666666669 -1.0000000180025095e-35 195.50000000000003 7239.2500000000009 7057.166666666667
decision_type=2 2 2 2 2 2 2 2 2 2 2 2
left_child=1 3 -2 4 5 9 -5 11 -3 -1 -9 -8
right_child=2 8 -4 6 -6 -7 7 10 -10 -11 -12 -13
leaf_value=-22.516701207674792 88.193455737920445 1.8786444628952885 108.99572939507435 -36.991040497282029 -11.159498466405246 -8.3409587738822779 -27.190176039331281 -14.909914138096125 -8.3103314816823826 -31.07129465980071 -22.818335964653674 -32.277082937423771
leaf_weight=92 81 53 48 49 72 46 48 65 74 66 53 83
leaf_count=92 81 53 48 49 72 46 48 65 74 66 53 83
internal_value=-1.71632 -19.6862 95.9338 -23.1439 -19.237 -22.0879 -26.7624 -24.7496 -4.05824 -26.0901 -18.462 -30.4132
internal_weight=830 701 129 574 276 204 298 249 127 158 118 131
internal_count=830 701 129 574 276 204 298 249 127 158 118 131
is_linear=0
shrinkage=0.207129


Tree=10
num_leaves=14
num_cat=0
split_feature=0 9 9 7 3 7 0 5 6 1 1 2 10
split_gain=2.13411e+07 581174 314851 143460 173255 136415 96240.4 145437 70960.1 69433.3 56002.8 51441.2 16374.3
threshold=4014.5000000000005 0.12389186722296551 0.67484197461526152 1.0000000180025095e-35 6598.8333333333339 332.41666666666669 556.50000000000011 356.50000000000006 2736.5000000000005 6991.0000000000009 7482.5000000000009 21966.000000000004 1.0000000180025095e-35
decision_type=2 2 2 2 2 2 2 2 2 2 2 2 2
left_child=1 3 -2 6 -5 12 7 11 -3 -10 -7 -1 -6
right_child=2 8 -4 4 5 10 -8 -9 9 -11 -12 -13 -14
leaf_value=-17.692493962411 86.217019000876462 -10.336067715823296 65.750573937549433 -33.248668402199542 -21.947663126741151 -10.869750796123526 -8.2934047913880082 -7.6001430164535799 5.3425850184717696 -5.9187505556089688 -19.94742866951098 -25.714205428510112 -26.616138475844568
leaf_weight=94 65 46 64 47 66 72 67 49 46 48 49 54 63
leaf_count=94 65 46 64 47 66 72 67 49 46 48 49 54 63
internal_value=-1.36082 -15.6086 76.0631 -18.5879 -21.7108 -19.5416 -15.0747 -17.3811 -3.67 -0.407884 -14.5458 -20.6193 -24.2276
internal_weight=830 701 129 561 297 250 264 197 140 94 121 148 129
internal_count=830 701 129 561 297 250 264 197 140 94 121 148 129
is_linear=0
shrinkage=0.207129


Tree=11
num_leaves=11
num_cat=0
split_feature=0 5 1 2 3 6 0 2 7 0
split_gain=1.3416e+07 365498 303921 91042.6 462527 171326 150895 147054 59651.2 58860.4
threshold=4014.5000000000005 862.50000000000011 7171.0000000000009 19814.000000000004 6631.166666666667 1598.5000000000002 183.00000000000003 20902.500000000004 912.50000000000011 512.00000000000011
decision_type=2 2 2 2 2 2 2 2 2 2
left_child=1 3 -2 6 -5 7 -1 -6 -3 -8
right_child=2 8 -4 4 5 -7 9 -9 -10 -11
leaf_value=-19.825234029318036 69.830424561769263 3.7984994541945292 49.693300793921544 -35.037630911800228 -6.4956574993241247 -2.2115790533978767 -10.0640198587989 -17.604948018846223 -5.7097141536183562 -0.55275620594986219
leaf_weight=51 68 48 61 49 64 49 71 254 69 46
leaf_count=51 68 48 61 49 64 49 71 254 69 46
internal_value=-1.07895 -12.3756 60.3082 -14.4926 -16.136 -13.6124 -10.423 -15.3691 -1.80891 -6.32455
internal_weight=830 701 129 584 416 367 168 318 117 117
internal_count=830 701 129 584 416 367 168 318 117 117
is_linear=0
shrinkage=0.207129


Tree=12
num_leaves=10
num_cat=0
split_feature=0 5 6 7 10 0 6 0 9
split_gain=8.43386e+06 271355 262224 111668 247201 141358 103019 74246.1 51358.8
threshold=4014.5000000000005 5150.0000000000009 2961.5000000000005 466.91666666666669 1.0000000180025095e-35 804.50000000000011 1054.0000000000002 494.50000000000006 0.026301313981149703
decision_type=2 2 2 2 2 2 2 2 2
left_child=2 -2 3 5 -5 6 8 -8 -1
right_child=1 -3 -4 4 -6 -7 7 -9 -10
leaf_value=-9.9629623906897908 40.503645424380814 60.157256111502853 1.7615401238366193 -25.76964262900832 -6.5746515038139117 0.94374839704197944 0.57927232189388178 -10.887218604457596 -14.87910645850919
leaf_weight=172 81 48 75 63 53 47 50 47 194
leaf_count=172 81 48 75 63 53 47 50 47 194
internal_value=-0.855471 47.8166 -9.81225 -11.1989 -16.9995 -9.87952 -10.9782 -4.97666 -12.5688
internal_weight=830 129 701 626 116 510 463 97 366
internal_count=830 129 701 626 116 510 463 97 366
is_linear=0
shrinkage=0.207129


Tree=13
num_leaves=12
num_cat=0
split_feature=0 9 6 7 0 0 6 3 9 9 9
split_gain=5.3019e+06 288240 164846 76475.9 161333 68716.2 63829.9 47953.1 56878.9 41704.5 35175.3
threshold=4014.5000000000005 0.67484197461526152 2961.5000000000005 1.0000000180025095e-35 639.50000000000011 804.50000000000011 1469.5000000000002 6949.3333333333348 0.029504952467901305 0.049964520707005557 0.048077721930950008
decision_type=2 2 2 2 2 2 2 2 2 2 2
left_child=2 -2 3 5 6 7 9 8 -1 -5 -9
right_child=1 -3 -4 4 -6 -7 -8 10 -10 -11 -12
leaf_value=-6.0665691280367193 47.627721524143269 28.045261248317424 1.3966732580627117 -9.1100757519051871 -22.468734615531595 0.74827052808465622 -2.9748690022023245 -7.7408681033168589 -14.397116567535484 -15.629525583650851 -0.46085432672800358
leaf_weight=67 65 64 75 161 46 47 56 70 74 57 48
leaf_count=67 65 64 75 161 46 47 56 70 74 57 48
internal_value=-0.678277 37.9124 -7.77984 -8.87926 -11.118 -6.5381 -9.2124 -7.86034 -10.4386 -10.8147 -4.77951
internal_weight=830 129 701 626 320 306 274 259 141 218 118
internal_count=830 129 701 626 320 306 274 259 141 218 118
is_linear=0
shrinkage=0.207129


Tree=14
num_leaves=11
num_cat=0
split_feature=0 9 6 2 6 3 5 1 5 5
split_gain=4.76337e+06 502481 116790 86377.8 113705 152580 95833.4 90288.3 37208.5 35452.3
threshold=4014.5000000000005 0.65257410365834667 3006.0000000000005 22685.000000000004 1826.0000000000002 7033.916666666667 276.00000000000006 6712.0000000000009 292.50000000000006 492.00000000000006
decision_type=2 2 2 2 2 2 2 2 2 2
left_child=2 -2 3 4 5 7 -5 -1 -7 -8
right_child=1 -3 -4 6 -6 8 9 -9 -10 -11
leaf_value=-8.2477641567080031 51.031187630098003 25.538288035501573 1.8049641185232115 -10.3036844977574 -17.302288335942823 -16.501782575652388 4.9556855656574568 -0.86126195930983285 -9.7482866928383274 -2.9032612891238418
leaf_weight=151 54 86 66 51 58 70 46 134 70 53
leaf_count=151 54 86 66 51 58 70 46 134 70 53
internal_value=0.498029 35.3713 -6.4866 -7.35112 -8.6995 -7.52547 -3.00933 -4.77481 -13.125 0.748371
internal_weight=839 140 699 633 483 425 150 285 140 99
internal_count=839 140 699 633 483 425 150 285 140 99
is_linear=0
shrinkage=0.207129


Tree=15
num_leaves=8
num_cat=0
split_feature=0 6 7 6 0 0 0
split_gain=3.01464e+06 441269 117665 147625 159832 48229.9 73940.9
threshold=4190.5000000000009 15023.500000000002 1006.4166666666667 2902.5000000000005 865.50000000000011 659.50000000000011 538.50000000000011
decision_type=2 2 2 2 2 2 2
left_child=2 -2 3 4 5 6 -1
right_child=1 -3 -4 -5 -6 -7 -8
leaf_value=-6.0934714962517535 19.920128226409702 44.846891526727312 4.8151270266568726 -16.92425773563583 6.3448551226616319 -11.649937622021561 1.3853359778250465
leaf_weight=445 78 50 50 46 51 54 65
leaf_count=445 78 50 50 46 51 54 65
internal_value=0.394873 29.6571 -4.87316 -5.60601 -4.75944 -5.76355 -5.14029
internal_weight=839 128 711 661 615 564 510
internal_count=839 128 711 661 615 564 510
is_linear=0
shrinkage=0.207129


Tree=16
num_leaves=11
num_cat=0
split_feature=0 3 7 7 0 2 3 7 3 7
split_gain=1.92756e+06 355277 385063 129393 218852 31388.2 68325.9 72027.7 61262.5 52444.3
threshold=4014.5000000000005 7408.416666666667 4646.4166666666679 977.75000000000011 961.50000000000011 22685.000000000004 7033.916666666667 298.91666666666669 7813.8333333333348 289.33333333333337
decision_type=2 2 2 2 2 2 2 2 2 2
left_child=3 2 -2 4 5 6 7 -1 -7 -8
right_child=1 -3 -4 -5 -6 8 9 -9 -10 -11
leaf_value=-5.2201209138027451 16.442597348919847 7.8194966082069737 43.100217022299553 -13.24393335973431 9.2312574747688938 1.6553767128616859 -6.2958934370377175 2.5386270261819863 -7.2262435973087635 -14.759941390197699
leaf_weight=231 46 47 47 61 55 87 99 66 54 46
leaf_count=231 46 47 47 61 55 87 99 66 54 46
internal_value=0.313083 22.497 29.9147 -4.13006 -3.25867 -4.43696 -5.29536 -3.49595 -1.74609 -8.98104
internal_weight=839 140 93 699 638 583 442 297 141 145
internal_count=839 140 93 699 638 583 442 297 141 145
is_linear=0
shrinkage=0.207129


Tree=17
num_leaves=8
num_cat=0
split_feature=5 9 3 0 7 5 9
split_gain=1.22107e+06 379930 284170 247377 112350 49678.9 51922.2
threshold=4078.5000000000005 0.72017429500950547 1.0000000180025095e-35 1061.0000000000002 556.66666666666686 757.00000000000011 0.090568770447110106
decision_type=2 2 2 2 2 2 2
left_child=2 -2 -1 4 5 6 -4
right_child=1 -3 3 -5 -6 -7 -8
leaf_value=10.127312903874166 29.459046653478005 6.3810370715721927 -3.9651093507211752 -17.76240984559476 4.9368173511049402 2.3045419577892789 -10.620743385326888
leaf_weight=64 69 55 427 54 66 47 57
leaf_count=64 69 55 427 54 66 47 57
internal_value=0.248234 19.2228 -3.04247 -4.33719 -3.12285 -4.12462 -4.74893
internal_weight=839 124 715 651 597 531 484
internal_count=839 124 715 651 597 531 484
is_linear=0
shrinkage=0.207129


Tree=18
num_leaves=8
num_cat=0
split_feature=0 5 7 6 0 5 9
split_gain=806257 274793 93891.5 123916 61313.3 30549.5 39988.5
threshold=4190.5000000000009 4702.5000000000009 1006.4166666666667 2902.5000000000005 804.50000000000011 100.50000000000001 0.026301313981149703
decision_type=2 2 2 2 2 2 2
left_child=2 -2 3 4 5 -1 -7
right_child=1 -3 -4 -5 -6 6 -8
leaf_value=-6.794339306467764 26.564521235113283 7.1316563694223483 6.1268130551381255 -13.551823006325279 3.7152295983212968 1.5755108382041045 -3.365810205878776
leaf_weight=82 54 74 50 46 63 86 384
leaf_count=82 54 74 50 46 63 86 384
internal_value=0.196818 15.3299 -2.52756 -3.1822 -2.40659 -3.10528 -2.46165
internal_weight=839 128 711 661 615 552 470
internal_count=839 128 711 661 615 552 470
is_linear=0
shrinkage=0.207129


Tree=19
num_leaves=11
num_cat=0
split_feature=5 0 2 0 10 0 6 7 0 3
split_gain=657360 315586 119163 354913 187572 349033 118881 68698.8 65196.3 45515.3
threshold=5281.5000000000009 4885.0000000000009 19952.000000000004 1097.5000000000002 1.0000000180025095e-35 538.50000000000011 750.00000000000011 445.08333333333343 448.50000000000006 7402.0000000000009
decision_type=2 2 2 2 2 2 2 2 2 2
left_child=1 2 4 6 5 -1 9 -8 -6 -4
right_child=-2 -3 3 -5 8 -7 7 -9 -10 -11
leaf_value=-1.7312092535611934 23.435780419295007 13.845956811831272 -8.3861873334135613 -21.310172111603165 0.041344228752063499 20.467459437172455 3.8738801418153508 -2.8343515819074807 -10.927649881410071 -1.8466930062160694
leaf_weight=80 49 55 135 47 46 49 130 132 47 69
leaf_count=80 49 55 135 47 46 49 130 132 47 69
internal_value=0.156051 -1.28788 -2.42035 -4.15529 1.58879 6.70084 -2.42508 0.49416 -5.50213 -6.1743
internal_weight=839 790 735 513 222 129 466 262 93 204
internal_count=839 790 735 513 222 129 466 262 93 204
is_linear=0
shrinkage=0.207129


Tree=20
num_leaves=10
num_cat=0
split_feature=6 3 0 3 0 6 6 2 0
split_gain=431175 228251 604906 405962 161336 120835 40451.4 34229.4 32388.5
threshold=15023.500000000002 6408.0833333333348 920.00000000000011 6580.0000000000009 4141.0000000000009 1656.5000000000002 750.00000000000011 21352.000000000004 292.50000000000006
decision_type=2 2 2 2 2 2 2 2 2
left_child=1 2 8 -3 5 6 -5 -7 -1
right_child=-2 3 -4 4 -6 7 -8 -9 -10
leaf_value=-5.7082038311625753 18.026717944970166 -21.766563434870676 24.7145936062464 -4.1594098040817569 -12.272253095351433 1.3765469218263013 0.14821722209959259 8.3391576984390756 0.78739681309447485
leaf_weight=57 54 46 50 205 54 54 172 69 78
leaf_count=57 54 46 50 205 54 54 172 69 78
internal_value=0.123728 -1.10782 5.25286 -3.06902 -1.51652 -0.3549 -2.19413 5.2824 -1.95519
internal_weight=839 785 185 600 554 500 377 123 135
internal_count=839 785 185 600 554 500 377 123 135
is_linear=0
shrinkage=0.207129


Tree=21
num_leaves=8
num_cat=0
split_feature=5 4 6 7 3 3 2
split_gain=649005 199244 691173 192509 133123 73769.8 72205.6
threshold=5311.5000000000009 1.0000000180025095e-35 13436.000000000002 983.00000000000011 6827.666666666667 7325.6666666666679 20162.000000000004
decision_type=2 2 2 2 2 2 2
left_child=1 2 3 4 6 -6 -1
right_child=-2 -3 -4 -5 5 -7 -8
leaf_value=1.2278593912258904 24.800709882773834 -11.058718744909045 22.829953182564516 -13.560622983557019 -5.8148053936714801 0.031469738122189235 9.2007198200424813
leaf_weight=172 46 70 55 51 178 193 68
leaf_count=172 46 70 55 51 178 193 68
internal_value=0.886743 -0.511024 0.518737 -1.33491 -0.314437 -2.77348 3.48684
internal_weight=833 787 717 662 611 371 240
internal_count=833 787 717 662 611 371 240
is_linear=0
shrinkage=0.207129


Tree=22
num_leaves=10
num_cat=0
split_feature=5 3 9 0 6 0 0 0 0
split_gain=407993 144072 482687 385040 258513 183566 79043.3 70432.3 57619.6
threshold=5311.5000000000009 6502.666666666667 0.57766342383549119 880.50000000000011 2987.5000000000005 697.50000000000011 428.00000000000006 492.00000000000006 210.00000000000003
decision_type=2 2 2 2 2 2 2 2 2
left_child=1 3 4 6 5 7 8 -3 -1
right_child=-2 2 -4 -5 -6 -7 -8 -9 -10
leaf_value=-2.2682676614710737 19.663755762690254 -1.5326296902704291 -21.335399187504159 19.129353338100159 11.48943795153755 -11.471714962113408 -6.9286833599047206 5.7373467151850353 7.9390489551501684
leaf_weight=49 46 312 51 55 70 74 60 70 46
leaf_count=49 46 312 51 55 70 74 60 70 46
internal_value=0.703073 -0.405176 -2.09587 4.24021 -0.230442 -2.02955 -1.04303 -0.200435 2.67422
internal_weight=833 787 577 210 526 456 155 382 95
internal_count=833 787 577 210 526 456 155 382 95
is_linear=0
shrinkage=0.207129


Tree=23
num_leaves=9
num_cat=0
split_feature=5 1 7 6 5 7 8 6
split_gain=292526 365440 269772 96973 48542.2 53706.6 68742.9 43319.8
threshold=4078.5000000000005 7171.0000000000009 983.00000000000011 1871.0000000000002 608.50000000000011 489.08333333333337 1.0000000180025095e-35 1032.0000000000002
decision_type=2 2 2 2 2 2 2 2
left_child=2 -2 3 4 5 6 -1 -6
right_child=1 -3 -4 -5 7 -7 -8 -9
leaf_value=1.9631989057709656 22.236709298327003 -0.59253926867922802 -14.213882164623406 7.533472473523946 -0.54995612480072231 6.646180900389365 -3.2095462146373617 -9.5391536191978545
leaf_weight=224 56 65 61 69 46 49 217 46
leaf_count=224 56 65 61 69 46 49 217 46
internal_value=0.557446 9.97306 -1.04268 0.191488 -0.678954 0.14071 -0.58212 -5.04455
internal_weight=833 121 712 651 582 490 441 92
internal_count=833 121 712 651 582 490 441 92
is_linear=0
shrinkage=0.207129


Tree=24
num_leaves=9
num_cat=0
split_feature=6 7 0 0 7 0 0 3
split_gain=191560 149679 281596 256593 70836.5 95416.5 85774.1 37846.7
threshold=15193.000000000002 977.75000000000011 1173.0000000000002 1073.5000000000002 530.25000000000011 596.50000000000011 486.00000000000006 6684.416666666667
decision_type=2 2 2 2 2 2 2 2
left_child=1 3 -3 4 5 6 -1 -7
right_child=-2 2 -4 -5 -6 7 -8 -9
leaf_value=-0.86736797786108333 13.144384619940993 2.1278676711132096 -19.743822790778751 12.651080243319791 6.9679774597659057 -11.090140021945311 8.2396916054925242 -3.5244003486461906
leaf_weight=394 48 56 46 70 49 46 50 74
leaf_count=394 48 56 46 70 49 46 50 74
internal_value=0.441982 -0.334725 -7.73584 0.770565 -0.5861 -1.24239 0.158202 -6.4246
internal_weight=833 785 102 683 613 564 444 120
internal_count=833 785 102 683 613 564 444 120
is_linear=0
shrinkage=0.207129


Tree=25
num_leaves=8
num_cat=0
split_feature=5 6 7 7 7 7 1
split_gain=166998 246537 168400 54780.8 43349.9 35549.4 39228.5
threshold=4078.5000000000005 14442.000000000002 983.00000000000011 540.75000000000011 466.91666666666669 311.25000000000006 6942.5000000000009
decision_type=2 2 2 2 2 2 2
left_child=2 -2 3 4 5 6 -1
right_child=1 -3 -4 -5 -6 -7 -8
leaf_value=1.8117723399349388 18.605824741050796 -0.38139071565254007 -11.264913492677232 7.0072411659557261 -5.4178855834077639 5.6486185230869905 -1.9231216086300422
leaf_weight=212 50 71 61 46 66 47 280
leaf_count=212 50 71 61 46 66 47 280
internal_value=0.350435 7.46457 -0.858568 0.116527 -0.407395 0.206135 -0.313777
internal_weight=833 121 712 651 605 539 492
internal_count=833 121 712 651 605 539 492
is_linear=0
shrinkage=0.207129


Tree=26
num_leaves=9
num_cat=0
split_feature=4 6 3 0 7 0 0 5
split_gain=147330 366727 574954 92072.6 83272.2 29796.3 54658.6 35969.1
threshold=1.0000000180025095e-35 13436.000000000002 7195.8333333333348 1136.5000000000002 556.66666666666686 596.50000000000011 486.00000000000006 770.50000000000011
decision_type=2 2 2 2 2 2 2 2
left_child=1 3 -3 4 5 6 -1 -7
right_child=-2 2 -4 -5 -6 7 -8 -9
leaf_value=-0.80134987052757312 -8.8166376546766223 29.412491731078532 -3.1615491168236609 -9.3202697102728713 6.6167548644464578 -6.2869687794431455 6.5592056330334136 0.85634308619245225
leaf_weight=371 70 47 46 48 74 79 49 49
leaf_count=371 70 47 46 48 74 79 49 49
internal_value=0.27785 1.11221 13.3006 -0.579616 0.0949042 -0.785784 0.0573816 -3.55242
internal_weight=833 763 93 670 622 548 420 128
internal_count=833 763 93 670 622 548 420 128
is_linear=0
shrinkage=0.207129


Tree=27
num_leaves=7
num_cat=0
split_feature=3 0 0 6 0 7
split_gain=130129 339019 227559 496016 148209 42282.4
threshold=8039.9166666666679 5287.5000000000009 4539.5000000000009 3190.0000000000005 1044.5000000000002 556.66666666666686
decision_type=2 2 2 2 2 2
left_child=1 2 3 4 5 -1
right_child=-2 -3 -4 -5 -6 -7
leaf_value=-0.45930561570457062 -10.13508503909226 17.923638127941999 -14.009539874784972 20.60804405992489 -11.882967270416051 5.7254004467490791
leaf_weight=539 49 47 48 50 48 52
leaf_count=539 49 47 48 50 48 52
internal_value=0.220299 0.86751 -0.220194 0.740457 -0.814127 0.0848648
internal_weight=833 784 737 689 639 591
internal_count=833 784 737 689 639 591
is_linear=0
shrinkage=0.207129


Tree=28
num_leaves=11
num_cat=0
split_feature=7 3 0 0 5 2 1 1 2 1
split_gain=379140 475541 1.09614e+06 945387 79783.6 55662.2 55620.5 88000.9 65254.7 40215.1
threshold=4848.6666666666679 7325.6666666666679 1048.5000000000002 1197.5000000000002 256.50000000000006 21966.000000000004 6712.0000000000009 6950.5000000000009 19888.500000000004 7846.5000000000009
decision_type=2 2 2 2 2 2 2 2 2 2
left_child=1 3 4 5 -3 6 8 -8 -1 -6
right_child=-2 2 -4 -5 9 -7 7 -9 -10 -11
leaf_value=0.37665702224166614 -17.656579124134318 -4.3873384354966785 37.006049377998572 -29.952102974977272 7.3824108638171007 -5.7297592465674478 9.3489260919581536 0.26657552258927775 -8.4338362909164495 -0.078796605573079992
leaf_weight=167 52 66 46 50 79 64 68 140 46 51
leaf_count=167 52 66 46 50 79 64 68 140 46 51
internal_value=-0.53384 0.612083 8.23102 -2.83424 1.47769 -0.038581 0.826586 3.23581 -1.52608 4.45532
internal_weight=829 777 242 535 196 485 421 208 213 130
internal_count=829 777 242 535 196 485 421 208 213 130
is_linear=0
shrinkage=0.207129


Tree=29
num_leaves=8
num_cat=0
split_feature=9 5 6 6 1 2 3
split_gain=247081 931142 362880 105322 61628.8 82272.5 52853.9
threshold=0.57447190633406719 4984.0000000000009 3074.5000000000005 2859.0000000000005 6094.0000000000009 18962.500000000004 7033.916666666667
decision_type=2 2 2 2 2 2 2
left_child=2 -2 3 4 -1 -6 -7
right_child=1 -3 -4 -5 5 6 -8
leaf_value=6.0923896332405114 -30.557504246210307 7.16730829503107 18.596363834207331 -9.687052301315358 -7.7983932444983983 3.1302675869355956 -1.230519780691173
leaf_weight=74 50 64 47 47 56 204 287
leaf_count=74 50 64 47 47 56 204 287
internal_value=-0.423266 -9.37866 1.00459 -0.233158 0.482355 -0.27659 0.581294
internal_weight=829 114 715 668 621 547 491
internal_count=829 114 715 668 621 547 491
is_linear=0
shrinkage=0.207129


Tree=30
num_leaves=7
num_cat=0
split_feature=7 5 7 9 0 2
split_gain=216069 362203 164749 63309.2 66038.4 35413.6
threshold=4848.6666666666679 4370.0000000000009 983.00000000000011 0.15187619342247902 967.00000000000011 23652.000000000004
decision_type=2 2 2 2 2 2
left_child=1 2 3 4 5 -1
right_child=-2 -3 -4 -5 -6 -7
leaf_value=-0.55145175064362939 -13.26176118517885 16.575989212523236 -11.612188518688862 -6.9831854597258642 7.5344353050606161 4.3982700386896907
leaf_weight=490 52 56 55 49 56 71
leaf_count=490 52 56 55 49 56 71
internal_value=-0.335595 0.529476 -0.716855 0.18291 0.752017 0.0749836
internal_weight=829 777 721 666 617 561
internal_count=829 777 721 666 617 561
is_linear=0
shrinkage=0.207129


Tree=31
num_leaves=10
num_cat=0
split_feature=9 5 6 7 9 1 2 0 5
split_gain=169210 576273 282418 167500 38838.8 63469.8 59898.4 50978.8 91952.1
threshold=0.57447190633406719 4984.0000000000009 2961.5000000000005 543.00000000000011 0.026301313981149703 8084.0000000000009 19369.500000000004 276.00000000000006 100.50000000000001
decision_type=2 2 2 2 2 2 2 2 2
left_child=2 -2 3 4 7 6 -6 8 -1
right_child=1 -3 -4 -5 5 -7 -8 -9 -10
leaf_value=-6.3802877281021306 -24.338383421723631 5.3395125048862813 12.852068571681658 -12.544715319589937 -4.6470157848440632 -7.9079328591712894 1.7351821317698755 6.7465842251439891 5.244067688836239
leaf_weight=53 50 64 76 46 83 47 263 82 65
leaf_count=53 50 64 76 46 83 47 263 82 65
internal_value=-0.266084 -7.67711 0.915534 -0.504147 0.42986 -0.76596 0.204192 2.77965 0.0229589
internal_weight=829 114 715 639 593 393 346 200 118
internal_count=829 114 715 639 593 393 346 200 118
is_linear=0
shrinkage=0.207129


Tree=32
num_leaves=8
num_cat=0
split_feature=9 5 6 0 1 2 2
split_gain=160302 311384 100219 122451 56028.1 51765.1 39431.5
threshold=0.72017429500950547 4370.0000000000009 2902.5000000000005 1061.0000000000002 6094.0000000000009 19045.500000000004 21110.000000000004
decision_type=2 2 2 2 2 2 2
left_child=1 2 4 -4 -1 -6 -7
right_child=-2 -3 3 -5 5 6 -8
leaf_value=5.6926201639122462 -11.232117780500911 16.523646775417959 0.4019476912270174 -14.323713740721134 -6.0496835570076382 2.7140155159303276 -1.0823922307653302
leaf_weight=76 53 49 50 47 60 192 302
leaf_count=76 53 49 50 47 60 192 302
internal_value=-0.21097 0.541763 -0.53542 -6.73317 0.418836 -0.304643 0.393135
internal_weight=829 776 727 97 630 554 494
internal_count=829 776 727 97 630 554 494
is_linear=0
shrinkage=0.207129


Tree=33
num_leaves=9
num_cat=0
split_feature=7 0 5 1 3 6 8 0
split_gain=113127 305517 192511 53886.8 136968 365504 89070 51764.8
threshold=4873.8333333333348 4415.5000000000009 1066.5000000000002 6364.0000000000009 6674.5000000000009 895.00000000000011 1.0000000180025095e-35 525.00000000000011
decision_type=2 2 2 2 2 2 2 2
left_child=1 2 3 6 5 -5 -1 -6
right_child=-2 -3 -4 4 7 -7 -8 -9
leaf_value=9.8729750496523021 -9.6176966719725776 14.161947063443728 -12.435055653995541 1.7376192954165928 -0.32274997759710933 -20.628952025429182 -2.0095740808610021 4.6600541072254069
leaf_weight=59 51 64 56 87 282 49 50 131
leaf_count=59 51 64 56 87 282 49 50 131
internal_value=-0.167272 0.452229 -0.776653 0.215551 -0.619662 -6.32092 4.42226 1.25775
internal_weight=829 778 714 658 549 136 109 413
internal_count=829 778 714 658 549 136 109 413
is_linear=0
shrinkage=0.207129


Tree=34
num_leaves=7
num_cat=0
split_feature=5 9 6 5 2 1
split_gain=113218 461643 249013 143351 33056.5 58627.3
threshold=5281.5000000000009 0.57447190633406719 2952.5000000000005 829.50000000000011 23652.000000000004 7670.5000000000009
decision_type=2 2 2 2 2 2
left_child=1 2 3 4 5 -1
right_child=-2 -3 -4 -5 -6 -7
leaf_value=0.64060335198182472 9.7410146582917889 -17.166249804839449 11.782164602786262 -10.861421020740091 4.6820086545089561 -6.1506548716483769
leaf_weight=453 47 67 79 53 68 62
leaf_count=453 47 67 79 53 68 62
internal_value=-0.132625 -0.726053 0.814496 -0.54784 0.389759 -0.176985
internal_weight=829 782 715 636 583 515
internal_count=829 782 715 636 583 515
is_linear=0
shrinkage=0.207129


Tree=35
num_leaves=9
num_cat=0
split_feature=3 0 1 6 7 5 0 9
split_gain=243609 200880 601480 156726 103741 20035.5 90758 26811.8
threshold=8039.9166666666679 4190.5000000000009 7125.0000000000009 2913.0000000000005 530.25000000000011 393.50000000000006 428.00000000000006 0.030481246371664255
decision_type=2 2 2 2 2 2 2 2
left_child=1 3 -3 4 5 7 -7 -1
right_child=-2 2 -4 -5 -6 6 -8 -9
leaf_value=0.052703036101866482 -14.690319107298027 22.851192279121587 -6.3569711225473942 -9.2991233145080781 8.8211171976929439 8.7555279957413141 -2.0538330867989232 -3.4866032789933157
leaf_weight=204 49 60 61 86 54 48 109 167
leaf_count=204 49 60 61 86 54 48 109 167
internal_value=-0.519126 0.360961 8.12642 -1.04566 0.173929 -0.710443 1.25094 -1.54046
internal_weight=838 789 121 668 582 528 157 371
internal_count=838 789 121 668 582 528 157 371
is_linear=0
shrinkage=0.207129


Tree=36
num_leaves=7
num_cat=0
split_feature=6 0 0 7 2 5
split_gain=252421 330820 85055.3 56355.6 32504.4 29497.9
threshold=14442.000000000002 4014.5000000000005 1029.5000000000002 556.66666666666686 10274.500000000002 100.50000000000001
decision_type=2 2 2 2 2 2
left_child=1 2 3 4 -1 -6
right_child=-2 -3 -4 -5 5 -7
leaf_value=-5.7646674280876917 -12.048886242463187 14.489024917100906 -7.7812281702755541 6.12642692093974 -4.005047086737056 0.53499205297091856
leaf_weight=47 73 68 65 60 71 454
leaf_count=47 73 68 65 60 71 454
internal_value=-0.4116 0.698886 -0.646493 0.0873011 -0.546174 -0.0789942
internal_weight=838 765 697 632 572 525
internal_count=838 765 697 632 572 525
is_linear=0
shrinkage=0.207129


Tree=37
num_leaves=7
num_cat=0
split_feature=0 0 5 6 0 0
split_gain=187858 286078 121410 54386.5 160841 35066.6
threshold=5096.5000000000009 4380.0000000000009 1117.5000000000002 2913.0000000000005 804.50000000000011 596.50000000000011
decision_type=2 2 2 2 2 2
left_child=1 2 3 4 5 -1
right_child=-2 -3 -4 -5 -6 -7
leaf_value=0.30586703320175673 -10.932818997329637 16.065883880071777 -10.29415119351132 -5.9576398828183335 9.9701904339530625 -4.3881734518396405
leaf_weight=466 66 48 50 55 73 80
leaf_count=466 66 48 50 55 73 80
internal_value=-0.326345 0.580426 -0.446234 0.284323 0.83894 -0.381904
internal_weight=838 772 724 674 619 546
internal_count=838 772 724 674 619 546
is_linear=0
shrinkage=0.207129


Tree=38
num_leaves=7
num_cat=0
split_feature=6 6 0 7 2 1
split_gain=152681 229486 57814.7 45395.7 27925.6 33224.2
threshold=14442.000000000002 3277.0000000000005 1160.0000000000002 556.66666666666686 23658.500000000004 7670.5000000000009
decision_type=2 2 2 2 2 2
left_child=1 2 3 4 5 -1
right_child=-2 -3 -4 -5 -6 -7
leaf_value=-0.3308751814462299 -9.3094455536638456 14.626649341843452 -7.3357574426667966 4.9108650554226516 3.2455857195105398 -5.2134672714758175
leaf_weight=448 73 47 47 77 77 69
leaf_count=448 73 47 47 77 77 69
internal_value=-0.25875 0.604912 -0.312946 0.178965 -0.43443 -0.982517
internal_weight=838 765 718 671 594 517
internal_count=838 765 718 671 594 517
is_linear=0
shrinkage=0.207129


Tree=39
num_leaves=7
num_cat=0
split_feature=3 0 0 7 6 0
split_gain=144347 186075 195120 236467 248889 54889.4
threshold=8039.9166666666679 5287.5000000000009 4539.5000000000009 994.25000000000011 2859.0000000000005 804.50000000000011
decision_type=2 2 2 2 2 2
left_child=1 2 3 4 5 -1
right_child=-2 -3 -4 -5 -6 -7
leaf_value=-0.26767376721572633 -11.11364037537086 13.110952025386249 -13.099972514183273 11.706537078474952 -15.247046609848345 6.3046398021881256
leaf_weight=513 49 47 48 73 47 61
leaf_count=513 49 47 48 73 47 61
internal_value=-0.205155 0.472305 -0.328256 0.55509 -0.755789 0.430778
internal_weight=838 789 742 694 621 574
internal_count=838 789 742 694 621 574
is_linear=0
shrinkage=0.207129


Tree=40
num_leaves=7
num_cat=0
split_feature=0 0 5 6 0 0
split_gain=146582 261050 93733.8 43120.9 76692 22203.2
threshold=5096.5000000000009 4380.0000000000009 1117.5000000000002 2913.0000000000005 804.50000000000011 596.50000000000011
decision_type=2 2 2 2 2 2
left_child=1 2 3 4 5 -1
right_child=-2 -3 -4 -5 -6 -7
leaf_value=0.49761311780653711 -9.531738547763398 15.43089931520751 -8.9953753384094934 -5.2585009941715137 7.0986649984397516 -3.2375328342655405
leaf_weight=466 66 48 50 55 73 80
leaf_count=466 66 48 50 55 73 80
internal_value=-0.162661 0.638322 -0.342402 0.29951 0.793356 -0.049661
internal_weight=838 772 724 674 619 546
internal_count=838 772 724 674 619 546
is_linear=0
shrinkage=0.207129


Tree=41
num_leaves=9
num_cat=0
split_feature=0 0 3 0 3 5 0 0
split_gain=115754 348500 275648 69464.3 174069 39787.1 33413.9 30683.1
threshold=4680.0000000000009 4014.5000000000005 7169.5833333333348 933.50000000000011 6921.0000000000009 757.00000000000011 659.50000000000011 538.50000000000011
decision_type=2 2 2 2 2 2 2 2
left_child=1 3 -2 5 -5 6 7 -1
right_child=2 -3 -4 4 -6 -7 -8 -9
leaf_value=-0.25709369291207573 4.1369399542240641 17.802192094208131 -18.417553330967653 -14.879672798298209 2.3164306248517619 5.6153011885149198 -5.4156761661889954 4.6724561432583416
leaf_weight=429 47 48 46 46 56 57 47 62
leaf_count=429 47 48 46 46 56 57 47 62
internal_value=-0.128969 0.731134 -7.01905 -0.444491 -5.43867 0.411655 -0.139661 0.365375
internal_weight=838 745 93 697 102 595 538 491
internal_count=838 745 93 697 102 595 538 491
is_linear=0
shrinkage=0.207129


Tree=42
num_leaves=7
num_cat=0
split_feature=9 9 7 4 6 0
split_gain=255366 481061 95823.6 56991.6 54824 73627.5
threshold=0.67484197461526152 0.50482176124751377 986.41666666666686 -1.0000000180025095e-35 2684.5000000000005 697.50000000000011
decision_type=2 2 2 2 2 2
left_child=1 2 3 -1 5 -5
right_child=-2 -3 -4 4 -6 -7
leaf_value=-6.4208417152325268 -11.895407692679443 20.10597031910654 -8.4835667156226435 1.3088954565775455 7.564982736491503 -6.3817744091036284
leaf_weight=47 69 54 55 486 51 60
leaf_count=47 69 54 55 486 51 60
internal_value=0.164957 1.27009 -0.185043 0.523682 1.0704 0.463767
internal_weight=822 753 699 644 597 546
internal_count=822 753 699 644 597 546
is_linear=0
shrinkage=0.207129


Tree=43
num_leaves=12
num_cat=0
split_feature=0 6 1 9 2 3 6 0 2 0 3
split_gain=186611 181515 90762.8 78532.1 227202 274010 97509.8 44962.3 40844.3 110393 69435.2
threshold=5096.5000000000009 13176.500000000002 7962.5000000000009 0.090568770447110106 20344.500000000004 7213.8333333333348 1656.5000000000002 380.00000000000006 20851.500000000004 505.00000000000006 7392.166666666667
decision_type=2 2 2 2 2 2 2 2 2 2 2
left_child=1 2 3 8 6 -6 -5 -4 9 -1 -10
right_child=-2 -3 7 4 5 -7 -8 -9 10 -11 -12
leaf_value=0.26964541825370847 -11.302418423384848 12.227333089967074 1.5667885608345293 -3.7649237703092049 -22.661660369327926 -1.0324960015757179 9.4405659237386139 10.724816537471224 -4.4066614370736872 11.80769805719593 3.1035747972799133
leaf_weight=157 57 57 46 47 47 54 49 46 124 46 92
leaf_count=157 57 57 46 47 47 54 49 46 124 46 92
internal_value=0.130789 0.982675 0.0773851 -0.828937 -4.23968 -11.0976 2.97538 6.1458 0.774681 2.88418 -1.20786
internal_weight=822 765 708 616 197 101 96 92 419 203 216
internal_count=822 765 708 616 197 101 96 92 419 203 216
is_linear=0
shrinkage=0.207129


Tree=44
num_leaves=8
num_cat=0
split_feature=6 0 0 3 3 2 0
split_gain=169262 498184 181913 50857.8 54881.6 84181.1 46309.2
threshold=15023.500000000002 4315.5000000000009 1103.5000000000002 4448.5000000000009 7033.916666666667 23652.000000000004 582.50000000000011
decision_type=2 2 2 2 2 2 2
left_child=1 2 3 -1 6 -6 -5
right_child=-2 -3 -4 4 5 -7 -8
leaf_value=-4.6534892887540495 11.096430079574597 -18.345260008975313 13.189575624651345 1.1249455907478174 -2.956640121103923 4.8947842373491861 7.2810780643982707
leaf_weight=88 56 63 48 169 245 77 76
leaf_count=88 56 63 48 169 245 77 76
internal_value=0.103699 -0.699947 0.881354 -0.0206225 0.698411 -1.07913 3.0346
internal_weight=822 766 703 655 567 322 245
internal_count=822 766 703 655 567 322 245
is_linear=0
shrinkage=0.207129


Tree=45
num_leaves=7
num_cat=0
split_feature=9 9 7 4 2 2
split_gain=169264 353722 62729 37663.3 25636.4 39099.5
threshold=0.67484197461526152 0.50482176124751377 986.41666666666686 -1.0000000180025095e-35 23652.000000000004 20992.500000000004
decision_type=2 2 2 2 2 2
left_child=1 2 3 -1 5 -5
right_child=-2 -3 -4 4 -6 -7
leaf_value=-5.3378075454009579 -9.7366371857383882 17.133597042871607 -6.9800787777984512 1.8035069858883428 4.6020385062127183 -1.7912582547546669
leaf_weight=47 69 54 55 305 66 226
leaf_count=47 69 54 55 305 66 226
internal_value=0.0822199 0.981956 -0.26581 0.307613 0.75206 0.273532
internal_weight=822 753 699 644 597 531
internal_count=822 753 699 644 597 531
is_linear=0
shrinkage=0.207129


Tree=46
num_leaves=8
num_cat=0
split_feature=6 0 6 6 1 1 1
split_gain=120076 350383 139300 147522 25114.4 43223.1 16996.1
threshold=15023.500000000002 4315.5000000000009 2921.5000000000005 1826.0000000000002 7765.5000000000009 7358.5000000000009 8271.0000000000018
decision_type=2 2 2 2 2 2 2
left_child=1 2 3 4 5 -1 -6
right_child=-2 -3 -4 -5 6 -7 -8
leaf_value=0.9896981926260664 9.3239877337418431 -15.409800466777455 8.5241360281426068 -10.412945076052704 5.6339132275553645 -4.0452483892293243 0.44664663558130546
leaf_weight=357 56 63 86 57 64 92 47
leaf_count=357 56 63 86 57 64 92 47
internal_value=0.0651897 -0.611694 0.714452 -0.374093 0.647718 -0.0419612 3.4375
internal_weight=822 766 703 617 560 449 111
internal_count=822 766 703 617 560 449 111
is_linear=0
shrinkage=0.207129


Tree=47
num_leaves=12
num_cat=0
split_feature=9 9 3 6 1 0 3 0 0 5 6
split_gain=112430 245864 72043.4 153080 65136.3 53754.6 48587.5 112988 102028 64945.1 35931.9
threshold=0.72017429500950547 0.59313307059139675 6567.8333333333348 1559.5000000000002 6948.0000000000009 281.00000000000006 7513.166666666667 659.50000000000011 1016.5000000000001 276.00000000000006 139.00000000000003
decision_type=2 2 2 2 2 2 2 2 2 2 2
left_child=1 2 3 4 5 -1 8 9 10 -8 -4
right_child=-2 -3 6 -5 -6 -7 7 -9 -10 -11 -12
leaf_value=-2.6306141302231096 -9.269932822458312 14.578275134156589 6.0781945306272283 -13.831247325474948 -6.3353767622439285 6.925392148016134 -3.7692358147149658 -10.534364763404925 11.450451998343585 6.1428374327453392 0.013256325964462561
leaf_weight=46 52 51 50 48 53 56 53 47 46 61 259
leaf_count=46 52 51 50 48 53 56 53 47 46 61 259
internal_value=0.051687 0.681199 -0.304546 -3.61015 -0.444911 2.61582 0.995915 -1.98864 2.34948 1.53459 0.994638
internal_weight=822 770 719 203 155 102 516 161 355 114 309
internal_count=822 770 719 203 155 102 516 161 355 114 309
is_linear=0
shrinkage=0.207129


Tree=48
num_leaves=10
num_cat=0
split_feature=2 9 5 1 0 9 2 3 2
split_gain=101144 269745 257325 79751.7 305025 224069 56720.3 68563.8 21708.7
threshold=22987.500000000004 0.11989498645407766 4899.5000000000009 7354.5000000000009 1186.0000000000002 0.069108806191877967 10274.500000000002 7033.916666666667 23845.000000000004
decision_type=2 2 2 2 2 2 2 2 2
left_child=2 8 3 4 6 -5 -1 -8 -2
right_child=1 -3 -4 5 -6 -7 7 -9 -10
leaf_value=-6.1184089154626013 -2.3256798165524337 -17.817473993003009 15.164253048487748 -1.95225255384496 -17.330633438144826 15.267084287555932 3.4096721425778522 -2.4575919962261592 3.3922025301796688
leaf_weight=50 52 47 52 89 46 51 239 133 63
leaf_count=50 52 47 52 89 46 51 239 133 63
internal_value=0.0409811 -4.59659 1.17929 -0.0167876 -1.31427 4.32051 0.431591 1.31197 0.806725
internal_weight=822 162 660 608 468 140 422 372 115
internal_count=822 162 660 608 468 140 422 372 115
is_linear=0
shrinkage=0.207129


Tree=49
num_leaves=13
num_cat=0
split_feature=9 1 5 7 3 0 0 9 5 0 0 8
split_gain=117154 560735 193205 60079.3 69588.8 43041.3 65967.9 33413.1 74029.4 48124.5 31820.4 30488.1
threshold=0.57447190633406719 7171.0000000000009 1029.5000000000002 262.25000000000006 6684.416666666667 340.50000000000006 525.00000000000011 0.030481246371664255 277.50000000000006 428.00000000000006 131.50000000000003 1.0000000180025095e-35
decision_type=2 2 2 2 2 2 2 2 2 2 2 2
left_child=2 -2 3 7 -5 -6 -7 10 -9 -10 -1 -12
right_child=1 -3 -4 4 5 6 -8 8 9 -11 11 -13
leaf_value=-1.2029921420839997 6.6769923516140333 -22.082942017435474 10.851379632740993 -9.1934395777908406 4.4797410687798989 -9.0187256842606427 0.96985182456225671 -7.4780388357337815 5.5333532623329766 -1.3640496607479584 7.8845748181881925 2.077624488720641
leaf_weight=53 66 52 77 56 48 46 74 50 75 103 70 87
leaf_count=53 66 52 77 56 48 46 74 50 75 103 70 87
internal_value=0.0636462 -5.99688 1.03136 -0.110846 -2.87008 -0.76229 -2.8591 1.30027 -0.435954 1.54216 3.18531 4.66671
internal_weight=857 118 739 662 224 168 120 438 228 178 210 157
internal_count=857 118 739 662 224 168 120 438 228 178 210 157
is_linear=0
shrinkage=0.207129


Tree=50
num_leaves=7
num_cat=0
split_feature=5 9 9 7 0 0
split_gain=102479 339613 146111 67614 74189.4 45295
threshold=5311.5000000000009 0.57766342383549119 0.1870465842006209 986.41666666666686 967.00000000000011 697.50000000000011
decision_type=2 2 2 2 2 2
left_child=1 2 3 4 5 -1
right_child=-2 -3 -4 -5 -6 -7
leaf_value=0.49886262730973219 9.5609129136033406 -14.388522437273924 11.616656964074926 -7.0868939190457718 7.5450078454888017 -5.6505475128526124
leaf_weight=522 46 69 50 53 60 57
leaf_count=522 46 69 50 53 60 57
internal_value=0.0504632 -0.48897 0.803576 0.0222835 0.611934 -0.10652
internal_weight=857 811 742 692 639 579
internal_count=857 811 742 692 639 579
is_linear=0
shrinkage=0.207129


Tree=51
num_leaves=14
num_cat=0
split_feature=3 3 5 7 1 1 0 5 5 7 1 1 2
split_gain=71183.9 342189 300313 227375 105150 224111 316158 214081 102419 107784 38560.9 117801 56508.1
threshold=7109.8333333333348 7195.8333333333348 4141.0000000000009 1005.5833333333334 7582.5000000000009 8237.0000000000018 359.50000000000006 543.00000000000011 930.50000000000011 500.41666666666674 6712.0000000000009 6528.0000000000009 21110.000000000004
decision_type=2 2 2 2 2 2 2 2 2 2 2 2 2
left_child=2 -2 8 4 7 6 -6 -3 9 10 11 -1 -12
right_child=1 3 -4 -5 5 -7 -8 -9 -10 -11 12 -13 -14
leaf_value=1.5426206376416729 18.124972012013753 -0.53158707891541557 -17.00283624725844 -13.772352928855607 5.1583185240543283 10.016983643187359 -17.5304671425984 16.726514078605607 7.7566531605737197 -10.484830417549663 5.5778723387677376 -10.569810687208005 -2.6553429050895203
leaf_weight=116 50 78 49 46 49 48 57 51 64 47 96 49 57
leaf_count=116 50 78 49 46 49 48 57 51 64 47 96 49 57
internal_value=0.0400108 2.16001 -1.64091 -0.266272 1.92906 -1.72509 -7.04225 6.29138 0.113714 -1.22642 0.141964 -2.0544 2.5106
internal_weight=857 379 478 329 283 154 106 129 429 365 318 165 153
internal_count=857 379 478 329 283 154 106 129 429 365 318 165 153
is_linear=0
shrinkage=0.207129


Tree=52
num_leaves=7
num_cat=0
split_feature=5 6 7 6 1 1
split_gain=100987 171487 200837 74027.6 34938.1 51583.1
threshold=5311.5000000000009 13992.500000000002 994.25000000000011 2859.0000000000005 8307.0000000000018 7254.0000000000009
decision_type=2 2 2 2 2 2
left_child=1 2 3 4 5 -1
right_child=-2 -3 -4 -5 -6 -7
leaf_value=-1.2564917807542608 9.4726567819608398 -11.45833750826011 11.42409048153587 -8.7326346362503884 -5.6325168114480118 2.6822620912231785
leaf_weight=363 46 57 64 46 46 235
leaf_count=363 46 57 64 46 46 235
internal_value=0.0317233 -0.503767 0.324363 -0.705177 -0.131787 0.291346
internal_weight=857 811 754 690 644 598
internal_count=857 811 754 690 644 598
is_linear=0
shrinkage=0.207129


Tree=53
num_leaves=7
num_cat=0
split_feature=7 7 0 9 0 5
split_gain=104973 212838 187498 165126 78535.7 27293.7
threshold=4714.4166666666679 986.41666666666686 4415.5000000000009 0.16321967409637597 967.00000000000011 653.50000000000011
decision_type=2 2 2 2 2 2
left_child=1 2 3 4 5 -1
right_child=-2 -3 -4 -5 -6 -7
leaf_value=-0.88347359615044807 7.7720714136939595 -12.006316096733892 12.227082910716877 -12.547024734488108 8.101096867050515 3.6862970422601316
leaf_weight=510 69 65 53 46 51 63
leaf_count=510 69 65 53 46 51 63
internal_value=0.0251526 -0.653194 0.367487 -0.57066 0.312213 -0.381038
internal_weight=857 788 723 670 624 573
internal_count=857 788 723 670 624 573
is_linear=0
shrinkage=0.207129


Tree=54
num_leaves=9
num_cat=0
split_feature=1 1 9 1 0 0 1 1
split_gain=92301.6 227258 297157 154238 157040 182560 48756 41223.3
threshold=6507.0000000000009 5951.5000000000009 0.074535828832067316 6628.0000000000009 5287.5000000000009 1197.5000000000002 6712.0000000000009 6950.5000000000009
decision_type=2 2 2 2 2 2 2 2
left_child=1 -1 -3 -2 5 6 -5 -8
right_child=3 2 -4 4 -6 -7 7 -9
leaf_value=-3.6791736380476667 -12.280883325790459 -0.69329847717087389 22.359470866359565 -6.1697283744981801 11.044038676949183 -11.693924644003562 5.247547654690611 -0.080549540443083434
leaf_weight=84 49 47 49 48 49 63 74 394
leaf_count=84 49 47 49 48 49 63 74 394
internal_value=0.0199427 4.18877 11.0732 -1.08846 -0.215166 -1.16802 0.117122 0.761927
internal_weight=857 180 96 677 628 579 516 468
internal_count=857 180 96 677 628 579 516 468
is_linear=0
shrinkage=0.207129


Tree=55
num_leaves=10
num_cat=0
split_feature=3 7 9 9 3 0 2 5 3
split_gain=79594.5 252090 227740 699140 237605 199574 78955.7 33271.7 13825.1
threshold=6502.666666666667 284.33333333333343 0.70428898821115926 0.57766342383549119 6674.5000000000009 1073.5000000000002 14512.000000000002 468.50000000000006 4992.5833333333348
decision_type=2 2 2 2 2 2 2 2 2
left_child=1 6 3 4 -2 7 -1 -6 -8
right_child=2 -3 -4 -5 5 -7 8 -9 -10
leaf_value=-5.2058941852420864 -14.44837250662032 17.046779384689405 12.405179117497301 -26.807884673516217 1.1683968599436045 14.108148321226697 6.0934229276141068 -2.5118765417394915 1.1977760277472793
leaf_weight=76 46 46 49 46 280 46 50 169 49
leaf_count=76 46 46 49 46 280 46 50 169 49
internal_value=0.0158119 3.40211 -1.16087 -2.2933 -0.208884 1.11438 -0.18449 -0.216829 3.67032
internal_weight=857 221 636 587 541 495 175 449 99
internal_count=857 221 636 587 541 495 175 449 99
is_linear=0
shrinkage=0.207129


Tree=56
num_leaves=10
num_cat=0
split_feature=7 9 0 3 0 0 7 2 8
split_gain=196793 544262 113367 56238.3 22362.2 70799.3 42436.5 37319.7 35694.7
threshold=4873.8333333333348 0.59313307059139675 1005.5000000000001 6986.8333333333348 615.00000000000011 697.50000000000011 505.50000000000006 21333.500000000004 1.0000000180025095e-35
decision_type=2 2 2 2 2 2 2 2 2
left_child=1 2 4 -4 6 -6 8 -7 -1
right_child=-2 -3 3 -5 5 7 -8 -9 -10
leaf_value=2.2652882282104572 -12.218087273758107 19.644641628563914 -2.0837958892037793 -12.059074143736909 9.3526618007837889 -4.2318282074275482 -6.0712532172376541 3.9045819489467712 -1.5308079565844599
leaf_weight=235 50 63 49 48 48 51 46 46 194
leaf_count=235 50 63 49 48 48 51 46 46 194
internal_value=0.379 1.18651 -0.435339 -7.02002 0.594845 2.84631 -0.0924456 -0.373324 0.548639
internal_weight=830 780 717 97 620 145 475 97 429
internal_count=830 780 717 97 620 145 475 97 429
is_linear=0
shrinkage=0.207129


Tree=57
num_leaves=13
num_cat=0
split_feature=3 0 7 0 6 5 1 3 0 0 8 0
split_gain=180634 423246 244579 356041 101913 64043 117823 161844 110470 46475 29428.1 26662.2
threshold=6511.0000000000009 1029.5000000000002 986.41666666666686 1197.5000000000002 2913.0000000000005 468.50000000000006 7709.5000000000009 7201.2500000000009 492.00000000000006 287.00000000000006 1.0000000180025095e-35 310.50000000000006
decision_type=2 2 2 2 2 2 2 2 2 2 2 2
left_child=1 10 4 -4 5 8 7 -7 9 -2 11 -1
right_child=2 -3 3 -5 -6 6 -8 -9 -10 -11 -12 -13
leaf_value=-0.98211314301678487 1.6637584289488998 23.11370184854081 3.521663893203709 -19.849616494191846 9.7831723697585691 -7.4943401330784472 -12.531647229217626 8.6741690427967146 10.415855269026125 -4.1400539963868468 -3.1286458251669025 5.6556456522536021
leaf_weight=47 166 46 48 67 46 58 47 49 48 92 58 58
leaf_count=47 166 46 48 67 46 58 47 49 48 92 58 58
internal_value=0.300498 5.56764 -1.47218 -10.0946 0.487472 -0.442098 -3.88717 -0.0900696 1.2917 -0.405818 0.615992 2.68446
internal_weight=830 209 621 115 506 460 154 107 306 258 163 105
internal_count=830 209 621 115 506 460 154 107 306 258 163 105
is_linear=0
shrinkage=0.207129


Tree=58
num_leaves=12
num_cat=0
split_feature=3 5 7 0 1 6 3 6 2 1 3
split_gain=113554 280147 153753 223823 65121 81232.4 87133.7 107047 51392.7 38538.4 17738.3
threshold=6511.0000000000009 757.00000000000011 986.41666666666686 1197.5000000000002 6712.0000000000009 1656.5000000000002 6912.5000000000009 1306.5000000000002 19952.000000000004 6948.0000000000009 3653.4166666666674
decision_type=2 2 2 2 2 2 2 2 2 2 2
left_child=1 9 4 -4 8 6 -6 -8 -2 10 -1
right_child=2 -3 3 -5 5 -7 7 -9 -10 -11 -12
leaf_value=5.4303438659500767 0.44825972625950539 18.117659356968339 2.7922237205452936 -15.738178664796028 8.4693245396478769 7.5629322528297234 0.82839232427310938 -9.521841513833877 -8.1970624812037016 -4.5502371226672 0.11323702225671456
leaf_weight=47 59 49 48 67 46 80 208 54 59 50 63
leaf_count=47 59 49 48 67 46 80 208 54 59 50 63
internal_value=0.238256 4.41442 -1.16725 -8.00375 0.386503 1.68234 0.154919 -1.30486 -3.8744 0.217801 2.38509
internal_weight=830 209 621 115 506 388 308 262 118 160 110
internal_count=830 209 621 115 506 388 308 262 118 160 110
is_linear=0
shrinkage=0.207129


Tree=59
num_leaves=9
num_cat=0
split_feature=9 9 0 1 9 9 1 5
split_gain=133548 425722 131526 271143 28781.9 30326 26667.6 87076.1
threshold=0.60062916503402564 0.72017429500950547 858.50000000000011 7358.5000000000009 0.10782310564344066 0.076838663333528068 8026.0000000000009 424.50000000000006
decision_type=2 2 2 2 2 2 2 2
left_child=2 -2 4 -4 5 6 7 -1
right_child=1 -3 3 -5 -6 -7 -8 -9
leaf_value=0.24226170442077746 20.130489889026993 -6.3788251032568697 -14.103533465688962 3.4200394511774226 5.0519342577778072 -3.7960197944636715 -3.274365251284975 9.6734506916170613
leaf_weight=336 53 51 84 69 57 72 60 48
leaf_count=336 53 51 84 69 57 72 60 48
internal_value=0.188906 7.13073 -0.805515 -6.20075 0.635097 0.14719 0.78663 1.42116
internal_weight=830 104 726 153 573 516 444 384
internal_count=830 104 726 153 573 516 444 384
is_linear=0
shrinkage=0.207129


Tree=60
num_leaves=8
num_cat=0
split_feature=9 3 0 6 7 2 1
split_gain=83954.4 303978 109538 36865.9 58012.1 23407.5 44266.6
threshold=0.60062916503402564 7169.5833333333348 1160.0000000000002 3044.5000000000005 556.66666666666686 23404.000000000004 7374.5000000000009
decision_type=2 2 2 2 2 2 2
left_child=2 -2 3 4 5 6 -1
right_child=1 -3 -4 -5 -6 -7 -8
leaf_value=0.44237249783467292 16.223450455456494 -6.2102073704200125 -10.420770959915366 -5.5109207470872787 7.2138321562037238 2.9739945029029835 -4.0796365787916828
leaf_weight=370 55 49 46 48 50 88 124
leaf_count=370 55 49 46 48 50 88 124
internal_value=0.149778 5.65375 -0.638669 0.0230615 0.443364 -0.138291 -0.692707
internal_weight=830 104 726 680 632 582 494
internal_count=830 104 726 680 632 582 494
is_linear=0
shrinkage=0.207129


Tree=61
num_leaves=9
num_cat=0
split_feature=6 9 0 2 0 0 9 7
split_gain=85747.7 358001 50861.5 85396.2 24541.6 28720.6 60461.5 59236.2
threshold=14442.000000000002 0.58453063581154729 858.50000000000011 20703.000000000004 636.50000000000011 428.00000000000006 0.068374698225344074 394.50000000000006
decision_type=2 2 2 2 2 2 2 2
left_child=1 2 4 -4 5 6 -1 -7
right_child=-2 -3 3 -5 -6 7 -8 -9
leaf_value=-0.36902465823308939 -6.7122135320427354 18.477266207223582 -10.372142898173285 0.16109422113660796 3.8265178290548336 -8.4666577389768793 6.6910035244812773 1.3701341247270329
leaf_weight=324 72 46 54 85 81 48 62 58
leaf_count=324 72 46 54 85 81 48 62 58
internal_value=0.118755 0.767607 -0.376557 -3.93095 0.48568 -0.0643365 0.76497 -3.08426
internal_weight=830 758 712 139 573 492 386 106
internal_count=830 758 712 139 573 492 386 106
is_linear=0
shrinkage=0.207129


Tree=62
num_leaves=9
num_cat=0
split_feature=3 0 0 6 0 0 0 2
split_gain=84940 211028 168620 140504 205329 40128.3 48517 24974.8
threshold=6502.666666666667 961.50000000000011 4468.0000000000009 2961.5000000000005 764.50000000000011 525.00000000000011 291.50000000000006 18282.000000000004
decision_type=2 2 2 2 2 2 2 2
left_child=1 7 3 4 5 6 -2 -1
right_child=2 -3 -4 -5 -6 -7 -8 -9
leaf_value=2.3320847333726444 1.5673692940305208 15.610480182605526 -9.6810673584725624 7.9740102761872835 -13.066311203883133 4.7858436018942374 -3.5625899362059315 -2.9530872090983356
leaf_weight=88 191 49 85 85 55 74 135 68
leaf_count=88 191 49 85 85 55 74 135 68
internal_value=0.0941571 3.75281 -1.10588 0.243915 -1.20017 0.431426 -0.557 0.0282918
internal_weight=830 205 625 540 455 400 326 156
internal_count=830 205 625 540 455 400 326 156
is_linear=0
shrinkage=0.207129


Tree=63
num_leaves=9
num_cat=0
split_feature=7 9 0 5 10 9 0 3
split_gain=169019 155863 187641 30414.3 33622.5 37005.4 35719.7 6825.72
threshold=4682.0000000000009 0.57766342383549119 1114.5000000000002 100.50000000000001 -1.0000000180025095e-35 0.040821484515307559 221.50000000000003 3387.7500000000005
decision_type=2 2 2 2 2 2 2 2
left_child=1 2 3 7 6 -6 -5 -1
right_child=-2 -3 -4 4 5 -7 -8 -9
leaf_value=-2.4521530421487467 10.143328014850571 -11.254709608740542 12.558610950933531 6.2986206509468428 -5.5566093386712785 -0.31988882468103891 0.33507684440004332 -5.9653357321095912
leaf_weight=49 68 55 49 55 76 243 199 46
leaf_count=49 68 55 49 55 76 243 199 46
internal_value=0.243592 -0.628405 0.186723 -0.720796 -0.151712 -1.56751 1.6264 -4.15327
internal_weight=840 772 717 668 573 319 254 95
internal_count=840 772 717 668 573 319 254 95
is_linear=0
shrinkage=0.207129


Tree=64
num_leaves=13
num_cat=0
split_feature=9 0 0 10 3 2 1 0 1 5 1 7
split_gain=119633 260677 243713 24517.5 25416.4 56928.4 48192.3 45592.7 23710.8 42647.7 26009.1 39661.1
threshold=0.72017429500950547 1146.5000000000002 5056.5000000000009 -1.0000000180025095e-35 7622.666666666667 20876.500000000004 6569.5000000000009 291.50000000000006 7374.5000000000009 438.50000000000006 7119.0000000000009 249.33333333333334
decision_type=2 2 2 2 2 2 2 2 2 2 2 2
left_child=1 3 -3 8 5 6 -5 -7 10 -10 11 -1
right_child=-2 2 -4 4 -6 7 -8 -9 9 -11 -12 -13
leaf_value=4.3241543936301241 -9.5294316915032447 20.896856321383499 0.91621483920987745 -3.2783771897335461 1.867930229180655 -1.1621043133893521 3.1585083142806134 -9.5024571041898316 1.7494122460574639 -5.8455360929064417 6.3121565823320651 -3.4517298365964484
leaf_weight=60 51 50 55 112 69 47 90 70 79 53 51 53
leaf_count=60 51 50 55 112 69 47 90 70 79 53 51 53
internal_value=0.193137 0.821592 10.4308 -0.653507 -1.73664 -2.51631 -0.410458 -6.15206 0.766276 -1.30007 2.42944 0.677058
internal_weight=840 789 105 684 388 319 202 117 296 132 164 113
internal_count=840 789 105 684 388 319 202 117 296 132 164 113
is_linear=0
shrinkage=0.207129


Tree=65
num_leaves=7
num_cat=0
split_feature=0 6 6 7 9 1
split_gain=117695 396833 491028 102212 79334.9 32483.9
threshold=5287.5000000000009 14442.000000000002 3145.5000000000005 931.33333333333337 0.15187619342247902 6094.0000000000009
decision_type=2 2 2 2 2 2
left_child=1 2 3 4 5 -1
right_child=-2 -3 -4 -5 -6 -7
leaf_value=4.3651926726039481 9.6009250487613258 -18.938594616850505 20.947734454104069 8.6092775965738664 -9.4971140940421837 -1.2012114051104015
leaf_weight=49 53 47 48 47 48 548
leaf_count=49 53 47 48 47 48 548
internal_value=0.153133 -0.483123 0.689049 -0.716178 -1.39571 -0.744337
internal_weight=840 787 740 692 645 597
internal_count=840 787 740 692 645 597
is_linear=0
shrinkage=0.207129


Tree=66
num_leaves=7
num_cat=0
split_feature=7 0 0 6 6 0
split_gain=112078 110005 94330.7 32197.1 78196.6 42162.4
threshold=4682.0000000000009 4702.5000000000009 1132.0000000000002 2977.0000000000005 1871.0000000000002 697.50000000000011
decision_type=2 2 2 2 2 2
left_child=1 2 3 4 5 -1
right_child=-2 -3 -4 -5 -6 -7
leaf_value=-0.25200894209626251 8.1829116212628286 -10.086174115674742 9.0277185103130613 -5.4698124456920327 7.790463692541695 -6.2830933085220924
leaf_weight=519 68 49 47 53 49 55
leaf_count=519 68 49 47 53 49 55
internal_value=0.121414 -0.588666 0.0550106 -0.568832 -0.151894 -0.8299
internal_weight=840 772 723 676 623 574
internal_count=840 772 723 676 623 574
is_linear=0
shrinkage=0.207129


Tree=67
num_leaves=7
num_cat=0
split_feature=0 6 6 5 6 0
split_gain=80637.4 292125 305371 62927.3 74695 27275.5
threshold=5287.5000000000009 14442.000000000002 3145.5000000000005 1048.5000000000002 2684.5000000000005 697.50000000000011
decision_type=2 2 2 2 2 2
left_child=1 2 3 4 5 -1
right_child=-2 -3 -4 -5 -6 -7
leaf_value=-0.17702651825214036 7.9164989547028126 -16.264935237505224 16.551477120083092 -7.9347848453131125 7.5219350082361238 -4.7038503664631
leaf_weight=530 53 47 48 46 52 64
leaf_count=530 53 47 48 46 52 64
internal_value=0.096266 -0.430382 0.575326 -0.532847 -0.00577377 -0.664765
internal_weight=840 787 740 692 646 594
internal_count=840 787 740 692 646 594
is_linear=0
shrinkage=0.207129


Tree=68
num_leaves=7
num_cat=0
split_feature=5 9 0 6 5 0
split_gain=106715 213749 245010 32027.7 41878 30712.8
threshold=5281.5000000000009 0.57766342383549119 1132.0000000000002 2977.0000000000005 812.00000000000011 659.50000000000011
decision_type=2 2 2 2 2 2
left_child=1 2 3 4 5 -1
right_child=-2 -3 -4 -5 -6 -7
leaf_value=-0.085323867772003362 9.6659497611988137 -11.420954584200556 14.864768819804253 -5.3892076018489856 5.2120379953165896 -5.2376210391555746
leaf_weight=509 47 70 48 52 59 55
leaf_count=509 47 70 48 52 59 55
internal_value=0.0763264 -0.492037 0.566088 -0.450707 -0.0385052 -0.587764
internal_weight=840 793 723 675 623 564
internal_count=840 793 723 675 623 564
is_linear=0
shrinkage=0.207129


Tree=69
num_leaves=10
num_cat=0
split_feature=7 3 9 3 3 9 1 2 3
split_gain=86642.1 110142 512595 270773 164038 182275 23998.5 36790.6 53132.6
threshold=4714.4166666666679 7325.6666666666679 0.36960952152054344 7453.166666666667 7685.666666666667 0.08310892144886757 5897.0000000000009 19369.500000000004 6627.0833333333348
decision_type=2 2 2 2 2 2 2 2 2
left_child=1 2 6 -3 -5 -6 -1 -8 -9
right_child=-2 3 -4 4 5 -7 7 8 -10
leaf_value=3.5886031399547309 7.2643738806849356 17.042523720680691 -22.870669529502408 -7.7533460546597279 -2.077670812075278 14.706750632750872 -4.5175770831535669 4.8774106833330304 -1.2408702911213441
leaf_weight=62 66 48 47 77 70 46 89 80 255
leaf_count=62 66 48 47 77 70 46 89 80 255
internal_value=0.0605169 -0.553765 -2.21524 3.12078 -0.341627 4.57822 -0.217696 -0.774277 0.220212
internal_weight=840 774 533 241 193 116 486 424 335
internal_count=840 774 533 241 193 116 486 424 335
is_linear=0
shrinkage=0.207129


Tree=70
num_leaves=12
num_cat=0
split_feature=6 2 3 3 3 9 3 9 7 2 7
split_gain=120562 221239 225921 207053 44847.2 73464.1 27073.3 38079.5 39420 34601.1 30021.8
threshold=1826.0000000000002 20430.500000000004 7118.6666666666679 7453.166666666667 7884.3333333333348 0.14029507711317621 7414.3333333333348 0.026301313981149703 394.50000000000006 20649.500000000004 182.91666666666671
decision_type=2 2 2 2 2 2 2 2 2 2 2
left_child=4 -2 -3 -4 5 6 7 9 -9 -1 -8
right_child=1 2 3 -5 -6 -7 10 8 -10 -11 -12
leaf_value=-0.25788798433722493 4.4474624761072299 -21.20034775268816 6.1512989747156857 -11.739663472396987 -4.5655457173395178 9.4160402923440234 7.3976296445812286 -3.3587586173538275 2.4002882702733763 6.0540900583900319 0.18037418561426372
leaf_weight=81 79 46 49 64 56 47 51 164 74 69 48
leaf_count=81 79 46 49 64 56 47 51 164 74 69 48
internal_value=-0.576501 -4.51173 -8.96315 -3.98164 1.01093 1.59573 0.840996 0.0608974 -1.56813 2.64562 3.89835
internal_weight=828 238 159 113 590 534 487 388 238 150 99
internal_count=828 238 159 113 590 534 487 388 238 150 99
is_linear=0
shrinkage=0.207129


Tree=71
num_leaves=10
num_cat=0
split_feature=6 5 7 6 2 2 2 3 1
split_gain=81706.8 230422 235737 32357.9 26158.9 29909.6 21780.9 37177 35219.4
threshold=14340.000000000002 4078.5000000000005 977.75000000000011 139.00000000000003 21152.500000000004 17984.500000000004 21773.000000000004 7739.2500000000009 7004.0000000000009
decision_type=2 2 2 2 2 2 2 2 2
left_child=1 2 3 4 5 -1 8 -8 -5
right_child=-2 -3 -4 6 -6 -7 7 -9 -10
leaf_value=1.4539692318522186 -7.1756208429717177 14.218517953922399 -13.067459889684327 -0.35844170215406557 -0.052766315150048593 8.7660500257420608 2.9686416467441625 -3.1743939486011534 -5.8469455710240528
leaf_weight=48 71 47 61 209 75 48 143 60 66
leaf_count=48 71 47 61 209 75 48 143 60 66
internal_value=-0.457091 0.173049 -0.756721 0.400374 2.84563 5.11001 -0.474395 1.15297 -1.67568
internal_weight=828 757 710 649 171 96 478 203 275
internal_count=828 757 710 649 171 96 478 203 275
is_linear=0
shrinkage=0.207129


Tree=72
num_leaves=8
num_cat=0
split_feature=9 9 7 2 1 3 3
split_gain=67124 109636 118822 39474.4 53634.6 35562.8 22868.9
threshold=0.72017429500950547 0.59313307059139675 977.75000000000011 23658.500000000004 7670.5000000000009 7884.3333333333348 3485.916666666667
decision_type=2 2 2 2 2 2 2
left_child=1 2 3 4 6 -5 -1
right_child=-2 -3 -4 5 -6 -7 -8
leaf_value=3.9261266799621914 -7.7188972319139237 9.2978293439580941 -8.659631046145801 8.3620936599527944 -5.6603756733563761 0.30266742929728818 -0.14134366592660211
leaf_weight=69 50 52 70 46 71 48 422
leaf_count=69 50 52 70 46 71 48 422
internal_value=-0.362414 0.110368 -0.547687 0.317917 -0.339201 4.24664 0.430256
internal_weight=828 778 726 656 562 94 491
internal_count=828 778 726 656 562 94 491
is_linear=0
shrinkage=0.207129


Tree=73
num_leaves=8
num_cat=0
split_feature=6 7 7 2 0 0 1
split_gain=60275.2 95702.8 88024.6 72731.7 172785 73234 41198
threshold=13992.500000000002 994.25000000000011 568.75000000000011 22987.500000000004 1029.5000000000002 365.50000000000006 7547.5000000000009
decision_type=2 2 2 2 2 2 2
left_child=1 2 3 4 6 -5 -1
right_child=-2 -3 -4 5 -6 -7 -8
leaf_value=-0.63172265687506102 -5.4783157698325509 8.0369539845413698 -9.1506943343289642 0.47055057509120918 13.475093163826019 -9.2725863648713425 5.1143188491501332
leaf_weight=392 86 63 46 71 46 62 62
leaf_count=392 86 63 46 71 46 62 62
internal_value=-0.287347 0.314301 -0.402233 0.233516 1.37861 -4.07136 0.152979
internal_weight=828 742 679 633 500 133 454
internal_count=828 742 679 633 500 133 454
is_linear=0
shrinkage=0.207129


Tree=74
num_leaves=10
num_cat=0
split_feature=5 0 3 5 6 2 0 3 2
split_gain=72086.2 228676 25107.8 44060.2 52712.3 42600.8 36523.2 65445.9 39753.8
threshold=4899.5000000000009 1197.5000000000002 7414.3333333333348 258.50000000000006 1211.0000000000002 22137.500000000004 445.50000000000006 7033.916666666667 20842.000000000004
decision_type=2 2 2 2 2 2 2 2 2
left_child=1 2 5 -4 -5 6 8 -8 -1
right_child=-2 -3 3 4 -6 -7 7 -9 -10
leaf_value=0.26499285876010925 6.2855647412841655 -12.172001466393036 -2.5675561743911564 9.5795910279261527 1.0658531396925381 -5.5057065911270664 0.24911174328006577 -8.6283875882827381 6.0490639654034108
leaf_weight=169 67 69 54 52 78 62 158 46 73
leaf_count=169 67 69 54 52 78 62 158 46 73
internal_value=-0.227829 -0.801282 0.332504 2.40558 4.47135 -0.418375 0.288832 -1.75268 2.00977
internal_weight=828 761 692 184 130 508 446 204 242
internal_count=828 761 692 184 130 508 446 204 242
is_linear=0
shrinkage=0.207129


Tree=75
num_leaves=11
num_cat=0
split_feature=7 0 3 6 9 9 5 0 5 0
split_gain=62599.4 200597 67243.1 256074 164096 27831 51332.8 26506.3 46318.8 31329.9
threshold=4714.4166666666679 4680.0000000000009 6721.5000000000009 1629.5000000000002 0.14679868317744113 0.028795786108750752 429.50000000000006 492.00000000000006 537.50000000000011 365.50000000000006
decision_type=2 2 2 2 2 2 2 2 2 2
left_child=1 2 3 5 7 -1 -7 9 -9 -4
right_child=-2 -3 4 -5 -6 6 -8 8 -10 -11
leaf_value=3.8613343855264497 6.0419104982220944 -13.664541820681992 0.19353720607489872 -15.060953495796241 13.23012182529054 -5.1772809712561667 3.8772683428178758 7.8707590416327236 -0.037480988230286838 -5.4809328381672913
leaf_weight=82 64 48 230 55 47 61 48 48 94 51
leaf_count=82 64 48 230 55 47 61 48 48 94 51
internal_value=-0.180639 -0.7019 0.167104 -2.60743 1.61931 0.978661 -1.18996 0.329218 2.63573 -0.836349
internal_weight=828 764 716 246 470 191 109 423 142 281
internal_count=828 764 716 246 470 191 109 423 142 281
is_linear=0
shrinkage=0.207129


Tree=76
num_leaves=8
num_cat=0
split_feature=0 6 6 0 6 0 7
split_gain=65638.6 188717 144761 259773 31346 61899.8 36152.9
threshold=5287.5000000000009 14340.000000000002 3017.0000000000005 1048.5000000000002 1455.5000000000002 445.50000000000006 262.25000000000006
decision_type=2 2 2 2 2 2 2
left_child=1 2 3 4 6 -6 -1
right_child=-2 -3 -4 -5 5 -7 -8
leaf_value=0.57266431516126137 7.2099822357111218 -13.328629064607227 8.6455351681549661 -14.840575572617942 8.9666407243230122 0.010541109542017276 -3.8256918014919301
leaf_weight=350 49 47 78 52 50 98 104
leaf_count=350 49 47 78 52 50 98 104
internal_value=-0.143223 -0.605749 0.211158 -0.794777 0.418481 3.03625 -0.434889
internal_weight=828 779 732 654 602 148 454
internal_count=828 779 732 654 602 148 454
is_linear=0
shrinkage=0.207129


Tree=77
num_leaves=9
num_cat=0
split_feature=6 0 7 6 7 5 7 0
split_gain=356619 208384 169659 48902.4 84832.6 18387.3 21945.6 20267.2
threshold=13436.000000000002 1160.0000000000002 4873.8333333333348 3044.5000000000005 568.75000000000011 100.50000000000001 126.41666666666667 258.50000000000006
decision_type=2 2 2 2 2 2 2 2
left_child=1 3 -2 4 5 7 -7 -1
right_child=2 -3 -4 -5 -6 6 -8 -9
leaf_value=-5.4772836166812926 20.908146149268454 -13.875697355691168 3.5600583480136772 -6.1346086663724355 9.0016653300772109 1.8996051645957335 -0.86475056849865306 0.54706370190321874
leaf_weight=50 51 48 46 48 49 251 242 46
leaf_count=50 51 48 46 48 49 251 242 46
internal_value=0.877854 -0.681991 12.6812 0.241184 0.720868 0.0319728 0.54266 -2.59062
internal_weight=831 734 97 686 638 589 493 96
internal_count=831 734 97 686 638 589 493 96
is_linear=0
shrinkage=0.207129


Tree=78
num_leaves=10
num_cat=0
split_feature=6 1 6 9 6 3 9 9 0
split_gain=226925 117964 294650 183309 153564 54621.9 112994 111909 28068.7
threshold=15023.500000000002 7694.5000000000009 3292.0000000000005 0.11727650652801366 2913.0000000000005 7325.6666666666679 0.14391877546527043 0.048077721930950008 492.00000000000006
decision_type=2 2 2 2 2 2 2 2 2
left_child=1 2 4 8 5 6 -1 -7 -3
right_child=-2 3 -4 -5 -6 7 -8 -9 -10
leaf_value=1.1364172344139971 14.223696354026213 -3.1161070612838873 16.789899587655313 -16.103097737067319 -11.323742986204978 -1.4767832177767009 -9.6569984214762794 12.748445651643024 3.1976041792605336
leaf_weight=363 50 88 48 46 48 49 47 46 46
leaf_count=363 50 88 48 46 48 49 47 46 46
internal_value=0.696025 -0.170023 1.2231 -4.8215 -0.128089 0.936053 -0.100877 5.41122 -0.948714
internal_weight=831 781 601 180 553 505 410 95 134
internal_count=831 781 601 180 553 505 410 95 134
is_linear=0
shrinkage=0.207129


Tree=79
num_leaves=7
num_cat=0
split_feature=6 5 9 7 1 2
split_gain=142655 118531 110782 70383.9 48419.3 32783.3
threshold=15023.500000000002 4468.0000000000009 0.1870465842006209 986.41666666666686 6094.0000000000009 18962.500000000004
decision_type=2 2 2 2 2 2
left_child=1 2 3 4 -1 -6
right_child=-2 -3 -4 -5 5 -7
leaf_value=6.5428587414274251 11.277551052777573 -9.9973560829318657 9.5543598872885411 -7.3676865556695388 -4.9253503478966794 0.39327192491507862
leaf_weight=51 50 49 54 54 55 518
leaf_count=51 50 49 54 54 55 518
internal_value=0.551858 -0.134806 0.525392 -0.19373 0.427094 -0.117242
internal_weight=831 781 732 678 624 573
internal_count=831 781 732 678 624 573
is_linear=0
shrinkage=0.207129


Tree=80
num_leaves=9
num_cat=0
split_feature=0 1 0 0 1 2 3 0
split_gain=129833 148252 283665 174843 22787.5 30164.3 38090.4 28003.6
threshold=5287.5000000000009 6364.0000000000009 1197.5000000000002 617.50000000000011 6569.5000000000009 20902.500000000004 7010.5833333333339 284.50000000000006
decision_type=2 2 2 2 2 2 2 2
left_child=1 3 4 -1 -3 7 -7 -6
right_child=-2 2 -4 -5 5 6 -8 -9
leaf_value=0.46679677134295849 10.669879326458243 -3.9697478672223991 -13.739611329804246 16.456722755805682 -0.80188449161637543 -4.8181885605245531 0.47347363218116673 4.8474821847221978
leaf_weight=81 50 55 72 46 59 73 291 104
leaf_count=81 50 55 72 46 59 73 291 104
internal_value=0.437552 -0.217527 -1.47509 6.25842 0.0421716 0.460873 -0.587766 2.80262
internal_weight=831 781 654 127 582 527 364 163
internal_count=831 781 654 127 582 527 364 163
is_linear=0
shrinkage=0.207129


Tree=81
num_leaves=10
num_cat=0
split_feature=6 7 0 7 3 0 7 7 0
split_gain=120945 122253 101773 23783.6 12465.2 27169.9 16822.2 35826.6 26679.5
threshold=13436.000000000002 4873.8333333333348 1160.0000000000002 568.75000000000011 4992.5833333333348 390.50000000000006 253.25000000000003 408.75000000000006 562.50000000000011
decision_type=2 2 2 2 2 2 2 2 2
left_child=2 -2 3 4 5 -1 8 -8 -6
right_child=1 -3 -4 -5 6 -7 7 -9 -10
leaf_value=0.89231200297626867 14.204349406806813 -0.52196099885137226 -9.7818923179899144 3.2838521695619831 -0.16288231301526415 -5.9707903616294109 -6.2446310255572159 0.41647184471661614 4.1421738846183507
leaf_weight=50 51 46 48 87 260 49 51 108 81
leaf_count=50 51 46 48 87 260 49 51 108 81
internal_value=0.346922 7.22074 -0.561471 0.0836902 -0.381108 -2.50458 0.0393389 -1.72011 0.859726
internal_weight=831 97 734 686 599 99 500 159 341
internal_count=831 97 734 686 599 99 500 159 341
is_linear=0
shrinkage=0.207129


Tree=82
num_leaves=10
num_cat=0
split_feature=6 1 0 5 1 0 0 2 5
split_gain=81701.1 71721.8 250949 114502 113005 375748 96899.4 28046.6 27914.9
threshold=15023.500000000002 7694.5000000000009 4380.0000000000009 971.50000000000011 6364.0000000000009 1029.5000000000002 486.00000000000006 22603.500000000004 438.50000000000006
decision_type=2 2 2 2 2 2 2 2 2
left_child=1 2 4 8 6 7 -1 -6 -3
right_child=-2 3 -4 -5 5 -7 -8 -9 -10
leaf_value=0.11674412207084012 8.3920667409775636 1.4591206714969136 15.37294286437832 -12.787861752965734 -0.4605810508418054 -19.42341841655389 12.098505043920108 4.9860838540723211 -4.7482110917548557
leaf_weight=67 50 85 47 46 343 47 51 46 49
leaf_count=67 50 85 47 46 343 47 51 46 49
internal_value=0.275064 -0.24459 0.841687 -3.87155 -0.391109 -1.93009 5.2953 0.183498 -0.810725
internal_weight=831 781 601 180 554 436 118 389 134
internal_count=831 781 601 180 554 436 118 389 134
is_linear=0
shrinkage=0.207129


Tree=83
num_leaves=7
num_cat=0
split_feature=0 0 7 7 0 0
split_gain=58356.7 142020 114076 91042.8 42311.3 15507.3
threshold=5287.5000000000009 4315.5000000000009 994.25000000000011 535.41666666666686 973.00000000000011 659.50000000000011
decision_type=2 2 2 2 2 2
left_child=1 2 3 4 5 -1
right_child=-2 -3 -4 -5 -6 -7
leaf_value=0.35517165906897302 7.0781386904450923 -9.903479119814973 8.5935193211981371 -8.491324016695863 6.2974442600131573 -3.0074679119903958
leaf_weight=483 50 60 69 53 49 67
leaf_count=483 50 60 69 53 49 67
internal_value=0.21809 -0.221093 0.584653 -0.262911 0.465146 -0.054459
internal_weight=831 781 721 652 599 550
internal_count=831 781 721 652 599 550
is_linear=0
shrinkage=0.207129


Tree=84
num_leaves=13
num_cat=0
split_feature=6 7 1 1 0 10 8 1 0 3 1 3
split_gain=153538 157943 60366.4 103671 263890 60907.1 112925 82521.5 81004.2 55754.1 34680.9 33228.1
threshold=13992.500000000002 994.25000000000011 7119.0000000000009 6549.0000000000009 608.50000000000011 1.0000000180025095e-35 -1.0000000180025095e-35 7788.0000000000009 636.50000000000011 6613.5000000000009 5850.5000000000009 6827.666666666667
decision_type=2 2 2 2 2 2 2 2 2 2 2 2
left_child=1 2 3 9 11 6 -4 -7 -8 10 -1 -5
right_child=-2 -3 5 4 -6 7 8 -9 -10 -11 -12 -13
leaf_value=-0.10986653169073499 -9.2401339704572312 9.9162956847781967 -3.8830471249960605 3.0068753863507336 -18.763254281571161 1.9394561882153343 2.4587084166052104 -9.475085258364393 12.337770448027429 -4.7374502316197793 7.2271674257617224 -4.0286775564123669
leaf_weight=59 90 61 74 48 53 61 101 49 55 55 52 72
leaf_count=59 90 61 74 48 53 61 101 49 55 55 52 72
internal_value=-1.1621 -0.17964 -1.08664 -3.04253 -6.59068 0.863497 2.7807 -3.1452 5.94171 0.655246 3.3273 -1.21446
internal_weight=830 740 679 339 173 340 230 110 156 166 111 120
internal_count=830 740 679 339 173 340 230 110 156 166 111 120
is_linear=0
shrinkage=0.207129


Tree=85
num_leaves=14
num_cat=0
split_feature=2 0 9 2 3 2 3 1 7 0 8 5 1
split_gain=99751 267995 166063 62026.3 79196.1 49046.6 47188.7 61054.8 60797 46642.3 40859.8 27975.6 23389.5
threshold=21071.500000000004 1197.5000000000002 0.61300371449373425 23404.000000000004 7753.0000000000009 22833.500000000004 7030.2500000000009 6700.0000000000009 99.916666666666671 790.00000000000011 1.0000000180025095e-35 265.50000000000006 6991.0000000000009
decision_type=2 2 2 2 2 2 2 2 2 2 2 2 2
left_child=1 6 3 5 -5 9 7 8 11 10 -2 -1 -9
right_child=2 -3 -4 4 -6 -7 -8 12 -10 -11 -12 -13 -14
leaf_value=-9.2458216219939739 -6.1636654748693944 -15.920306192857796 12.002588114143112 10.136284168486496 -0.75595530525311783 -7.6947111547294726 -6.8725956517497231 6.7557931445815855 1.9493942738388874 4.1203729805600098 0.81445742918178043 -2.3155882350413606 0.60923346638050935
leaf_weight=49 72 61 54 48 71 53 50 58 80 62 72 51 49
leaf_count=49 72 61 54 48 71 53 50 58 80 62 72 51 49
internal_value=-0.921397 -3.28711 1.25812 -0.276801 3.63755 -2.07529 -1.00039 0.0226471 -2.3066 -0.629514 -2.6746 -5.7114 3.94101
internal_weight=830 398 432 378 119 259 337 287 180 206 144 100 107
internal_count=830 398 432 378 119 259 337 287 180 206 144 100 107
is_linear=0
shrinkage=0.207129


Tree=86
num_leaves=9
num_cat=0
split_feature=6 0 2 9 0 10 5 8
split_gain=97584.5 115305 54268.7 64816.5 179145 71169.2 29442.2 14047.5
threshold=13992.500000000002 4190.5000000000009 23217.000000000004 0.12283148832915361 659.50000000000011 1.0000000180025095e-35 570.50000000000011 -1.0000000180025095e-35
decision_type=2 2 2 2 2 2 2 2
left_child=1 2 3 4 6 -5 -1 -4
right_child=-2 -3 7 5 -6 -7 -8 -9
leaf_value=-0.45284602130117768 -7.1705744659557933 9.8697572738365142 1.0888451269963562 8.5668591793035525 -13.931039995885115 -1.4892658047631127 -5.975052209354609 5.5911655356542216
leaf_weight=349 90 48 58 52 53 72 47 61
leaf_count=349 90 48 58 52 53 72 47 61
internal_value=-0.730549 0.0526975 -0.628255 -1.46416 -2.62186 2.72782 -1.10826 3.39676
internal_weight=830 740 692 573 449 124 396 119
internal_count=830 740 692 573 449 124 396 119
is_linear=0
shrinkage=0.207129


Tree=87
num_leaves=7
num_cat=0
split_feature=0 5 0 6 6 0
split_gain=78971.2 326535 202587 57635.9 135388 39373.5
threshold=5311.5000000000009 4753.5000000000009 1164.5000000000002 3044.5000000000005 2684.5000000000005 752.50000000000011
decision_type=2 2 2 2 2 2
left_child=1 2 3 4 5 -1
right_child=-2 -3 -4 -5 -6 -7
leaf_value=-0.16859150733766018 -8.5591620662814165 15.628285220720585 -14.216504490664894 -7.0611672470733744 10.161548697459818 -6.3651627841298186
leaf_weight=527 50 53 48 50 54 48
leaf_count=527 50 53 48 50 54 48
internal_value=-0.579231 -0.0676966 -1.21197 -0.292651 0.245386 -0.685871
internal_weight=830 780 727 679 629 575
internal_count=830 780 727 679 629 575
is_linear=0
shrinkage=0.207129


Tree=88
num_leaves=8
num_cat=0
split_feature=6 9 6 7 3 9 2
split_gain=78046.1 151264 82199.6 47312.9 30783.2 56079.8 29051.4
threshold=14442.000000000002 0.59313307059139675 2913.0000000000005 547.25000000000011 5453.5000000000009 0.090568770447110106 10274.500000000002
decision_type=2 2 2 2 2 2 2
left_child=1 2 3 4 6 -6 -1
right_child=-2 -3 -4 -5 5 -7 -8
leaf_value=-0.44456316533551149 -6.9762383531185383 11.671397346689348 -6.5103089037486939 6.6451007702015126 -0.030974149080306691 -6.3513539157823109 6.2887802799517445
leaf_weight=56 72 46 88 46 397 71 54
leaf_count=56 72 46 88 46 397 71 54
internal_value=-0.459255 0.159772 -0.583956 0.251811 -0.256997 -0.989835 2.8609
internal_weight=830 758 712 624 578 468 110
internal_count=830 758 712 624 578 468 110
is_linear=0
shrinkage=0.207129


Tree=89
num_leaves=8
num_cat=0
split_feature=9 3 6 5 0 2 0
split_gain=70979.4 209899 96619.2 59911.7 45402 25514.5 26708.2
threshold=0.57766342383549119 7113.3333333333348 2921.5000000000005 829.50000000000011 636.50000000000011 23652.000000000004 321.50000000000006
decision_type=2 2 2 2 2 2 2
left_child=2 -2 3 4 5 6 -1
right_child=1 -3 -4 -5 -6 -7 -8
leaf_value=0.16489585834326886 -14.53304460738763 3.2672288097737958 6.7865657759761833 -7.1017936029838333 4.4148236494362028 3.3608549956417209 -3.1606633665808803
leaf_weight=246 54 60 89 54 89 59 179
leaf_count=246 54 60 89 54 89 59 179
internal_value=-0.36413 -5.16448 0.400172 -0.50635 0.11521 -0.675421 -1.23575
internal_weight=830 114 716 627 573 484 425
internal_count=830 114 716 627 573 484 425
is_linear=0
shrinkage=0.207129


Tree=90
num_leaves=9
num_cat=0
split_feature=3 0 5 2 3 0 6 3
split_gain=61565.7 140349 60950.6 40233.9 161503 63064.9 56795.2 42813.8
threshold=8039.9166666666679 4885.0000000000009 4300.0000000000009 20050.000000000004 6661.3333333333348 862.50000000000011 750.00000000000011 6900.3333333333348
decision_type=2 2 2 2 2 2 2 2
left_child=1 2 3 5 -5 6 -1 -6
right_child=-2 -3 -4 4 7 -7 -8 -9
leaf_value=3.6197516381596504 -7.3345711225712513 8.8755765073035118 -7.7709650741601219 -12.839145072076432 5.2633664058202925 8.8746068553077961 -3.7099072270983089 -0.88963191647924833
leaf_weight=100 50 72 49 47 57 46 83 326
leaf_count=100 50 72 49 47 57 46 83 326
internal_value=-0.288708 0.16295 -0.72308 -0.199034 -1.38011 2.01871 0.295371 0.0260885
internal_weight=830 780 708 659 430 229 183 383
internal_count=830 780 708 659 430 229 183 383
is_linear=0
shrinkage=0.207129


Tree=91
num_leaves=11
num_cat=0
split_feature=7 7 1 0 9 2 5 6 3 2
split_gain=138111 222662 78169.2 260014 103446 42706.5 37080.5 38966.9 30258.7 13733.4
threshold=4895.166666666667 1043.3333333333337 6700.0000000000009 1103.5000000000002 0.17448179158636618 20973.000000000004 169.50000000000003 801.00000000000011 6952.5000000000009 20329.500000000004
decision_type=2 2 2 2 2 2 2 2 2 2
left_child=1 2 4 5 6 9 -1 -8 -7 -4
right_child=-2 -3 3 -5 -6 8 7 -9 -10 -11
leaf_value=-3.400496630101701 11.930622715489861 -13.383935909741078 2.362842384778113 16.281407201160167 -10.042410699423307 -4.6778695153539687 7.2385115403591564 -0.16129978223655 0.92172730984751106 7.0857003980511131
leaf_weight=66 49 46 50 56 49 49 49 81 267 56
leaf_count=66 49 46 50 56 49 49 49 81 267 56
internal_value=1.2685 0.589123 1.47814 3.02005 -1.53016 1.26025 0.597903 2.62786 0.0534354 4.85794
internal_weight=818 769 723 478 245 422 196 130 316 106
internal_count=818 769 723 478 245 422 196 130 316 106
is_linear=0
shrinkage=0.207129


Tree=92
num_leaves=7
num_cat=0
split_feature=9 0 6 6 0 2
split_gain=116912 160679 28807.6 51038.5 21296.1 31039.6
threshold=0.72017429500950547 1173.0000000000002 3044.5000000000005 2792.5000000000005 752.50000000000011 22137.500000000004
decision_type=2 2 2 2 2 2
left_child=1 2 3 4 5 -1
right_child=-2 -3 -4 -5 -6 -7
leaf_value=2.0061384626865419 -8.2172957819705594 10.159746756636302 -4.3981749126638752 7.5374808256815333 -3.2537609384561201 -1.3582355038533236
leaf_weight=347 55 85 46 47 60 178
leaf_count=347 55 85 46 47 60 178
internal_value=1.00576 1.67059 0.606319 0.97057 0.442972 0.865455
internal_weight=818 763 678 632 585 525
internal_count=818 763 678 632 585 525
is_linear=0
shrinkage=0.207129


Tree=93
num_leaves=7
num_cat=0
split_feature=7 6 0 3 0 7
split_gain=89381.3 181146 71057.1 22698.4 36897.2 28671.3
threshold=4895.166666666667 13705.000000000002 1164.5000000000002 7869.416666666667 973.00000000000011 388.58333333333337
decision_type=2 2 2 2 2 2
left_child=1 2 3 4 5 -1
right_child=-2 -3 -4 -5 -6 -7
leaf_value=-0.24756390346258425 9.3747945436803484 -12.208959977401848 8.8491657904845571 4.1993320811970927 -4.4971941892355662 3.1036329789210013
leaf_weight=392 49 47 47 65 66 152
leaf_count=392 49 47 47 65 66 152
internal_value=0.797437 0.250895 1.06199 0.519776 0.127692 0.6888
internal_weight=818 769 722 675 610 544
internal_count=818 769 722 675 610 544
is_linear=0
shrinkage=0.207129


Tree=94
num_leaves=7
num_cat=0
split_feature=0 0 5 0 9 1
split_gain=80147.6 122716 58538.7 55430.5 19063.3 18255
threshold=5096.5000000000009 4380.0000000000009 1117.5000000000002 1048.5000000000002 0.14029507711317621 6252.5000000000009
decision_type=2 2 2 2 2 2
left_child=1 2 3 4 5 -1
right_child=-2 -3 -4 -5 -6 -7
leaf_value=-3.5771778758580357 -6.7894303717534816 11.56810957505645 -6.161179331096247 7.6872173759437095 4.2688201576977205 0.53357362753947746
leaf_weight=51 58 46 52 50 53 508
leaf_count=51 58 46 52 50 53 508
internal_value=0.632265 1.19866 0.530597 1.05624 0.514488 0.158532
internal_weight=818 760 714 662 612 559
internal_count=818 760 714 662 612 559
is_linear=0
shrinkage=0.207129


Tree=95
num_leaves=8
num_cat=0
split_feature=9 0 5 6 6 0 0
split_gain=80854.4 98711.3 18353.9 18278.9 25564.8 19581.9 5336
threshold=0.72017429500950547 1173.0000000000002 100.50000000000001 3044.5000000000005 2684.5000000000005 330.50000000000006 265.50000000000006
decision_type=2 2 2 2 2 2 2
left_child=1 2 6 4 5 -4 -1
right_child=-2 -3 3 -5 -6 -7 -8
leaf_value=-3.9857761487185681 -7.1687390111793938 7.7079652964443497 1.8984127564142916 -3.307655113577153 5.101539954667671 -0.75449722641253703 -0.88091702602659638
leaf_weight=48 55 85 226 46 58 253 47
leaf_count=48 55 85 226 46 58 253 47
internal_value=0.501304 1.05419 0.220015 0.655044 0.994493 0.497189 -2.44969
internal_weight=818 763 678 583 537 479 95
internal_count=818 763 678 583 537 479 95
is_linear=0
shrinkage=0.207129


Tree=96
num_leaves=8
num_cat=0
split_feature=4 6 5 0 9 3 1
split_gain=72058.9 152182 101845 125414 26272 39008.6 17885.1
threshold=1.0000000180025095e-35 15193.000000000002 4300.0000000000009 1103.5000000000002 0.08152695357434156 6739.166666666667 8084.0000000000009
decision_type=2 2 2 2 2 2 2
left_child=1 2 3 4 6 -6 -1
right_child=-2 -3 -4 -5 5 -7 -8
leaf_value=-0.20656940732170836 -6.3910330226487693 12.499693708596412 -8.1112946005538245 11.25276334960137 6.724456561355022 0.16102285082271553 -4.1199674432929356
leaf_weight=368 62 46 58 47 57 122 58
leaf_count=368 62 46 58 47 57 122 58
internal_value=0.397469 0.954198 0.20618 0.946078 0.145394 2.25105 -0.739379
internal_weight=818 756 710 652 605 179 426
internal_count=818 756 710 652 605 179 426
is_linear=0
shrinkage=0.207129


Tree=97
num_leaves=8
num_cat=0
split_feature=1 6 5 0 0 1 0
split_gain=75878.6 151010 84045.4 51066.5 21415.7 36560.9 18406
threshold=5951.5000000000009 15193.000000000002 4141.0000000000009 1073.5000000000002 201.50000000000003 7235.0000000000009 270.00000000000006
decision_type=2 2 2 2 2 2 2
left_child=-1 2 3 4 5 -2 -6
right_child=1 -3 -4 -5 6 -7 -8
leaf_value=-5.8294529392508565 6.1642821817481481 12.324585350200755 -6.7801425651295846 7.3581586086761819 -3.6500621018335209 -0.60759593994778915 0.22664377547244385
leaf_weight=78 66 47 67 49 61 71 379
leaf_count=78 66 47 67 49 61 71 379
internal_value=0.315142 0.962815 0.192248 0.938494 0.393323 2.65477 -0.310809
internal_weight=818 740 693 626 577 137 440
internal_count=818 740 693 626 577 137 440
is_linear=0
shrinkage=0.207129


Tree=98
num_leaves=10
num_cat=0
split_feature=0 9 0 3 0 5 1 6 7
split_gain=183128 213347 206127 20230.1 34346.2 32702.9 28596.6 14875.5 12135.6
threshold=5096.5000000000009 0.59313307059139675 1103.5000000000002 7414.3333333333348 183.00000000000003 246.00000000000003 7788.0000000000009 969.50000000000011 107.83333333333333
decision_type=2 2 2 2 2 2 2 2 2
left_child=1 2 3 4 8 -5 -7 -6 -1
right_child=-2 -3 -4 5 7 6 -8 -9 -10
leaf_value=-6.6198640350047908 -11.642226113368251 11.51128535660991 -14.383458217528364 -2.5153619270118597 -1.1571888867213038 6.9265292625962882 0.65575271737482288 1.4017864378900622 -2.0608381658354862
leaf_weight=46 62 64 46 52 191 60 65 199 55
leaf_count=46 62 64 46 52 191 60 65 199 55
internal_value=-0.808625 0.0547206 -0.972198 -0.0486685 -0.73305 1.84981 3.66573 0.148545 -4.13723
internal_weight=840 778 714 668 491 177 125 390 101
internal_count=840 778 714 668 491 177 125 390 101
is_linear=0
shrinkage=0.207129


Tree=99
num_leaves=9
num_cat=0
split_feature=0 9 6 0 2 5 7 0
split_gain=115122 134119 131892 31092.9 26365.6 19828.1 41493.2 23702.2
threshold=5096.5000000000009 0.59313307059139675 2913.0000000000005 617.50000000000011 20851.500000000004 468.50000000000006 394.50000000000006 438.50000000000006
decision_type=2 2 2 2 2 2 2 2
left_child=1 2 3 5 -5 6 -1 -7
right_child=-2 -3 -4 4 -6 7 -8 -9
leaf_value=-0.7377129690781673 -9.2307791379958033 9.1269598747921759 -8.6958785081295282 5.736749560734653 0.20303420663021596 0.050399001500915079 5.6028963338598494 -6.3597829011479146
leaf_weight=336 62 64 80 71 77 49 51 50
leaf_count=336 62 64 80 71 77 49 51 50
internal_value=-0.641135 0.0433863 -0.770828 0.229179 2.85772 -0.571283 0.0978712 -3.18707
internal_weight=840 778 714 634 148 486 387 99
internal_count=840 778 714 634 148 486 387 99
is_linear=0
shrinkage=0.207129


end of trees

feature_importances:
total_spent=228
total_spent_in_category_last_3_months=111
average_spent_in_category_last_6_months=94
total_spent_in_category_last_month=91
average_spent_in_sheet_last_6_months=85
category_spent_percentage_last_month=75
total_spent_in_sheet_last_month=72
total_spent_in_sheet_last_3_months=61
category_spending_trend=11
category_spent_percentage_trend=11
sheet_spending_trend=5

parameters:
[boosting: gbdt]
[objective: regression]
[metric: l2]
[tree_learner: serial]
[device_type: cpu]
[data_sample_strategy: bagging]
[data: ]
[valid: ]
[num_iterations: 100]
[learning_rate: 0.207129]
[num_leaves: 15]
[num_threads: 10]
[seed: 0]
[deterministic: 0]
[force_col_wise: 0]
[force_row_wise: 0]
[histogram_pool_size: -1]
[max_depth: 6]
[min_data_in_leaf: 46]
[min_sum_hessian_in_leaf: 0.001]
[bagging_fraction: 0.899975]
[pos_bagging_fraction: 1]
[neg_bagging_fraction: 1]
[bagging_freq: 7]
[bagging_seed: 3]
[bagging_by_query: 0]
[feature_fraction: 0.978014]
[feature_fraction_bynode: 1]
[feature_fraction_seed: 2]
[extra_trees: 0]
[extra_seed: 6]
[early_stopping_round: 0]
[early_stopping_min_delta: 0]
[first_metric_only: 0]
[max_delta_step: 0]
[lambda_l1: 0]
[lambda_l2: 0]
[linear_lambda: 0]
[min_gain_to_split: 0]
[drop_rate: 0.1]
[max_drop: 50]
[skip_drop: 0.5]
[xgboost_dart_mode: 0]
[uniform_drop: 0]
[drop_seed: 4]
[top_rate: 0.2]
[other_rate: 0.1]
[min_data_per_group: 100]
[max_cat_threshold: 32]
[cat_l2: 10]
[cat_smooth: 10]
[max_cat_to_onehot: 4]
[top_k: 20]
[monotone_constraints: ]
[monotone_constraints_method: basic]
[monotone_penalty: 0]
[feature_contri: ]
[forcedsplits_filename: ]
[refit_decay_rate: 0.9]
[cegb_tradeoff: 1]
[cegb_penalty_split: 0]
[cegb_penalty_feature_lazy: ]
[cegb_penalty_feature_coupled: ]
[path_smooth: 0]
[interaction_constraints: ]
[verbosity: 1]
[saved_feature_importance_type: 0]
[use_quantized_grad: 0]
[num_grad_quant_bins: 4]
[quant_train_renew_leaf: 0]
[stochastic_rounding: 1]
[linear_tree: 0]
[max_bin: 255]
[max_bin_by_feature: ]
[min_data_in_bin: 3]
[bin_construct_sample_cnt: 200000]
[data_random_seed: 1]
[is_enable_sparse: 1]
[enable_bundle: 1]
[use_missing: 1]
[zero_as_missing: 0]
[feature_pre_filter: 1]
[pre_partition: 0]
[two_round: 0]
[header: 0]
[label_column: ]
[weight_column: ]
[group_column: ]
[ignore_column: ]
[categorical_feature: ]
[forcedbins_filename: ]
[precise_float_parser: 0]
[parser_config_file: ]
[objective_seed: 5]
[num_class: 1]
[is_unbalance: 0]
[scale_pos_weight: 1]
[sigmoid: 1]
[boost_from_average: 1]
[reg_sqrt: 0]
[alpha: 0.9]
[fair_c: 1]
[poisson_max_delta_step: 0.7]
[tweedie_variance_power: 1.5]
[lambdarank_truncation_level: 30]
[lambdarank_norm: 1]
[label_gain: ]
[lambdarank_position_bias_regularization: 0]
[eval_at: ]
[multi_error_top_k: 1]
[auc_mu_weights: ]
[num_machines: 1]
[local_listen_port: 12400]
[time_out: 120]
[machine_list_filename: ]
[machines: ]
[gpu_platform_id: -1]
[gpu_device_id: -1]
[gpu_use_dp: 0]
[num_gpu: 1]

end of parameters

pandas_categorical:[]
