tree
version=v4
num_class=1
num_tree_per_iteration=1
label_index=0
max_feature_idx=10
objective=regression
feature_names=total_spent total_spent_in_sheet_last_month total_spent_in_sheet_last_3_months average_spent_in_sheet_last_6_months sheet_spending_trend total_spent_in_category_last_month total_spent_in_category_last_3_months average_spent_in_category_last_6_months category_spending_trend category_spent_percentage_last_month category_spent_percentage_trend
feature_infos=[0:9965905] [0:14902919.316872103] [0:49386051.456215203] [0:11869500.571207624] [-1:1] [0:8358826.6489881966] [0:24817121.841906097] [0:9691460.1222268343] [-1:1] [0:79.989999999999995] [-1:1]
tree_sizes=3423 3553 3612 3652 3662 3606 3592 3649 3757 3631 3681 3702 3694 3656 3696 3680 3605 3658 3803 3696 3631 3617 3667 3723 3641 3765 3800 3624 3678 3702 3809 3759 3670 3678 3762 3774 3791 3679 3680 3752 3744 3748 3682 3745 3781 3672 3720 3739 3720 3667 3724 3644 3699 3818 3691 3650 3704 3728 3617 3669 3679 3811 3812 3713 3692 3654 3780 3689 3776 3790 3732 3723 3763 3757 3769 3739 3734 3763 3804 3831 3775 3812 3704 3652 3767 3758 3637 3731 3646 3658 3727 3782 3797 3789 3752 3825 3707 3736 3810 3847

Tree=0
num_leaves=39
num_cat=0
split_feature=9 9 1 1 1 2 7 7 1 1 9 2 1 1 2 9 7 7 8 7 2 7 7 9 9 2 1 10 1 1 7 7 7 1 1 9 9 1
split_gain=510.845 74.5367 44.7401 12.8796 1.30903 6.35293 0.967057 0.819411 0.787356 0.7326 0.698365 0.516253 0.400203 0.65166 0.490194 0.446721 0.338702 0.332851 0.27158 0.440709 0.222003 0.215484 0.320243 0.247038 0.212146 0.207577 0.342492 0.32289 0.240605 0.263589 0.230746 0.204307 0.166677 0.403536 0.316064 0.164123 0.235138 0.230847
threshold=0.17185845233084307 5.2500000000000009 1246580.566260014 3832.3100000000004 7306.6150000000007 22437.500000000004 300.10166666666674 2395.0200000000004 9132.260000000002 84771.795000000013 0.65202467705899381 5024.3950000000013 7231.8700000000008 7434.1300000000001 22917.330000000005 0.11070860276909621 711.8850000000001 367.16000000000003 1.0000000180025095e-35 59328.305 18859.145000000004 10117.440000000001 12274.030000000001 7.8600000000000003 0.11070860276909621 21474.500000000004 7231.8700000000008 -1.0000000180025095e-35 6185.7050000000008 6129.5800000000008 6371.2050000000008 531.30666666666673 1.0000000180025095e-35 6801.5900000000011 7273.4000000000005 12.995000000000003 12.055000000000001 13052.250000000002
decision_type=2 2 2 2 2 2 2 2 2 2 2 2 2 2 2 2 2 2 2 2 2 2 2 2 2 2 2 2 2 2 2 2 2 2 2 2 2 2
left_child=2 3 6 17 7 -6 11 10 -7 -10 -5 -1 15 -14 -15 -8 -3 -2 21 35 -9 25 -23 -24 32 28 -27 30 29 -18 -28 -16 -13 -34 -35 36 -20 -38
right_child=1 16 -4 4 5 8 12 20 9 -11 -12 24 13 14 31 -17 18 -19 19 -21 -22 22 23 -25 -26 26 27 -29 -30 -31 -32 -33 33 34 -36 -37 37 -39
leaf_value=0.91512253388779219 0.90147722554545084 1.043418902141817 0.99882082970002417 0.93755912813241704 1.0768816377211796 0.98064452957746584 0.89483375403293752 1.0093715215649108 1.0321887666548737 0.99962335739712038 0.98302699690989348 0.89146373414976277 0.93620346021161749 0.89450478460633043 0.90962763038680261 0.91384647235765548 1.040238649304414 0.93042697147698283 1.0392491429902142 1.0442650995028571 0.98780643652190858 1.0360994327265498 1.0334495688681344 1.0398918813982434 0.90452608129122947 1.0534697383309679 1.0485100597674391 1.0399107728603079 1.0371706441565509 1.0511146198479826 1.042353180557597 0.9287907622658228 0.88827262180562472 0.91577288678751612 0.89775315545639045 1.0379294490726396 1.0514888752596978 1.0329596637135976
leaf_weight=30 24 483 116 13.000000000000002 23 46 65 12.999999999999998 14.999999999999998 661 15.999999999999998 210 24 31 27 44 3307 12.999999999999998 376 273 46 625 131 3582 47 52 177 1073 576 48 479 21 58 31 62 3963 69 18
leaf_count=30 24 483 116 13 23 46 65 13 15 661 16 210 24 31 27 44 3307 13 376 273 46 625 131 3582 47 52 177 1073 576 48 479 21 58 31 62 3963 69 18
internal_value=1.03172 1.03725 0.915461 0.995771 0.999507 1.00149 0.900584 0.9827 0.999091 1.00035 0.962645 0.896674 0.908663 0.915176 0.908787 0.902509 1.03962 0.911649 1.0395 1.03858 0.992558 1.03993 1.03915 1.03966 0.895318 1.04051 1.04182 1.04147 1.03992 1.04039 1.04401 0.918012 0.894119 0.897811 0.90376 1.03823 1.04083 1.04766
internal_weight=16868 16102 766 870 833 745 650 88 722 676 29 438 212 103 79 109 15232 37 14749 4699 59 10050 4338 3713 408 5712 1781 1729 3931 3355 656 48 361 151 93 4426 463 87
internal_count=16868 16102 766 870 833 745 650 88 722 676 29 438 212 103 79 109 15232 37 14749 4699 59 10050 4338 3713 408 5712 1781 1729 3931 3355 656 48 361 151 93 4426 463 87
is_linear=0
shrinkage=1


Tree=1
num_leaves=39
num_cat=0
split_feature=7 1 2 0 7 2 0 1 2 1 5 1 1 8 7 0 2 0 1 0 7 1 1 5 0 1 7 0 2 7 5 4 0 7 5 4 2 5
split_gain=213.343 50.3668 36.0783 30.8494 28.1911 55.428 5.71494 43.6562 2.24887 9.58536 1.4175 0.416565 0.633415 0.339491 0.379789 0.305943 0.282089 0.25442 0.245075 0.243596 0.242084 0.228635 0.230666 0.228196 0.202773 3.37579 0.253702 0.230896 0.194353 0.187451 0.186366 0.177596 0.211524 0.172128 0.157318 0.187347 0.148873 0.147185
threshold=300.10166666666674 1583.825 4160548.2029401781 3905.5000000000005 585.55666666666673 6854.1150000000007 1234.5000000000002 1668.2500000000002 22437.500000000004 7306.6150000000007 102.50000000000001 7231.8700000000008 7434.1300000000001 1.0000000180025095e-35 59328.305 2289.5000000000005 22917.330000000005 583.00000000000011 898.98000000000013 783.50000000000011 1.0000000180025095e-35 6801.5900000000011 7273.4000000000005 639.50000000000011 5302.0000000000009 6185.7050000000008 6371.2050000000008 4898.5000000000009 23560.045000000002 631.55166666666685 674.66500000000008 1.0000000180025095e-35 498.50000000000006 888.20500000000015 456.01000000000005 -1.0000000180025095e-35 24008.085000000003 969.93500000000006
decision_type=2 2 2 2 2 2 2 2 2 2 2 2 2 2 2 2 2 2 2 2 2 2 2 2 2 2 2 2 2 2 2 2 2 2 2 2 2 2
left_child=1 10 4 19 5 18 7 29 9 -5 -1 17 -13 15 -15 23 -14 -7 31 20 -3 -22 -23 -8 25 27 -26 -17 -18 -6 34 -2 -33 -25 35 -31 -24 -9
right_child=2 3 -4 8 6 11 13 37 -10 -11 -12 12 16 14 -16 24 28 -19 -20 -21 21 22 36 33 26 -27 -28 -29 -30 30 -32 32 -34 -35 -36 -37 -38 -39
leaf_value=-0.026560282942644738 0.011121955240869424 -0.12117169657023968 -0.027380491682800597 -0.037948712331255477 0.014858921604067895 -0.11897314978422228 0.0035732222704700539 -0.097046161062977726 -0.044099673850498879 0.11345673684174375 0.01145825886228246 -0.074812790513936245 -0.12127676254414378 0.0051382242775321954 0.010732518901198732 0.0068907762904987244 -0.084716011763395577 -0.098577768263113208 -0.0068076994494245908 -0.10828585485043318 -0.12077909910944262 -0.098920046422833724 -0.11817020827154044 0.02308638065614432 0.0091015596235313641 -0.039432679229017532 0.0067354346040157682 0.0018261075802334136 -0.10738592646047118 0.014192993706039745 0.002560840507569999 0.01269990826490118 -0.0095386497032598997 0.010493213246215948 0.011403421906703704 0.0023999116546776387 -0.10109308257552341 -0.10907180333179722
leaf_weight=27 188 231 772 28 60 55 103 40 27 12.999999999999998 91 18 18 4320 274 1550 12.999999999999998 17 22 61 59 31 48 24 1140 35 6167 218 21 37 186 15.999999999999998 21 579 171 126 13.999999999999998 47
leaf_count=27 188 231 772 28 60 55 103 40 27 13 91 18 18 4320 274 1550 13 17 22 61 59 31 48 24 1140 35 6167 218 21 37 186 16 21 579 171 126 14 47
internal_value=0.000133783 -0.0830616 0.00336159 -0.102841 0.00489611 -0.0338337 0.00589537 -0.00729064 -0.0114458 0.0100579 0.0027591 -0.106376 -0.0983718 0.00650572 0.00547188 0.00698956 -0.106527 -0.114158 0.00787063 -0.116838 -0.1182 -0.113684 -0.109183 0.00991174 0.0067631 0.00537917 0.00710459 0.00626629 -0.098718 0.00714718 0.00625737 0.00930584 7.8024e-05 0.0109944 0.00831591 0.00507687 -0.114314 -0.103543
internal_weight=16868 630 16238 512 15466 389 15077 667 68 41 118 142 70 14410 4594 9816 52 72 247 444 383 152 93 706 9110 1803 7307 1768 34 580 520 225 37 603 334 163 62 87
internal_count=16868 630 16238 512 15466 389 15077 667 68 41 118 142 70 14410 4594 9816 52 72 247 444 383 152 93 706 9110 1803 7307 1768 34 580 520 225 37 603 334 163 62 87
is_linear=0
shrinkage=0.145712


Tree=2
num_leaves=39
num_cat=0
split_feature=9 9 0 0 6 9 0 6 0 5 0 6 6 5 5 1 6 0 0 1 6 1 1 8 1 5 8 6 1 6 0 5 6 0 6 1 0 1
split_gain=273.263 40.8228 25.722 9.35609 3.20485 1.85958 1.13575 0.656485 0.363599 0.28985 0.242091 0.22003 0.219775 0.45407 0.158369 0.505526 0.189507 0.180422 0.152294 0.136071 0.16707 0.164376 0.304954 0.16839 0.125569 0.125298 0.119188 0.185211 0.150755 0.362697 0.135424 0.217283 0.183583 0.227507 0.212313 0.182828 0.176355 0.190695
threshold=0.17185845233084307 5.2500000000000009 3905.5000000000005 1458.0000000000002 10374.010000000002 0.70417979122984786 10309.000000000002 1644.5650000000003 78978.000000000015 211.13000000000002 444.50000000000006 1265.3100000000002 866.00000000000011 313.89000000000004 969.93500000000006 7388.795000000001 1876.7550000000003 660.00000000000011 1025.5000000000002 6801.5900000000011 615.57000000000005 7678.1750000000011 7083.9850000000006 1.0000000180025095e-35 7231.8700000000008 143.50000000000003 1.0000000180025095e-35 177513.71000000002 1158.49 1265.3100000000002 583.00000000000011 292.27000000000004 2304.5650000000005 2289.5000000000005 4618.3150000000014 4117.9900000000007 1580.5000000000002 1668.2500000000002
decision_type=2 2 2 2 2 2 2 2 2 2 2 2 2 2 2 2 2 2 2 2 2 2 2 2 2 2 2 2 2 2 2 2 2 2 2 2 2 2
left_child=2 3 7 -2 5 -5 24 10 -8 -3 19 12 -12 -14 15 16 -9 -17 -18 -1 25 22 -22 -24 -6 -21 30 28 29 -28 31 -11 -32 36 35 -35 37 -34
right_child=1 9 -4 4 6 -7 8 14 -10 26 11 -13 13 -15 -16 17 18 -19 -20 20 21 -23 23 -25 -26 -27 27 -29 -30 -31 32 -33 33 34 -36 -37 -38 -39
leaf_value=-0.10513497107722132 -0.093632277051099763 0.013542147356824449 -0.024451788208601537 0.047292341290867901 -0.033873960099849096 -0.018645451859326628 -0.000386756787071324 -0.10392289615884942 -0.023328905275922553 0.0015935151280830231 -0.095318526465469733 -0.10145984272412548 -0.060612564762558351 -0.094181161373234498 -0.093523472336661195 -0.078697383207923355 -0.075791619088913353 -0.054858438616849962 -0.095935441636929866 -0.098176467885127475 -0.10673600877047058 -0.10261673598761421 -0.076847780763465726 -0.094021268904797603 -0.04351288827474261 -0.10751712067738542 -0.00041071524509723567 0.012495135240719336 0.0049481484552539911 0.011744605836662619 0.0028826298873938466 0.014318847681022812 0.0069019536457904556 0.0012543273950749354 0.0061298889911833429 0.01400559519911964 0.010670843835629534 -0.010462105239850278
leaf_weight=123 42 105 125 21 60 15.999999999999998 14.999999999999998 18 661 40 65 59 13.999999999999998 22 55 14.000000000000002 17 12.999999999999998 14.999999999999998 62 18 37 27 22 55 60 71 74 4477 196 368 99 329 292 8731 26 410 13.999999999999998
leaf_count=123 42 105 125 21 60 16 15 18 661 40 65 59 14 22 55 14 17 13 15 62 18 37 27 22 55 60 71 74 4477 196 368 99 329 292 8731 26 410 14
internal_value=0.000114289 0.00415939 -0.0849173 -0.0265398 -0.0231365 0.0187787 -0.0250972 -0.0967086 -0.0228198 0.00591282 -0.0990833 -0.09439 -0.0902601 -0.0811267 -0.0875516 -0.083286 -0.091962 -0.0672194 -0.085234 -0.101235 -0.0991124 -0.0948214 -0.0905165 -0.0845583 -0.0384839 -0.10277 0.00585987 0.00526158 0.00514874 0.00851229 0.00613948 0.0106569 0.00607774 0.00619769 0.00599519 0.00229688 0.00863123 0.00619322
internal_weight=16868 16102 766 870 828 37 791 641 676 15232 509 160 101 36 132 77 50 27 32 349 226 104 67 49 115 122 15127 4818 4744 267 10309 139 10170 9802 9049 318 753 343
internal_count=16868 16102 766 870 828 37 791 641 676 15232 509 160 101 36 132 77 50 27 32 349 226 104 67 49 115 122 15127 4818 4744 267 10309 139 10170 9802 9049 318 753 343
is_linear=0
shrinkage=0.145712


Tree=3
num_leaves=39
num_cat=0
split_feature=0 2 0 2 6 6 6 0 10 4 8 3 2 0 6 6 6 3 3 6 0 2 6 3 0 0 6 10 4 0 3 6 3 2 0 3 6 2
split_gain=89.5191 48.9229 19.3611 61.3249 21.0306 3.86015 2.43994 0.353579 0.28552 0.253041 0.236397 0.273758 0.546515 2.3141 0.701854 0.285216 0.208746 0.206526 0.20237 1.21654 0.17677 0.173266 0.330044 0.470984 0.172692 0.166038 0.229799 0.195341 0.217689 0.178925 2.23104 0.363 0.213511 0.22989 0.151027 0.143352 0.144569 0.136111
threshold=498.50000000000006 4751.4700000000003 1234.5000000000002 4751.4700000000003 522457.18491303775 615.57000000000005 380.50000000000006 258.00000000000006 1.0000000180025095e-35 -1.0000000180025095e-35 1.0000000180025095e-35 8528.7700000000023 19064.115000000002 5843.0000000000009 12594.625000000002 21877.150000000005 82407.785000000018 7943.4700000000012 1114.5900000000001 1367.5000000000002 10157.500000000002 20774.160000000003 615.57000000000005 6927.916666666667 18988.000000000004 2512.5000000000005 2407.3400000000006 -1.0000000180025095e-35 -1.0000000180025095e-35 5302.0000000000009 6431.6150000000007 12761.560000000001 6031.2250000000013 20404.780000000002 8170.5000000000009 7893.5900000000011 866.00000000000011 23474.175000000003
decision_type=2 2 2 2 2 2 2 2 2 2 2 2 2 2 2 2 2 2 2 2 2 2 2 2 2 2 2 2 2 2 2 2 2 2 2 2 2 2
left_child=1 6 3 5 10 -2 7 -1 9 -7 18 12 -12 14 -14 24 -17 -5 -4 -20 -15 -3 -23 -24 34 26 -21 28 -28 30 31 -27 -31 -34 -13 36 -25 -38
right_child=2 21 4 17 -6 8 -8 -9 -10 -11 11 15 13 20 -16 16 -18 -19 19 25 -22 22 23 35 -26 29 27 -29 -30 32 -32 -33 33 -35 -36 -37 37 -39
leaf_value=-0.018409745670003502 -0.075011493382426728 -0.088344597217932683 -0.01241828051018588 -0.079595649239961791 -0.020028256709699703 0.0076385639756403213 0.010513189628201648 -0.047161902453065535 0.0088824321155016768 0.0005112556623006122 0.0042432076979360082 0.013501272963264253 -0.003296227551198668 0.0015744827664224046 -0.03578537169037628 0.0030567335933553135 0.0067357603673388359 -0.064523986345379231 0.048035580102254831 0.0011212350703197476 0.014863376416275595 -0.088197273519803623 -0.055359190463270321 -0.091607941920388972 0.021602691992579304 0.0048783636881737664 0.01112515271960954 0.0097085742623623725 0.0018115835598405479 0.0081070146337178309 -0.028869159070617899 -0.0051877034337171031 0.001843078654536242 0.0051961145376265968 0.006316726326187563 -0.070236473088838167 -0.075463934690292472 -0.092349587485977422
leaf_weight=21 12.999999999999998 164 13.999999999999998 239 770 160 167 15.999999999999998 268 312 1485 70 20 626 48 1353 432 21 13.999999999999998 121 22 106 18 30 18 1546 77 477 173 493 44 80 466 6351 552 22 46 12.999999999999998
leaf_count=21 13 164 14 239 770 160 167 16 268 312 1485 70 20 626 48 1353 432 21 14 121 22 106 18 30 18 1546 77 477 173 493 44 80 466 6351 552 22 46 13
internal_value=9.7636e-05 -0.0550327 0.00214151 -0.0173656 0.00343712 0.00370123 0.00301229 -0.0308431 0.00508402 0.00292729 0.00468476 0.00382545 0.00264887 -0.000657824 -0.0262297 0.00489335 0.00394712 -0.0783783 0.00508809 0.00511299 0.00202565 -0.0847098 -0.0821732 -0.0772232 0.00753245 0.00505185 0.00700083 0.00797941 0.00468016 0.0048678 0.003507 0.00438311 0.00517868 0.00496691 0.00712528 -0.0807687 -0.0833722 -0.0791845
internal_weight=16868 603 16265 1013 15252 753 204 37 740 472 14482 4626 2201 716 68 2425 1785 260 9856 9842 648 399 235 129 640 9828 848 727 250 8980 1670 1626 7310 6817 622 111 89 59
internal_count=16868 603 16265 1013 15252 753 204 37 740 472 14482 4626 2201 716 68 2425 1785 260 9856 9842 648 399 235 129 640 9828 848 727 250 8980 1670 1626 7310 6817 622 111 89 59
is_linear=0
shrinkage=0.145712


Tree=4
num_leaves=39
num_cat=0
split_feature=9 9 0 0 9 5 5 2 0 5 5 9 1 1 1 2 1 1 2 2 0 0 1 2 0 0 5 5 9 1 5 8 9 0 0 2 9 0
split_gain=147.331 21.8397 14.057 4.20774 0.531683 0.422308 1.90429 3.48727 0.317221 0.308452 0.283506 0.21688 0.170014 0.167615 0.523152 0.143103 0.162823 0.139003 0.200675 0.261181 0.151872 0.119849 0.121335 0.231213 0.095383 0.166747 0.139061 0.163554 0.125293 0.0946912 0.0929832 0.0887264 0.136538 0.108767 0.170654 0.159505 0.0898191 0.0798864
threshold=0.17185845233084307 5.2500000000000009 3905.5000000000005 1458.0000000000002 0.11070860276909621 4781.5650000000014 5148.3300000000008 21891.600000000002 4353.5000000000009 5844.9700000000003 211.13000000000002 0.79124922526957298 7678.1750000000011 8182.7000000000016 7980.1650000000009 11496.930000000002 7836.755000000001 5875.5000000000009 21325.880000000001 21474.500000000004 117.00000000000001 1084.5000000000002 6882.9050000000016 19064.115000000002 75416.500000000015 71925.000000000015 33931.17500000001 55389.930000000008 71.625000000000014 79853.565000000017 102.50000000000001 1.0000000180025095e-35 74.140000000000015 583.00000000000011 444.50000000000006 3449.1600000000003 74.640000000000015 73887.500000000015
decision_type=2 2 2 2 2 2 2 2 2 2 2 2 2 2 2 2 2 2 2 2 2 2 2 2 2 2 2 2 2 2 2 2 2 2 2 2 2 2
left_child=2 3 4 -2 13 8 7 -7 -5 -8 30 -11 21 14 15 -1 17 -17 20 -20 -19 22 23 -6 25 29 -27 -28 -26 31 -3 -12 33 34 -33 -35 -34 -29
right_child=1 10 -4 5 12 6 9 -9 -10 11 24 -13 -14 -15 -16 16 -18 18 19 -21 -22 -23 -24 -25 28 26 27 37 -30 -31 -32 32 36 35 -36 -37 -38 -39
leaf_value=-0.080876521154961578 -0.06573667012937584 0.020525671816895515 -0.01707177900872749 -0.011229586262700196 -0.045450122065038089 -0.023881184808683877 -0.029584844516829599 0.076373210054661536 -0.035915215058809548 -0.017743915498053302 0.0045799322258313936 -0.0061218229047779902 -0.071590419873433092 -0.079468508089031664 -0.051052102900967025 -0.056115468343730796 -0.081181806823025476 -0.063946051339036566 -0.051559363267302469 -0.069272434121693857 -0.075477650179248804 -0.067594015275868724 -0.04974740134363121 -0.069250091754561802 -0.00089413413789944847 -0.0011162964583436516 0.017756877343643812 0.010658627771494227 0.010316840469215733 -0.0072465214769235359 0.0097227582398066031 0.0038584924377842852 -0.010767584987995418 0.0079517881845308034 -0.016546073647239944 0.0038737809578304168 0.0012272541059498204 -0.0010807216213767129
leaf_weight=35 40 21 129 14.999999999999998 12.999999999999998 17.000000000000004 45 12.999999999999998 42 643 10120 36 26 52 27 13.999999999999998 32 28 20 152 181 23 38 26 138 21 51 32 25 14.999999999999998 87 23 13.999999999999998 214 13.999999999999998 4208 249 20
leaf_count=35 40 21 129 15 13 17 45 13 42 643 10120 36 26 52 27 14 32 28 20 152 181 23 38 26 138 21 51 32 25 15 87 23 14 214 14 4208 249 20
internal_value=9.17101e-05 0.00311664 -0.0611023 -0.0196011 -0.069618 -0.0173256 -0.0164114 0.0195624 -0.029419 -0.017902 0.0043842 -0.0171277 -0.0610934 -0.0716034 -0.070767 -0.0719192 -0.071185 -0.0703751 -0.0708991 -0.0672128 -0.0739327 -0.0583642 -0.0556072 -0.0613168 0.00433115 0.00436929 0.00969049 0.0118938 0.00082534 0.00432488 0.0118233 0.00433657 0.00381501 0.0040053 -0.00386215 0.00407113 0.000588746 0.00614349
internal_weight=16899 16103 796 851 667 811 754 30 57 724 15252 679 126 541 489 462 427 395 381 172 209 100 77 39 15144 14981 124 103 163 14857 108 14842 4722 4459 37 4422 263 52
internal_count=16899 16103 796 851 667 811 754 30 57 724 15252 679 126 541 489 462 427 395 381 172 209 100 77 39 15144 14981 124 103 163 14857 108 14842 4722 4459 37 4422 263 52
is_linear=0
shrinkage=0.145712


Tree=5
num_leaves=39
num_cat=0
split_feature=9 9 1 5 9 5 5 2 1 5 5 5 1 2 1 1 1 9 9 9 9 10 5 9 9 1 5 5 1 1 5 10 9 9 1 1 1 1
split_gain=107.523 15.9388 9.57965 3.05346 0.331595 0.312568 1.38977 2.54504 0.230017 0.206905 0.201246 0.194771 0.148537 0.356403 0.13283 0.0862233 0.17285 0.117459 0.0795642 0.30407 0.18931 0.185702 0.131852 0.180654 0.198499 0.139523 0.130976 0.237869 0.205565 0.316856 0.234521 0.222653 0.176272 0.155425 0.149945 0.167477 0.136046 0.134615
threshold=0.17185845233084307 5.2500000000000009 1246580.566260014 1187.3750000000002 0.11070860276909621 4781.5650000000014 5148.3300000000008 21891.600000000002 10897.35 211.13000000000002 4118.0600000000004 14211.135000000002 8182.7000000000016 24008.085000000003 6254.2200000000012 7678.1750000000011 6882.9050000000016 0.13076792884880925 34.785000000000004 35.690000000000005 34.395000000000003 -1.0000000180025095e-35 426.97500000000008 67.345000000000013 50.400000000000013 966.81500000000017 45555.340000000004 35596.090000000004 18676.060000000001 26002.385000000006 15831.455000000002 1.0000000180025095e-35 14.990000000000002 24.155000000000005 49696.340000000004 54827.880000000012 18017.240000000002 74227.085000000021
decision_type=2 2 2 2 2 2 2 2 2 2 2 2 2 2 2 2 2 2 2 2 2 2 2 2 2 2 2 2 2 2 2 2 2 2 2 2 2 2
left_child=2 3 4 -2 12 10 7 -7 -8 -3 -5 -10 13 -1 -6 16 -16 -18 20 -20 26 -22 23 24 -21 -24 27 28 30 32 36 -31 -30 -28 -29 -36 -11 -37
right_child=1 9 -4 5 14 6 8 -9 11 18 -12 -13 -14 -15 15 -17 17 -19 19 22 21 -23 25 -25 -26 -27 33 34 29 31 -32 -33 -34 -35 35 37 -38 -39
leaf_value=-0.060542778786400332 -0.056046313007234602 0.010100521805974797 -0.014258994582208456 -0.012466312429998884 -0.03824286376245855 -0.020401403748189939 -0.024441893956671477 0.065244698612237056 0.0024501477675641244 0.0042162571637989789 -0.031092710705928658 -0.014919053298460839 -0.067888975243284647 -0.041572804012043836 -0.059704697803499081 -0.061158819765276769 -0.036411407774618168 -0.051107479471851514 -0.0033235280548100264 0.0013958487316812014 7.1093702371586909e-05 0.016835113452004401 -0.00053529351060158917 -0.00023280521750408491 0.012825037083591536 0.0035400362239902234 -0.0034401542603092745 -0.0018431316833336438 -0.0047378016274347316 0.0075498596144977868 0.016652605679012358 0.00081417787499215991 0.0012976471277651345 0.0053139337143326033 0.019778510047802931 0.0050012046416779855 0.01064772533642379 0.016438938570078932
leaf_weight=476 40 108 120 18 12.999999999999998 17.000000000000004 54 12.999999999999998 13.999999999999998 4246 39 656 52 22 34 26 17 36 139 45 20 47 182 53 114 8934 105 21 148 262 33 173 336 73 37 74 71 31
leaf_count=476 40 108 120 18 13 17 54 13 14 4246 39 656 52 22 34 26 17 36 139 45 20 47 182 53 114 8934 105 21 148 262 33 173 336 73 37 74 71 31
internal_value=7.83468e-05 0.00266251 -0.052199 -0.016745 -0.0589339 -0.0148065 -0.01402 0.0167119 -0.0152935 0.00374537 -0.0252107 -0.0145561 -0.0604785 -0.0597047 -0.0521913 -0.053796 -0.0515957 -0.0463936 0.00370004 0.00344141 0.00413135 0.0118309 0.00354222 0.00713457 0.00959036 0.00345867 0.00403939 0.00416684 0.00399724 0.00201712 0.00441558 0.00487107 -0.000547903 0.000150005 0.00964905 0.0113486 0.00432203 0.00837806
internal_weight=16899 16103 796 851 676 811 754 30 724 15252 57 670 550 498 126 113 87 53 15144 9467 5677 67 9328 212 159 9116 5610 5432 5269 919 4350 435 484 178 163 142 4317 105
internal_count=16899 16103 796 851 676 811 754 30 724 15252 57 670 550 498 126 113 87 53 15144 9467 5677 67 9328 212 159 9116 5610 5432 5269 919 4350 435 484 178 163 142 4317 105
is_linear=0
shrinkage=0.145712


Tree=6
num_leaves=39
num_cat=0
split_feature=9 9 0 0 7 6 5 6 3 7 3 9 7 0 7 0 6 0 5 7 9 5 3 6 7 6 3 6 9 3 5 7 3 0 7 7 7 9
split_gain=78.4712 11.6323 7.68551 2.26448 0.745378 0.740423 1.05441 0.344373 0.268001 0.313687 0.258803 0.23259 0.253344 0.204523 0.179395 0.177903 0.606186 0.173074 0.163885 0.15255 0.134057 0.126573 0.112508 0.0974056 0.0965497 0.207837 0.359046 0.256528 0.2392 0.24816 0.199615 0.18945 0.18731 0.175454 0.164441 0.153715 0.421221 0.292459
threshold=0.17185845233084307 5.2500000000000009 3905.5000000000005 1458.0000000000002 1.0000000180025095e-35 12761.560000000001 4781.5650000000014 15745.900000000001 7824.7250000000013 300.10166666666674 7372.5133333333342 0.11070860276909621 160.58333333333337 1025.5000000000002 300.10166666666674 381.50000000000006 1265.3100000000002 538.50000000000011 102.50000000000001 422.99000000000007 0.79124922526957298 1011.8500000000001 7519.2500000000009 1570.0000000000002 8560.9450000000015 32587.405000000002 9191.6600000000017 25092.555000000004 39.115000000000002 9857.9900000000034 12402.360000000002 5954.5350000000008 8373.9050000000007 8285.5000000000018 5879.9750000000013 24028.950000000004 21744.815000000006 79.740000000000023
decision_type=2 2 2 2 2 2 2 2 2 2 2 2 2 2 2 2 2 2 2 2 2 2 2 2 2 2 2 2 2 2 2 2 2 2 2 2 2 2
left_child=2 3 4 19 17 6 -5 -7 10 -10 11 12 -6 21 -12 -14 -17 -1 -3 -2 -9 -13 -16 -18 25 26 27 33 29 -28 34 -30 -29 -20 -31 36 37 -26
right_child=1 18 -4 5 8 7 -8 20 9 -11 14 13 15 -15 22 16 23 -19 24 -21 -22 -23 -24 -25 35 -27 28 32 31 30 -32 -33 -34 -35 -36 -37 -38 -39
leaf_value=-0.05921856440916843 -0.055886443402060539 0.01606306112321304 -0.012035983300766226 -0.020302815408915813 -0.035330745510132447 -0.022871177543841464 0.028013981574732741 -0.01308762045063378 -0.017747202223383125 -0.045192423074119963 -0.063495476652903088 -0.024989498182577612 -0.054329324150656493 -0.048648276825574648 -0.059283779537410153 -0.026909857492404911 -0.059591558615809455 -0.051704321798029175 0.0033601120678659622 -0.037683412247440908 -0.0041862239718922578 -0.042052214862959285 -0.044153565112139727 -0.046463598841223898 0.0026147231658393472 -0.0048614357095904297 0.010533621809444471 0.0012706650476689118 -0.0037406429912900034 0.0089498455790777576 0.018511572561348201 0.0098823248032723042 0.020097611009709162 -0.00064933298455554394 -0.0020462980131748547 0.0037608200933544065 -0.0027251195208617108 0.018416786879938439
leaf_weight=183 23 21 129 17 28 77 22 657 13.999999999999998 24 33 24 99 24 15.999999999999998 26 30 101 6727 17 38 14.999999999999998 30 20 4686 62 80 17 23 35 12.999999999999998 376 33 240 165 2424 325 25
leaf_count=183 23 21 129 17 28 77 22 657 14 24 33 24 99 24 16 26 30 101 6727 17 38 15 30 20 4686 62 80 17 23 35 13 376 33 240 165 2424 325 25
internal_value=6.69307e-05 0.00227455 -0.0445929 -0.014305 -0.0508896 -0.0126357 0.00695281 -0.0136253 -0.0466951 -0.035081 -0.0479743 -0.0457994 -0.0481997 -0.0380649 -0.0552974 -0.0502587 -0.0449563 -0.0565462 0.00319962 -0.0481502 -0.0126009 -0.0315521 -0.0494162 -0.0543404 0.00318188 0.00354133 0.00360891 0.00329663 0.00677553 0.00361415 0.00101529 0.00909704 0.0136964 0.00322199 -0.000121973 0.00280745 0.00234856 0.00269858
internal_weight=16899 16103 796 851 667 811 39 772 383 38 345 266 203 63 79 175 76 284 15252 40 695 39 46 50 15231 7771 7709 7017 692 293 213 399 50 6967 200 7460 5036 4711
internal_count=16899 16103 796 851 667 811 39 772 383 38 345 266 203 63 79 175 76 284 15252 40 695 39 46 50 15231 7771 7709 7017 692 293 213 399 50 6967 200 7460 5036 4711
is_linear=0
shrinkage=0.145712


Tree=7
num_leaves=39
num_cat=0
split_feature=9 9 2 5 5 1 10 5 5 2 5 5 5 9 2 1 1 3 2 1 9 3 1 1 2 3 9 9 5 5 9 5 5 5 9 9 9 3
split_gain=57.2689 8.48931 5.11021 1.63658 0.177563 0.196663 0.382421 0.164448 0.843566 1.69909 0.174084 0.149731 0.130432 0.101163 0.0990653 0.162803 0.615332 0.213045 0.215028 0.285749 0.211738 0.12525 0.159375 0.150581 0.0872125 0.0786642 0.0670419 0.142873 0.101598 0.0972156 0.0863905 0.215837 0.1308 0.176911 0.189984 0.157662 0.116166 0.145202
threshold=0.17185845233084307 5.2500000000000009 4160548.2029401781 1187.3750000000002 835.61500000000012 5810.6150000000007 1.0000000180025095e-35 4781.5650000000014 5148.3300000000008 21891.600000000002 5844.9700000000003 4171.2350000000015 211.13000000000002 0.79124922526957298 20404.780000000002 7434.1300000000001 7340.9700000000012 7591.0200000000013 24644.325000000004 7980.1650000000009 0.036656771528894509 6927.916666666667 7181.5300000000016 6987.4150000000009 21991.155000000002 4516.0050000000001 78.90000000000002 79.740000000000023 3956.4550000000004 10117.645000000002 72.77500000000002 53407.950000000004 46809.785000000011 35596.090000000004 65.325000000000003 25.075000000000003 71.895000000000024 3695.4050000000002
decision_type=2 2 2 2 2 2 2 2 2 2 2 2 2 2 2 2 2 2 2 2 2 2 2 2 2 2 2 2 2 2 2 2 2 2 2 2 2 2
left_child=2 3 4 25 5 6 -1 11 9 -9 24 -5 -3 -12 -7 16 21 -17 19 20 -19 22 23 -16 -10 -2 30 28 -28 -29 32 -32 33 36 35 -35 -14 -38
right_child=1 12 -4 7 -6 14 -8 8 10 -11 13 -13 26 -15 15 17 -18 18 -20 -21 -22 -23 -24 -25 -26 -27 27 29 -30 -31 31 -33 -34 34 -36 -37 37 -39
leaf_value=-0.048725862716818689 -0.031680771975504868 0.0077792310185478258 -0.010248123713832621 -0.0077864133624405713 -0.037573500623842938 -0.047606417115011082 -0.017818805034043469 -0.016612253135323565 -0.013999445005197498 0.053366827866223883 -0.011062271403310484 -0.023628826491599673 0.0026526382621217702 -0.0031247327052160568 -0.039385131475867995 -0.051767342520834841 -0.014715483298500445 -0.055591131189286651 -0.051686617114097916 -0.020037212291085012 -0.035355789584634756 -0.045679964506647477 -0.049533374774335316 -0.019875842408437813 -0.026857528241670543 -0.045477017646431334 0.0035993591948511676 0.00065647272142597371 -0.0046527048737874241 0.012926898073697088 0.0035714295134615182 0.01534148389808002 -5.2792924327088691e-05 0.0084555216062850228 0.013837263366635131 0.0020801656898298457 -0.015239193370821353 2.6969141427407036e-05
leaf_weight=17 12.999999999999998 108 119 19 108 170 17 17.000000000000004 24 12.999999999999998 643 38 12774 36 21 85 18 17 31 15.999999999999998 31 117 14.999999999999998 13.999999999999998 21 27 45 29 107 26 1222 34 376 132 53 219 14.999999999999998 112
leaf_count=17 13 108 119 19 108 170 17 17 24 13 643 38 12774 36 21 85 18 17 31 16 31 117 15 14 21 27 45 29 107 26 1222 34 376 132 53 219 15 112
internal_value=5.7178e-05 0.00194312 -0.0380952 -0.0122206 -0.04299 -0.0440181 -0.0332723 -0.0108015 -0.010231 0.013712 -0.0112231 -0.018348 0.0027334 -0.0106414 -0.044701 -0.0433479 -0.0403123 -0.0464677 -0.0417259 -0.0369012 -0.0425225 -0.0430713 -0.036967 -0.0315814 -0.0199999 -0.0409932 0.00269741 9.3086e-05 -0.00220966 0.00645704 0.0027335 0.00389005 0.00262733 0.00270307 0.00570559 0.00447774 0.00260904 -0.00177612
internal_weight=16899 16103 796 851 677 569 34 811 754 30 724 57 15252 679 535 365 185 180 95 64 48 167 50 35 45 40 15144 207 152 55 14937 1256 13681 13305 404 351 12901 127
internal_count=16899 16103 796 851 677 569 34 811 754 30 724 57 15252 679 535 365 185 180 95 64 48 167 50 35 45 40 15144 207 152 55 14937 1256 13681 13305 404 351 12901 127
is_linear=0
shrinkage=0.145712


Tree=8
num_leaves=39
num_cat=0
split_feature=9 9 0 0 7 1 0 0 7 7 7 1 3 3 1 7 1 1 3 0 3 9 0 0 0 0 9 9 1 0 4 7 7 0 1 0 7 0
split_gain=40.4313 6.39046 4.35267 1.56798 0.55192 0.43276 0.190986 0.886343 1.59827 0.576496 0.190795 0.226353 0.222146 0.277661 0.160726 0.147478 0.141678 0.346637 0.131814 0.126781 0.124532 0.199282 0.104985 0.102176 0.0971986 0.0905803 0.0899735 0.0852703 0.123873 0.0877672 0.0844219 0.129493 0.145023 0.0861846 0.0839295 0.0786181 0.0767469 0.0754647
threshold=0.17185845233084307 5.2500000000000009 3905.5000000000005 1458.0000000000002 1.0000000180025095e-35 5986.5800000000008 5302.0000000000009 4813.5000000000009 4643.3400000000011 5998.630000000001 987.36500000000012 7503.1250000000009 7824.7250000000013 8036.3283333333338 6254.2200000000012 4776.8233333333346 7434.1300000000001 7340.9700000000012 6351.795000000001 583.00000000000011 7591.0200000000013 0.046198318622353511 538.50000000000011 75416.500000000015 613.50000000000011 381.50000000000006 72.77500000000002 78.90000000000002 24999.880000000005 21678.000000000004 -1.0000000180025095e-35 14096.785000000002 8778.5250000000033 6723.5000000000009 6928.6800000000012 922.50000000000011 531.30666666666673 71925.000000000015
decision_type=2 2 2 2 2 2 2 2 2 2 2 2 2 2 2 2 2 2 2 2 2 2 2 2 2 2 2 2 2 2 2 2 2 2 2 2 2 2
left_child=2 3 4 24 25 -6 7 14 -9 -8 12 34 16 -14 -5 -16 17 18 -7 -20 -18 -22 36 27 -2 -1 -25 37 29 30 31 32 -29 -32 -12 -26 -3 -24
right_child=1 22 -4 6 5 10 9 8 -10 -11 11 -13 13 -15 15 -17 20 -19 19 -21 21 -23 23 26 35 -27 -28 28 -30 -31 33 -33 -34 -35 -36 -37 -38 -39
leaf_value=-0.045227447683544204 -0.048022884465055461 0.0058542354904019527 -0.0083312346537490339 -0.00063304098443597444 -0.010488947824396622 -0.050019603759606984 -0.0260485640935532 0.04567453646795111 -0.011269623422575568 -0.009012759710725916 -0.025549213213945696 -0.037889369373871128 -0.012832892372434243 -0.040193628665480562 -0.027984177783112758 -0.011420432982882436 -0.047237182290819489 -0.015021661050865921 -0.037968616188311467 -0.027227848006227528 -0.047561159229207277 -0.022047475193208814 0.0022538703907289651 -0.0026861283430987858 -0.025431915091031012 -0.039878827555864263 0.0077437432797431227 0.002449512485533985 -0.011559005007389996 0.0081933361954355643 0.0020812783616690946 -0.0063879730622633021 0.020472588704033592 -0.0068052406010807674 -0.0089916428884057667 -0.040874084281845711 -0.0056509545683351365 0.0057802837856625374
leaf_weight=137 13.999999999999998 232 130 12.999999999999998 15.999999999999998 15.999999999999998 45 18 25 672 13.000000000000002 20 18 13.999999999999998 21 25 50 15.999999999999998 140 28 13.000000000000002 12.999999999999998 14509 144 14.000000000000002 132 20 35 20 27 37 21 12.999999999999998 62 12.999999999999998 13.999999999999998 12.999999999999998 130
leaf_count=137 14 232 130 13 16 16 45 18 25 672 13 20 18 14 21 25 50 16 140 28 13 13 14509 144 14 132 20 35 20 27 37 21 13 62 13 14 13 130
internal_value=5.98632e-06 0.00156277 -0.0326359 -0.0106508 -0.0375805 -0.0339291 -0.00924269 -0.00334321 0.0125675 -0.010082 -0.0349885 -0.0262352 -0.0362958 -0.0248032 -0.0149391 -0.0189821 -0.0376283 -0.0355932 -0.0373821 -0.0361785 -0.0429838 -0.0348043 0.00225175 0.00220294 -0.0381096 -0.0426028 -0.00141419 0.00224288 -0.0006379 0.000482213 -0.000757074 0.0031555 0.00733076 -0.00348402 -0.0172704 -0.033153 0.00524376 0.00228519
internal_weight=16893 16124 769 861 639 370 819 102 43 717 354 46 308 32 59 46 276 200 184 168 76 26 15263 15018 42 269 164 14854 215 195 168 69 48 99 26 28 245 14639
internal_count=16893 16124 769 861 639 370 819 102 43 717 354 46 308 32 59 46 276 200 184 168 76 26 15263 15018 42 269 164 14854 215 195 168 69 48 99 26 28 245 14639
is_linear=0
shrinkage=0.145712


Tree=9
num_leaves=39
num_cat=0
split_feature=7 1 1 0 0 1 0 1 0 1 7 3 3 0 3 7 1 0 3 0 10 7 1 4 10 7 3 2 1 0 1 1 1 7 7 3 2 7
split_gain=16.7979 4.69158 2.92897 2.33581 2.22024 3.27181 0.782762 4.50221 0.765447 1.59498 0.254085 0.302544 0.28051 0.370672 0.239873 0.219438 0.177259 0.174206 0.184353 0.14437 0.135663 0.177262 0.231132 0.144739 0.129955 0.294622 0.123167 0.480741 0.134079 0.120727 0.113587 0.106571 0.162293 0.102447 0.110308 0.128402 0.0979439 0.0973623
threshold=300.10166666666674 1583.825 1246580.566260014 3905.5000000000005 498.50000000000006 536.8850000000001 1234.5000000000002 1668.2500000000002 5302.0000000000009 7306.6150000000007 1.0000000180025095e-35 7824.7250000000013 6927.916666666667 217.50000000000003 6633.423333333335 850.81500000000017 6687.3700000000008 165.50000000000003 7324.2083333333348 258.00000000000006 1.0000000180025095e-35 511.26500000000004 611.4000000000002 -1.0000000180025095e-35 -1.0000000180025095e-35 160.58333333333337 7111.1150000000007 22437.500000000004 7878.9700000000003 444.50000000000006 1115.6600000000001 7083.9850000000006 7741.6550000000016 1233.3300000000002 2671.6700000000005 2202.0750000000003 21891.600000000002 531.30666666666673
decision_type=2 2 2 2 2 2 2 2 2 2 2 2 2 2 2 2 2 2 2 2 2 2 2 2 2 2 2 2 2 2 2 2 2 2 2 2 2 2
left_child=1 24 4 10 5 29 7 20 9 -5 -3 12 13 14 -12 -8 -15 -14 -19 -7 23 -22 -23 30 -1 -26 -9 36 -29 -2 -6 -21 -33 -17 -35 -36 -28 -25
right_child=2 3 -4 8 6 19 15 26 -10 -11 11 -13 17 16 -16 33 -18 18 -20 31 21 22 -24 37 25 -27 27 28 -30 -31 -32 32 -34 34 35 -37 -38 -39
leaf_value=0.0080038997880542053 0.0012198251525955542 -0.035959841545190038 -0.007849372602360084 -0.014853363130950288 0.005770731696024425 -0.042657443040126926 0.013164068675144757 -0.031063042877371425 -0.027219538884685132 0.042122861946724897 -0.023599129111024179 -0.0089707751597873208 -0.043700376023840116 -0.022976375748138635 0.0018317286257597213 -0.0014685866862658679 -0.046223102615356192 -0.02191221391148129 -0.040953675354986251 -0.035568923846621629 -0.0074291046033269532 0.015515401514208917 0.0035931883015346187 -0.0089752632871821485 -0.018127110521514323 0.0030487603363487043 -0.01610390446854339 -0.041574242195055011 -0.023761696501336312 0.0126850080135946 -0.0041761716651018453 -0.015929155823714708 -0.035408595863027914 0.0030924272250214052 -0.0059942689747997996 0.0017179545988067653 0.0017827033355287015 -0.00059913408976674186
leaf_weight=46 78 285 772 27 130 25 36 74 20 17 18 14.999999999999998 37 13.000000000000002 13.999999999999998 204 14.999999999999998 25 19 35 24 42 194 33 18 62 13.000000000000002 19 17 26 30 21 15.999999999999998 1313 46 12826 12.999999999999998 275
leaf_count=46 78 285 772 27 130 25 36 74 20 17 18 15 37 13 14 204 15 25 19 35 24 42 194 33 18 62 13 19 17 26 30 21 16 1313 46 12826 13 275
internal_value=5.11403e-06 -0.023321 0.000910217 -0.029597 0.00134678 -0.0138679 0.00154681 -0.00271332 -0.00358348 0.00716018 -0.0333722 -0.0286447 -0.0307377 -0.0231863 -0.0124731 0.00180197 -0.03543 -0.0363313 -0.0301347 -0.0331175 0.00183296 0.00450164 0.00571494 0.000350351 0.00183266 -0.00171581 -0.0270493 -0.0222586 -0.0331628 0.00408612 0.00390569 -0.029805 -0.0243527 0.00177354 0.00182017 0.00169039 -0.0071606 -0.00149658
internal_weight=16893 631 16262 505 15490 201 15289 864 64 44 441 156 141 60 32 14425 28 81 44 97 728 260 236 468 126 80 136 62 36 104 160 72 37 14389 14185 12872 26 308
internal_count=16893 631 16262 505 15490 201 15289 864 64 44 441 156 141 60 32 14425 28 81 44 97 728 260 236 468 126 80 136 62 36 104 160 72 37 14389 14185 12872 26 308
is_linear=0
shrinkage=0.145712


Tree=10
num_leaves=39
num_cat=0
split_feature=9 9 2 5 7 2 1 1 1 1 2 1 5 5 7 7 5 7 1 7 7 9 1 9 9 1 9 9 9 9 1 1 1 5 5 4 5 9
split_gain=21.5492 3.58373 2.03161 0.813293 0.215402 0.321247 0.156334 0.385732 0.221296 0.159847 0.282317 0.173519 0.110852 0.302444 1.0497 0.179805 0.111348 0.10398 0.090011 0.288022 0.171588 0.148963 0.151227 0.143137 0.139273 0.130366 0.163195 0.31651 0.19379 0.150434 0.188425 0.150184 0.195367 0.145811 0.139201 0.11302 0.170077 0.150787
threshold=0.17185845233084307 5.2500000000000009 4160548.2029401781 1187.3750000000002 1.0000000180025095e-35 17550.470000000005 6449.7600000000011 6514.4900000000007 6801.5900000000011 8182.7000000000016 24008.085000000003 7434.1300000000001 4781.5650000000014 5273.420000000001 4643.3400000000011 4898.2500000000009 4244.8150000000014 531.30666666666673 18454.110000000004 27428.755000000001 9797.6000000000022 16.570000000000004 18017.240000000002 41.925000000000004 61.590000000000011 23771.965000000004 77.765000000000015 70.805000000000021 68.245000000000019 58.180000000000007 54827.880000000012 38737.060000000005 26968.235000000004 53407.950000000004 45555.340000000004 -1.0000000180025095e-35 9370.2700000000023 5.9750000000000005
decision_type=2 2 2 2 2 2 2 2 2 2 2 2 2 2 2 2 2 2 2 2 2 2 2 2 2 2 2 2 2 2 2 2 2 2 2 2 2 2
left_child=2 3 4 17 -1 -6 -7 -8 -9 10 11 -10 16 14 -14 -15 -5 -2 19 21 -20 35 -23 -24 -21 -22 27 28 29 34 -31 32 -29 -30 -27 37 -37 -3
right_child=1 18 -4 12 5 6 7 8 9 -11 -12 -13 13 15 -16 -17 -18 -19 20 24 25 22 23 -25 -26 26 -28 31 33 30 -32 -33 -34 -35 -36 36 -38 -39
leaf_value=-0.030113161898856981 -0.033468707138735045 -0.0090278688299446821 -0.0064085920559565773 -0.0048737308534183149 -0.0045518115458955668 -0.035911115075281039 -0.0026845754617129095 -0.033915531124685365 -0.02072287236511218 -0.036167353168014657 -0.0035595265739017793 -0.029113839108928462 0.031690851660909104 -0.019316333184438927 -0.016812210374741527 -0.0067383289028382278 -0.017656866291089868 -0.018539116225765422 0.015157458716847046 0.018654434403661446 -0.00051527519539295761 0.0015366470172693239 0.011448818490140584 0.001499161206481116 0.0016384471767056789 0.0015761372359179989 -0.0068076007695460098 0.0083736065494576413 -0.010681533870998372 0.0070322795385163164 -0.00017681531526623627 0.010316961852528844 -0.012413127458540589 0.0057771638855263095 -0.0017287826728722628 0.0045314304203604222 -0.0026739190814975139 0.001965766656149772
leaf_weight=278 26 28 120 23 15.999999999999998 29 15.999999999999998 59 125 21 14.999999999999998 90 18 25 20 694 39 15.999999999999998 18 32 973 10334 64 59 14.999999999999998 1268 49 24 48 203 124 125 15.999999999999998 14.999999999999998 344 958 75 491
leaf_count=278 26 28 120 23 16 29 16 59 125 21 15 90 18 25 20 694 39 16 18 32 973 10334 64 59 15 1268 49 24 48 203 124 125 16 15 344 958 75 491
internal_value=4.36887e-06 0.00114091 -0.023826 -0.00800539 -0.0270465 -0.0247486 -0.0256589 -0.0247469 -0.0258856 -0.0239981 -0.0228869 -0.0242354 -0.00699125 -0.0065061 0.00616292 -0.00717567 -0.0129147 -0.0277812 0.00165686 0.00183936 0.000970779 0.00179481 0.0015971 0.00667622 0.0132238 0.000890704 0.00150804 0.00169607 0.00119052 0.00144893 0.00429856 0.00783016 5.89129e-05 -0.0067628 0.000870869 0.00312692 0.00400829 0.00137266
internal_weight=16893 16124 769 861 649 371 355 326 310 251 230 215 819 757 38 719 62 42 15263 12056 3207 12009 10457 123 47 3189 2216 2167 2002 1939 327 165 40 63 1612 1552 1033 519
internal_count=16893 16124 769 861 649 371 355 326 310 251 230 215 819 757 38 719 62 42 15263 12056 3207 12009 10457 123 47 3189 2216 2167 2002 1939 327 165 40 63 1612 1552 1033 519
is_linear=0
shrinkage=0.145712


Tree=11
num_leaves=39
num_cat=0
split_feature=9 9 0 0 6 0 6 0 7 1 1 3 7 6 6 6 3 6 3 5 3 0 0 9 5 3 7 1 9 9 5 5 5 0 9 9 7 9
split_gain=15.7268 2.63933 1.80987 0.650586 0.504663 0.527425 0.571635 0.293832 0.237174 0.26598 0.157883 0.138837 0.106777 0.282213 0.18883 0.423551 0.173376 0.132596 0.266685 0.109118 0.107029 0.101775 0.0980891 0.0957771 0.0866406 0.0856557 0.190421 0.0743005 0.072054 0.0710099 0.131904 0.24911 0.169369 0.299376 0.201929 0.280154 0.172845 0.179771
threshold=0.17185845233084307 5.6850000000000014 3905.5000000000005 1234.5000000000002 10374.010000000002 4813.5000000000009 4254.3450000000003 10157.500000000002 1.0000000180025095e-35 5986.5800000000008 7306.6150000000007 6351.795000000001 987.36500000000012 3041.4750000000004 1265.3100000000002 1057.6650000000002 7824.7250000000013 1505.0000000000002 7591.0200000000013 537.46500000000003 6927.916666666667 12762.500000000002 982.00000000000011 0.091238451359116318 102.50000000000001 7635.3350000000009 4776.8233333333346 5810.6150000000007 0.20541507803935385 46.600000000000009 3164.8500000000008 3210.1500000000005 2407.8350000000005 2862.5000000000005 41.925000000000004 31.755000000000006 2472.1700000000005 25.355000000000004
decision_type=2 2 2 2 2 2 2 2 2 2 2 2 2 2 2 2 2 2 2 2 2 2 2 2 2 2 2 2 2 2 2 2 2 2 2 2 2 2
left_child=2 3 8 -2 5 6 -5 10 27 -10 -6 -11 14 -14 15 16 20 -16 19 -19 -13 -9 -15 -4 -3 26 -12 -1 -23 30 32 -32 34 -34 35 -26 -35 -38
right_child=1 24 23 4 7 -7 -8 21 9 11 25 12 13 22 17 -17 -18 18 -20 -21 -22 28 -24 -25 29 -27 -28 -29 -30 -31 31 -33 33 36 -36 -37 37 -39
leaf_value=-0.036464838716199495 -0.023877859032279611 0.010787221500864327 0.0026991290476757052 -0.02363839578713248 -0.0089030184640200242 0.023322894498682901 0.013141069768589645 0.0072523419222993539 -0.0027726956264819535 -0.035242779516033135 -0.035299467266150082 -0.017873268208328404 0.0015807273258058769 -0.0131210559266201 -0.032852462200756223 0.0012341223019350963 -0.0074797464614931655 -0.016266101667746648 -0.0040087956863587128 -0.030616636707450018 -0.026452273371688009 -0.00031852623974432017 -0.029731425133952587 -0.0068012025191808 0.0025017436716791301 -0.011158660534020585 -0.013151878153431952 -0.026226066086511828 -0.0061732146760760465 0.0010793399431770151 -0.0098509453224971209 0.0014121741763248993 0.015408123247742291 -0.0070156791208125218 0.0057237302915757928 -0.0018073497113658579 0.0014154399608945893 0.0068429229170483786
leaf_weight=15.999999999999998 44 21 29 17 72 25 19 12.999999999999998 15.999999999999998 15.999999999999998 15.999999999999998 47 14.999999999999998 13.000000000000002 47 19 15.999999999999998 14.999999999999998 12.999999999999998 45 90 48 18 101 1157 17 17 253 636 6970 42 5709 51 30 255 443 239 283
leaf_count=16 44 21 29 17 72 25 19 13 16 16 16 47 15 13 47 19 16 15 13 45 90 48 18 101 1157 17 17 253 636 6970 42 5709 51 30 255 443 239 283
internal_value=3.73229e-06 0.000974665 -0.0203543 -0.00658657 -0.005722 0.00706393 -0.00422701 -0.00667431 -0.0235427 -0.0211491 -0.0132712 -0.0219797 -0.0213518 -0.0148267 -0.0223798 -0.0192847 -0.0218328 -0.026816 -0.0229295 -0.027029 -0.0235091 -0.00551962 -0.0227658 -0.0046819 0.00143431 -0.0195614 -0.0238901 -0.0268351 -0.00576236 0.00142137 0.00171177 0.00132992 0.00260521 0.00472667 0.00191559 0.00130866 0.0037398 0.00435793
internal_weight=16893 16124 769 924 880 61 36 819 639 370 122 354 338 46 292 172 153 120 73 60 137 697 31 130 15200 50 33 269 684 15179 8209 5751 2458 603 1855 1600 552 522
internal_count=16893 16124 769 924 880 61 36 819 639 370 122 354 338 46 292 172 153 120 73 60 137 697 31 130 15200 50 33 269 684 15179 8209 5751 2458 603 1855 1600 552 522
is_linear=0
shrinkage=0.145712


Tree=12
num_leaves=39
num_cat=0
split_feature=7 1 5 5 2 7 3 5 2 7 1 4 2 2 5 2 5 7 3 1 2 1 1 5 5 3 1 5 5 1 7 1 5 1 7 3 7 7
split_gain=6.6031 3.70029 1.29556 0.988962 1.04906 0.280948 1.76065 0.211685 0.248697 0.231712 0.160914 0.156231 0.107205 0.147073 0.0919987 0.0911418 0.0885303 0.0864656 0.305559 0.213052 0.131505 0.233745 0.209119 0.127865 0.10161 0.216937 0.0856105 0.177225 0.16504 0.146295 0.135062 0.169184 0.147669 0.13474 0.172834 0.388641 0.237862 0.0836607
threshold=531.30666666666673 1583.825 219349.93713693332 5079.4450000000006 22556.630000000001 1666.7050000000002 2852.7150000000006 835.61500000000012 6732.0000000000009 1752.4650000000004 1158.49 -1.0000000180025095e-35 23087.145000000004 19527.195000000003 537.46500000000003 4585.545000000001 1353.1600000000001 205.04833333333335 7766.4733333333343 5875.5000000000009 20646.615000000002 7434.1300000000001 7083.9850000000006 292.27000000000004 1147.7150000000004 7287.2500000000009 8337.5500000000011 3164.8500000000008 2679.7600000000007 9395.340000000002 7343.2150000000011 9685.4100000000017 3491.2700000000004 6313.8450000000003 4643.3400000000011 7038.7450000000008 4848.0550000000012 6792.5650000000014
decision_type=2 2 2 2 2 2 2 2 2 2 2 2 2 2 2 2 2 2 2 2 2 2 2 2 2 2 2 2 2 2 2 2 2 2 2 2 2 2
left_child=1 14 5 17 -5 6 -2 8 10 11 -7 -9 13 -8 -1 16 -11 24 19 -19 -21 22 -22 -24 -3 -26 33 28 -28 -30 32 -32 -29 37 35 -35 -36 -17
right_child=2 3 -4 4 -6 7 12 9 -10 15 -12 -13 -14 -15 -16 26 -18 18 -20 20 21 -23 23 -25 25 -27 27 30 29 -31 31 -33 -34 34 36 -37 -38 -39
leaf_value=0.0013304156387033055 0.00080531465582858513 -0.021378607767729121 -0.005118908482985348 0.0388452542502623 -0.019692922905764194 0.017123517317167155 -0.010868335706989819 0.00091897331249892595 0.018341891455601087 0.0019450460391568268 0.0013399047006189043 0.017437397697389938 -0.0070060136347005631 -0.022127750593238467 -0.0091111925000164472 0.00094458606943438009 0.017592159318911851 -0.0009079597153708452 0.00012784360796191648 -0.026021784340191936 -0.020574977284944177 -0.02619648294752356 -0.012283552036566491 0.0051926724314636328 -0.0047665116346454787 -0.028315833767425389 -0.0079826280529619927 -0.0071406749324360542 0.011218806395614464 0.00027892842009886933 -0.0013533714880274443 0.0013476294539901703 0.0038804154559207871 -0.002671338799977406 -0.0092062368562460754 0.0076878689053223861 -0.00052663935406406786 0.0031351999670538953
leaf_weight=314 1147 371 766 13.000000000000002 12.999999999999998 15.999999999999998 36 20 31 17.000000000000004 96 31 20 78 19 3495 13.999999999999998 12.999999999999998 20 56 33 40 20 15.999999999999998 23 12.999999999999998 14.999999999999998 27 93 36 533 6461 587 144 70 165 1584 414
leaf_count=314 1147 371 766 13 13 16 36 20 31 17 96 31 20 78 19 3495 14 13 20 56 33 40 20 16 23 13 15 27 93 36 533 6461 587 144 70 165 1584 414
internal_value=1.73271e-05 -0.0116924 0.000727454 -0.0182506 0.00957617 0.00102344 -0.0010411 0.00121441 0.00679165 0.00115622 0.00359471 0.0109596 -0.0168459 -0.0185721 0.000734648 0.0011196 0.00901148 -0.0194464 -0.0169489 -0.0188677 -0.0202827 -0.0173341 -0.0121966 -0.00451634 -0.0206614 -0.0132704 0.00110165 0.00141955 0.00648369 0.00816582 0.0013237 0.00114179 0.00339577 0.000681964 -0.00030301 0.00286028 -0.000893974 0.00117659
internal_weight=16860 964 15896 631 26 15130 1281 13849 143 13706 112 51 134 114 333 13655 31 605 198 178 165 109 69 36 407 36 13624 7752 144 129 7608 6994 614 5872 1963 309 1654 3909
internal_count=16860 964 15896 631 26 15130 1281 13849 143 13706 112 51 134 114 333 13655 31 605 198 178 165 109 69 36 407 36 13624 7752 144 129 7608 6994 614 5872 1963 309 1654 3909
is_linear=0
shrinkage=0.145712


Tree=13
num_leaves=39
num_cat=0
split_feature=9 9 0 5 0 5 5 5 7 0 2 5 5 1 1 0 1 1 1 1 1 0 0 0 5 0 9 7 9 5 7 0 7 1 5 10 9 9
split_gain=8.42952 1.6315 0.953141 0.25546 0.199583 0.190844 1.23185 0.409521 0.167722 0.164449 0.159732 0.156528 0.14745 0.129157 0.0975672 0.303799 0.0936707 0.194332 0.211388 0.162558 0.193336 0.103549 0.0874662 0.0743173 0.0640323 0.0631557 0.142562 0.195423 0.0791106 0.0606291 0.0658248 0.143249 0.0578682 0.0515301 0.0503324 0.0473857 0.0462045 0.119595
threshold=0.17185845233084307 5.6850000000000014 3905.5000000000005 1187.3750000000002 3905.5000000000005 5079.4450000000006 5148.3300000000008 4822.9850000000015 1.0000000180025095e-35 10600.500000000002 17550.470000000005 639.50000000000011 4595.9350000000004 6801.5900000000011 6514.4900000000007 583.00000000000011 6987.4150000000009 7083.9850000000006 7181.5300000000016 7388.795000000001 7678.1750000000011 444.50000000000006 75416.500000000015 258.00000000000006 5538.6250000000009 71925.000000000015 30.070000000000004 85041.97500000002 63.290000000000006 102.50000000000001 160.58333333333337 258.00000000000006 103163.72000000002 79853.565000000017 1.0000000180025095e-35 1.0000000180025095e-35 72.77500000000002 77.50500000000001
decision_type=2 2 2 2 2 2 2 2 2 2 2 2 2 2 2 2 2 2 2 2 2 2 2 2 2 2 2 2 2 2 2 2 2 2 2 2 2 2
left_child=2 3 8 11 -5 7 -7 12 23 24 -10 -2 -6 14 15 -12 -15 -18 -19 21 -21 -20 25 34 -8 29 -27 28 35 -3 -31 -32 -24 36 -1 -28 -33 -38
right_child=1 22 -4 4 5 6 9 -9 10 -11 13 -13 -14 16 -16 -17 17 18 19 20 -22 -23 32 -25 -26 26 27 -29 -30 30 31 33 -34 -35 -36 -37 37 -39
leaf_value=-0.031055621529133434 -0.0059721822136232757 0.0089204989538028082 -0.0031987724531045152 0.010102218201674042 -0.01118244621544575 0.040206212362388763 -0.007116893866688334 -0.031048386243651541 -0.00082855404575105747 -0.004409691735560199 -0.022486249525779618 -0.022614024645323798 0.0031593146107430515 -0.0060638502370922182 -0.024037590964414664 0.0014488090132146669 -0.029836550914024113 -0.00013605061477644839 -0.029824990273498327 -0.0053239113032703886 -0.01687646206718682 -0.014827762145043782 -0.0038342710216740039 -0.018220762973361393 -0.016852157850066527 0.011829970032126536 -0.014084339282590029 0.011414438920298213 0.0030794010396534084 0.0090500859553566872 -0.011249697991512897 0.0010142120593776246 0.0031335020914954759 -0.0080794691334706206 -0.021754514586951112 -0.0034962472059353101 0.0028506818903581478 5.1751101596395623e-05
leaf_weight=14.999999999999998 21 21 125 19 45 12.999999999999998 26 18 15.999999999999998 690 38 28 23 29 57 15.999999999999998 17 22 23 47 89 17 121 192 32 38 13.999999999999998 28 26 22 20 13378 32 12.999999999999998 70 25 939 495
leaf_count=15 21 21 125 19 45 13 26 18 16 690 38 28 23 29 57 16 17 22 23 47 89 17 121 192 32 38 14 28 26 22 20 13378 32 13 70 25 939 495
internal_value=1.48024e-05 0.000729004 -0.0148485 -0.00524634 -0.00466719 -0.0049985 -0.00426323 -0.0115048 -0.0170958 -0.00503609 -0.0150702 -0.0154818 -0.00633156 -0.0157121 -0.0198328 -0.0153944 -0.0138375 -0.014886 -0.0136024 -0.0152857 -0.012884 -0.0234512 0.00108937 -0.0198088 -0.0124881 0.00112468 0.00431008 0.00123744 -0.0031465 0.00109665 0.0010856 0.0010738 -0.00237696 0.00109042 -0.0233959 -0.0072971 0.00109847 0.00188452
internal_weight=16860 16087 773 915 866 847 761 86 648 748 371 49 68 355 111 54 244 215 198 176 136 40 15172 277 58 15019 131 93 65 14888 14867 14845 153 14825 85 39 14812 1434
internal_count=16860 16087 773 915 866 847 761 86 648 748 371 49 68 355 111 54 244 215 198 176 136 40 15172 277 58 15019 131 93 65 14888 14867 14845 153 14825 85 39 14812 1434
is_linear=0
shrinkage=0.145712


Tree=14
num_leaves=39
num_cat=0
split_feature=9 1 9 4 10 3 9 1 1 1 1 4 9 9 1 3 1 1 1 1 3 9 9 1 9 9 4 9 1 8 10 9 10 10 9 9 1 1
split_gain=6.16138 1.65054 0.252031 0.374503 0.186252 0.17873 0.1342 0.100456 0.0770669 0.186388 0.12371 0.0777394 0.0855109 0.0685603 0.0674349 0.154738 0.06345 0.265709 0.0787383 0.101522 0.0537342 0.050772 0.124153 0.118152 0.10433 0.106045 0.0955166 0.185719 0.119184 0.154534 0.0988017 0.0918586 0.215148 0.0866437 0.118874 0.11454 0.0984728 0.116333
threshold=0.79124922526957298 1246580.566260014 0.50307977433448448 -1.0000000180025095e-35 -1.0000000180025095e-35 7247.005000000001 0.70417979122984786 7231.8700000000008 2102.3150000000005 5810.6150000000007 2491.6250000000005 1.0000000180025095e-35 0.091238451359116318 5.6850000000000014 3948.9750000000004 3216.4050000000002 6483.7500000000009 6514.4900000000007 6882.9050000000016 6987.4150000000009 2852.7150000000006 72.77500000000002 75.235000000000014 1158.49 68.915000000000006 70.590000000000018 -1.0000000180025095e-35 71.895000000000024 51241.515000000007 -1.0000000180025095e-35 -1.0000000180025095e-35 68.685000000000016 -1.0000000180025095e-35 1.0000000180025095e-35 75.545000000000016 77.02500000000002 42651.31500000001 4021.4500000000003
decision_type=2 2 2 2 2 2 2 2 2 2 2 2 2 2 2 2 2 2 2 2 2 2 2 2 2 2 2 2 2 2 2 2 2 2 2 2 2 2
left_child=1 2 8 -4 5 7 -6 -5 -1 10 -10 16 -13 14 15 -2 -11 -18 20 -20 -19 24 -23 -24 31 -26 27 -27 29 30 -28 -15 -33 34 -25 -35 37 -37
right_child=13 -3 3 4 6 -7 -8 -9 9 11 -12 12 -14 21 -16 -17 17 18 19 -21 -22 22 23 33 25 26 28 -29 -30 -31 -32 32 -34 35 -36 36 -38 -39
leaf_value=-0.021781571012177703 -0.0055827610946167028 -0.0037616844992274831 0.0088386269485897055 -0.0051081588651651121 -0.027118950774524187 0.0062883691406298153 -0.010441103033818087 -0.021731216079423302 -0.011117191077340577 -0.019067461481403543 0.0071458531825051748 -0.0036862747238904691 -0.01616106989684055 0.0009139395553582866 -0.0043363549433589081 0.015535529543967372 0.005378336781240084 -0.010987140597099074 -0.007208085450660269 -0.014853162788404548 -0.020227836381211582 0.0034519687677442667 -0.0072552754591208588 -0.0080274040127401337 -0.0028939186654984351 0.0058430072495424387 -0.00010922603736961568 -0.0059451286784841838 0.012199787568829635 0.00047357107890584236 -0.010688313178653642 -0.0070282336506911694 0.011137464831638591 0.0062057807724531094 0.00051736870748382796 -0.0052772388381683065 -0.0075206757081975276 0.0041491360188635959
leaf_weight=28 17.000000000000004 747 25 19 20 18 21 12.999999999999998 18 71 13.999999999999998 28 20 12830 97 12.999999999999998 13.999999999999998 15.999999999999998 41 367 81 560 38 37 308 134 29 36 13.999999999999998 218 53 19 51 134 526 36 27 122
leaf_count=28 17 747 25 19 20 18 21 13 18 71 14 28 20 12830 97 13 14 16 41 367 81 560 38 37 308 134 29 36 14 218 53 19 51 134 526 36 27 122
internal_value=1.26455e-05 -0.00870775 -0.0132467 -0.0069573 -0.0112968 -0.0053274 -0.0185766 -0.0118613 -0.0142919 -0.0139789 -0.00312711 -0.0145232 -0.00888411 0.000902412 -0.00246907 0.0035685 -0.014982 -0.0144231 -0.0149721 -0.0140849 -0.0187036 0.000930634 0.00174139 0.000700165 0.000842997 -0.000780305 0.000564723 0.0033467 -0.000941442 -0.0015547 -0.00694693 0.00094266 0.00620678 0.00104292 -4.41883e-05 0.00296154 0.000611653 0.00200135
internal_weight=16860 1561 814 116 91 50 41 32 698 670 32 638 48 15299 127 30 590 519 505 408 97 15172 1480 920 13692 792 484 170 314 300 82 12900 70 882 563 319 185 158
internal_count=16860 1561 814 116 91 50 41 32 698 670 32 638 48 15299 127 30 590 519 505 408 97 15172 1480 920 13692 792 484 170 314 300 82 12900 70 882 563 319 185 158
is_linear=0
shrinkage=0.145712


Tree=15
num_leaves=39
num_cat=0
split_feature=9 0 6 0 0 0 2 0 6 2 2 2 6 6 0 9 10 2 9 2 2 2 6 9 9 2 6 2 8 6 6 6 4 0 6 6 0 6
split_gain=4.49662 1.50764 0.246382 0.535616 0.185293 0.103699 0.0910032 0.0667303 0.0971384 0.24877 0.121307 0.144801 0.119323 0.114242 0.120185 0.110782 0.0692507 0.0745228 0.0640831 0.0637467 0.0632812 0.130572 0.0630875 0.173084 0.0574495 0.086218 0.0534165 0.0499549 0.0498804 0.284733 0.084421 0.148891 0.118519 0.115198 0.089336 0.137338 0.124718 0.18783
threshold=0.79124922526957298 3905.5000000000005 12761.560000000001 5302.0000000000009 1237128.0000000002 300.50000000000006 7513.0600000000004 75416.500000000015 154118.10500000001 164483.64500000002 207478.65500000003 179948.43500000003 126433.62000000001 177513.71000000002 68720.500000000015 57.545000000000009 -1.0000000180025095e-35 168204.22000000003 39.465000000000011 215510.69500000004 21991.155000000002 22917.330000000005 1265.3100000000002 0.046198318622353511 75.77500000000002 197925.79500000001 3041.4750000000004 24235.185000000001 1.0000000180025095e-35 118543.77500000001 930.60500000000013 615.57000000000005 -1.0000000180025095e-35 217.50000000000003 2304.5650000000005 1876.7550000000003 2512.5000000000005 4618.3150000000014
decision_type=2 2 2 2 2 2 2 2 2 2 2 2 2 2 2 2 2 2 2 2 2 2 2 2 2 2 2 2 2 2 2 2 2 2 2 2 2 2
left_child=1 5 3 -3 20 6 -1 8 12 -10 11 15 28 19 -15 -11 -14 -18 -16 -12 -4 -22 23 27 25 -13 -7 -8 30 -30 31 32 -2 -34 35 -32 -36 -38
right_child=7 2 4 -5 -6 26 22 -9 9 10 13 24 16 14 18 -17 17 -19 -20 -21 21 -23 -24 -25 -26 -27 -28 -29 29 -31 34 -33 33 -35 36 -37 37 -39
leaf_value=-0.025846512217322697 -0.014217338891322245 0.019970822675519726 -0.0055300800541318671 -0.016253214760741878 -0.0031521900645501495 -0.010544479867409995 -0.014294951055325824 -0.0020746226467681637 -0.011123100483103131 0.012633752608961914 0.020457089547501941 0.00017788654663662318 -0.008199900701408306 -0.0044309217605575275 0.013746760655131099 0.00053230214753706667 0.0049021235381970759 -0.0035075603342402954 0.0015048231201799838 0.0097223929679791325 -0.024158154764040304 -0.0086895609752846541 -0.021255908572232311 -0.0034756965150507528 0.0071688431681013716 -0.010132347320743385 -0.015614708589305229 -0.022360657259145791 0.0003111630117849144 0.014794559227601277 0.00032503873080953836 0.0067253277512257115 0.0087455475382373429 -0.0050117956698454633 0.0026658453850655719 -0.0058104148465533342 -0.0029481718281808046 0.00096455418089530704
leaf_weight=14.999999999999998 12.999999999999998 26 42 12.999999999999998 735 375 173 173 23 36 17 51 43 23 23 29 30 88 14.999999999999998 38 15.999999999999998 42 24 32 12.999999999999998 26 50 18 4635 29 322 134 24 28 877 102 269 8238
leaf_count=15 13 26 42 13 735 375 173 173 23 36 17 51 43 23 23 29 30 88 15 38 16 42 24 32 13 26 50 18 4635 29 322 134 24 28 877 102 269 8238
internal_value=1.08029e-05 -0.00743892 -0.0034241 0.00789614 -0.00395283 -0.0125466 -0.0148266 0.00077092 0.000803465 0.00342621 0.00466102 0.00199405 0.000751477 0.00822464 0.00388257 0.00723464 -0.00319377 -0.00136951 0.00891442 0.0130404 -0.00983755 -0.0129568 -0.0141574 -0.0133935 -0.00179082 -0.00330349 -0.011141 -0.0150551 0.000794772 0.000401218 0.000978197 0.0039494 -0.00177327 0.00133775 0.000917912 -0.00115094 0.00101139 0.00084083
internal_weight=16860 1561 874 39 835 687 262 15299 15126 294 271 155 14832 116 61 65 161 118 38 55 100 58 247 223 90 77 425 191 14671 4664 10007 199 65 52 9808 424 9384 8507
internal_count=16860 1561 874 39 835 687 262 15299 15126 294 271 155 14832 116 61 65 161 118 38 55 100 58 247 223 90 77 425 191 14671 4664 10007 199 65 52 9808 424 9384 8507
is_linear=0
shrinkage=0.145712


Tree=16
num_leaves=39
num_cat=0
split_feature=9 9 0 3 9 7 3 0 5 0 3 3 1 1 7 5 1 9 5 7 0 9 7 9 0 5 7 9 7 7 9 9 7 9 1 0 0 7
split_gain=3.88625 0.611128 0.57328 0.301095 0.154794 0.152207 0.480938 0.770282 0.169834 0.0633452 0.137066 0.0622006 0.141855 0.0616381 0.127962 0.145007 0.118869 0.137109 0.11117 0.107468 0.0927017 0.0905081 0.114865 0.0631042 0.0641639 0.0658366 0.0626842 0.0621331 0.159883 0.169254 0.0832647 0.138364 0.302534 0.23685 0.0952839 0.115965 0.105753 0.0897357
threshold=0.17185845233084307 0.79124922526957298 839.00000000000011 6164.6250000000009 0.11070860276909621 1014.8250000000002 7372.5133333333342 4813.5000000000009 5203.5250000000005 922.50000000000011 7635.3350000000009 3965.3700000000003 5810.6150000000007 611.4000000000002 422.99000000000007 292.27000000000004 782.33000000000004 43.045000000000009 211.13000000000002 511.26500000000004 613.50000000000011 15.975000000000003 631.55166666666685 29.700000000000003 538.50000000000011 370.40500000000003 850.81500000000017 45.555000000000007 585.55666666666673 711.8850000000001 60.630000000000003 58.465000000000011 59328.305 58.180000000000007 40641.640000000007 77261.500000000015 20029.000000000004 1666.7050000000002
decision_type=2 2 2 2 2 2 2 2 2 2 2 2 2 2 2 2 2 2 2 2 2 2 2 2 2 2 2 2 2 2 2 2 2 2 2 2 2 2
left_child=2 3 11 -2 -4 6 7 -5 -7 -6 -11 -1 -13 14 18 20 17 -15 -3 -19 -16 -17 -23 -20 25 -25 -21 28 -18 -30 31 33 37 34 36 -36 -29 -33
right_child=1 13 4 5 9 8 -8 -9 -10 10 -12 12 -14 16 15 21 27 19 23 26 -22 22 -24 24 -26 -27 -28 30 29 -31 -32 32 -34 -35 35 -37 -38 -39
leaf_value=-0.017039847178593446 -0.016577173161095957 0.0033397135778473769 0.0014307269735818922 -0.0056362717189783395 0.00097885230626128966 -0.011711474095002916 -0.013222101929399094 0.037058121213385156 -0.0029029280780647421 -0.012768262795567026 -0.0039066149629668366 -0.00059707728070469723 -0.012562778551638157 -0.0093867981079477289 -0.0055888060062328562 0.01933164901231681 -0.013266502187844448 0.0073344779290167332 -0.011084688169121741 -0.0097238182395280315 0.0078004119414930174 0.00983124100581707 -0.0032794296621532232 -0.0033198044641207045 -0.0082672247554776632 0.0071746356238763737 0.0011556064689149388 -0.00021317565284916331 0.0099964061554283726 0.00082925375921325591 0.00068231793739544804 -0.014790432783419563 0.011357639503509835 0.0091693258771166023 -0.0039546575098073503 0.0085576869951451504 0.003149311093187565 -0.0036189920475906377
leaf_weight=59 36 104 74 19 21 50 21 17 659 63 90 22 480 55 31 14.999999999999998 17 28 19 22 17 67 18 30 22 22 23 2041 43 7736 3985 15.999999999999998 29 59 210 17 220 333
leaf_count=59 36 104 74 19 21 50 21 17 659 63 90 22 480 55 31 15 17 28 19 22 17 67 18 30 22 22 23 2041 43 7736 3985 16 29 59 210 17 220 333
internal_value=-0.000132501 0.000366278 -0.0099854 -0.0035538 -0.00415148 -0.00294173 0.00430236 0.014525 -0.00352412 -0.00652552 -0.00755553 -0.0125644 -0.0120384 0.0005734 0.00249879 0.00573643 0.00052862 -0.00389261 6.64469e-05 0.000246854 -0.000846791 0.00889638 0.00705486 -0.00359398 -0.00167069 0.00112015 -0.00416322 0.000567102 0.000849079 0.000879927 0.000248971 -0.000341419 -0.00294286 4.46603e-05 -0.00017172 -0.00301761 0.000114001 -0.00413115
internal_weight=16790 15981 809 802 248 766 57 36 709 174 153 561 502 15179 345 148 14834 128 197 73 48 100 85 93 74 52 45 14706 7796 7779 6910 2925 378 2547 2488 227 2261 349
internal_count=16790 15981 809 802 248 766 57 36 709 174 153 561 502 15179 345 148 14834 128 197 73 48 100 85 93 74 52 45 14706 7796 7779 6910 2925 378 2547 2488 227 2261 349
is_linear=0
shrinkage=0.145712


Tree=17
num_leaves=39
num_cat=0
split_feature=7 1 0 0 1 0 7 1 6 1 6 0 6 5 1 1 6 0 4 4 6 0 1 7 6 7 5 1 6 5 10 7 1 1 6 5 1 1
split_gain=1.73522 0.438428 0.343392 0.433173 0.259132 0.209836 0.121773 0.339077 0.263278 0.338667 0.160505 0.121275 0.116103 0.117285 0.116101 0.154286 0.110781 0.110442 0.106499 0.093863 0.0846808 0.0978178 0.114011 0.112707 0.21738 0.102031 0.0801906 0.0793501 0.0762125 0.068789 0.0737293 0.0638678 0.0742039 0.0626336 0.0621179 0.0599142 0.0537072 0.0498684
threshold=300.10166666666674 1583.825 4813.5000000000009 5302.0000000000009 2983778.4135208065 258.00000000000006 531.30666666666673 2149.0700000000006 1265.3100000000002 7083.9850000000006 1570.0000000000002 498.50000000000006 3257.2400000000002 1113.2700000000002 611.4000000000002 782.33000000000004 1135.6500000000003 1084.5000000000002 -1.0000000180025095e-35 1.0000000180025095e-35 930.60500000000013 839.00000000000011 5875.5000000000009 850.81500000000017 2973.9750000000004 1666.7050000000002 537.46500000000003 7610.1450000000013 380.50000000000006 238.50000000000003 1.0000000180025095e-35 422.99000000000007 611.4000000000002 3802977.1417623428 761.50000000000011 292.27000000000004 698.70500000000015 7125.0000000000009
decision_type=2 2 2 2 2 2 2 2 2 2 2 2 2 2 2 2 2 2 2 2 2 2 2 2 2 2 2 2 2 2 2 2 2 2 2 2 2 2
left_child=1 28 12 -4 5 -2 7 11 9 -9 37 16 13 17 29 26 18 -3 -7 31 -17 22 -22 24 -23 -25 -16 -24 -1 -8 34 32 -13 -6 -31 -20 -33 -10
right_child=4 2 3 -5 33 6 14 8 10 -11 -12 19 -14 -15 15 20 -18 -19 35 -21 21 23 27 25 -26 -27 -28 -29 -30 30 -32 36 -34 -35 -36 -37 -38 -39
leaf_value=-0.0056340119177853967 -0.012078930247291401 -0.010796816425763217 0.017549322067557657 -0.011366164991908765 -0.0071601846850519509 0.012527030715350966 -0.0037636765630793658 -0.015413021963160103 -0.014348497136600852 0.012726287860047231 -0.0038228841126375234 -0.0092554221029213148 0.0018646802018902346 -0.02389389227788417 -0.010750635953460621 0.010110075111835395 0.015564364748180065 0.0011700186449895885 -0.0063321957178314146 -0.0099053114035351515 0.00013251546839889594 0.0011274241639792136 -0.015597410919390787 -0.0011747182965783571 0.014280978626020811 0.00046088810857906627 -0.0019444998421551812 -0.0014624960388791742 0.0027801243365289854 0.011213375377847001 0.011711888680858424 0.010370790571893286 0.0033272052510894055 -0.0022167840553625252 -0.00036992547372637844 0.0034833157678804908 -8.4404265515251062e-05 -0.023860598127134435
leaf_weight=31 29 445 22 22 60 17 14.999999999999998 15.999999999999998 22 21 20 24 15.999999999999998 13.999999999999998 38 19 17 17 23 26 48 103 24 860 36 13866 52 12.999999999999998 87 13.999999999999998 38 17 17 585 33 31 27 25
leaf_count=31 29 445 22 22 60 17 15 16 22 21 20 24 16 14 38 19 17 17 23 26 48 103 24 860 36 13866 52 13 87 14 38 17 17 585 33 31 27 25
internal_value=-0.000113194 -0.00747114 -0.00924131 0.00309158 0.000185027 0.000304178 0.000327404 -0.00256495 -0.00930765 0.000557938 -0.0147558 0.000958868 -0.0103443 -0.0107546 0.000385216 0.000352355 0.00499882 -0.0103565 0.00246904 -0.00224397 0.00038852 0.000376165 -0.00455282 0.00040435 0.0045341 0.000365369 -0.00566265 -0.0106311 0.000569631 0.00533376 0.00693919 9.94927e-05 -0.00403824 -0.00267664 0.00308042 -0.000697365 0.0039551 -0.0194081
internal_weight=16790 654 536 44 16136 15491 15462 303 104 37 67 199 492 476 15159 15059 88 462 71 111 14969 14950 85 14865 139 14726 90 37 118 100 85 85 41 645 47 54 44 47
internal_count=16790 654 536 44 16136 15491 15462 303 104 37 67 199 492 476 15159 15059 88 462 71 111 14969 14950 85 14865 139 14726 90 37 118 100 85 85 41 645 47 54 44 47
is_linear=0
shrinkage=0.145712


Tree=18
num_leaves=39
num_cat=0
split_feature=7 2 0 2 3 0 2 0 7 6 2 6 2 6 0 2 0 2 6 4 10 6 7 7 4 7 6 2 6 3 6 3 7 6 3 2 6 6
split_gain=1.26638 0.277333 0.255859 0.499802 0.200695 0.153762 0.127455 0.183948 0.118274 0.0938262 0.321211 0.130643 0.124936 0.118778 0.137561 0.0932452 0.265121 0.132106 0.0959544 0.20293 0.0921531 0.116457 0.145045 0.155439 0.089128 0.0887817 0.0881394 0.150353 0.0867059 0.0751373 0.122822 0.0711456 0.0888374 0.110675 0.161178 0.238993 0.070301 0.153561
threshold=300.10166666666674 4751.4700000000003 4813.5000000000009 22556.630000000001 80236.330000000016 258.00000000000006 1.0000000180025095e-35 538.50000000000011 53074.94000000001 2146.7850000000003 17742.525000000005 1876.7550000000003 5024.3950000000013 1265.3100000000002 498.50000000000006 4751.4700000000003 1580.5000000000002 4930.1150000000007 2787.4250000000006 -1.0000000180025095e-35 1.0000000180025095e-35 4254.3450000000003 1825.2900000000002 1091.0916666666669 -1.0000000180025095e-35 1233.3300000000002 1644.5650000000003 21325.880000000001 3257.2400000000002 77071.74500000001 154118.10500000001 6866.5833333333348 1.0000000180025095e-35 761.50000000000011 6514.4900000000007 20062.110000000004 4618.3150000000014 5631.8600000000015
decision_type=2 2 2 2 2 2 2 2 2 2 2 2 2 2 2 2 2 2 2 2 2 2 2 2 2 2 2 2 2 2 2 2 2 2 2 2 2 2
left_child=1 6 28 -4 5 -2 7 -1 -6 10 11 12 -7 14 -12 20 17 -17 19 -18 21 22 23 -11 -22 -25 -15 -28 31 36 -31 32 -3 34 -34 -36 -20 -38
right_child=4 2 3 -5 8 9 -8 -9 -10 15 13 -13 -14 26 -16 16 18 -19 29 -21 24 -23 -24 25 -26 -27 27 -29 -30 30 -32 -33 33 -35 35 -37 37 -39
leaf_value=-0.020515408991895169 -0.010318882609685423 -0.0093051917849367363 0.019641320000602366 -0.011854303609065338 -0.014022158934410519 0.00057979088317911486 0.0018119164370718984 0.0008306188257596875 -0.0017485727770779377 0.002564033536119838 0.0067844457557015778 -0.0042163813165758115 0.015019057475739063 -0.013427147976957139 -0.011862359395322595 0.0040531742304758152 -0.0013978909701597494 -0.0075056681196080466 -0.0012304386650484574 0.0096581760498317612 -0.0054082091538627435 0.01468413198137385 0.007742453373681824 -0.013651837533156444 0.0068722107330789371 -0.0027008124684243595 -0.014512432187395613 0.0076488580254579939 0.0015929736944795341 -0.0061447012043954153 0.009614686060436169 -0.010937700057467477 0.013576417420740946 -0.012220625588672164 -0.017673945863064165 0.0093189886900781147 0.0028382511666783048 0.00029398527789893636
leaf_weight=14.999999999999998 29 138 20 23 17 597 107 20 859 157 21 129 12.999999999999998 67 13.999999999999998 25 70 131 589 71 13.999999999999998 12.999999999999998 52 18 121 124 13.000000000000002 12.999999999999998 15.999999999999998 13.999999999999998 42 254 14.999999999999998 18 15.000000000000002 12.999999999999998 525 12398
leaf_count=15 29 138 20 23 17 597 107 20 859 157 21 129 13 67 14 25 70 131 589 71 14 13 52 18 121 124 13 13 16 14 42 254 15 18 15 13 525 12398
internal_value=-9.67004e-05 -0.00638251 -0.00796272 0.00279482 0.000158066 0.00028119 -0.000684815 -0.00831768 -0.00198676 0.000301373 -0.00117068 -3.42393e-06 0.000887513 -0.00790973 -0.000674276 0.000390224 0.000319794 -0.00565329 0.000387764 0.00416935 0.00234718 0.00114127 0.000639678 -0.000595587 0.00559869 -0.00408897 -0.0106327 -0.00343179 -0.00894902 0.000348465 0.00567484 -0.00932137 -0.00725831 -0.00262766 0.001388 -0.00514151 0.00032639 0.000397347
internal_weight=16790 654 512 43 16136 15260 142 35 876 15231 867 739 610 128 35 14364 13865 156 13709 141 499 364 351 299 135 142 93 26 469 13568 56 453 199 61 43 28 13512 12923
internal_count=16790 654 512 43 16136 15260 142 35 876 15231 867 739 610 128 35 14364 13865 156 13709 141 499 364 351 299 135 142 93 26 469 13568 56 453 199 61 43 28 13512 12923
is_linear=0
shrinkage=0.145712


Tree=19
num_leaves=39
num_cat=0
split_feature=9 0 3 3 0 2 1 1 9 0 0 0 0 9 4 1 2 3 1 9 9 4 2 3 3 3 2 2 2 3 1 3 0 1 9 10 9 0
split_gain=1.5448 0.502082 0.133263 0.139929 0.590464 0.233156 0.152808 0.144845 0.110075 0.08094 0.0744062 0.0686296 0.0693085 0.0587721 0.111067 0.088847 0.0931424 0.0670462 0.0689749 0.0580849 0.0810426 0.0481835 0.0517924 0.0467368 0.0421682 0.102243 0.0936373 0.0510064 0.0410936 0.0386172 0.0384662 0.0477938 0.0372173 0.109646 0.0369404 0.0965853 0.152982 0.112398
threshold=0.79124922526957298 839.00000000000011 7111.1150000000007 7372.5133333333342 4813.5000000000009 23560.045000000002 7037.4000000000005 8182.7000000000016 0.11070860276909621 5843.0000000000009 922.50000000000011 710.50000000000011 300.50000000000006 0.11070860276909621 1.0000000180025095e-35 7388.795000000001 21991.155000000002 7591.0200000000013 7980.1650000000009 0.046198318622353511 0.075468329312936802 -1.0000000180025095e-35 13235.875000000002 6481.796666666668 6817.6750000000011 7111.1150000000007 20404.780000000002 24235.185000000001 20900.950000000004 6431.6150000000007 6687.3700000000008 6633.423333333335 613.50000000000011 7125.0000000000009 45.555000000000007 1.0000000180025095e-35 48.795000000000009 6498.0000000000009
decision_type=2 2 2 2 2 2 2 2 2 2 2 2 2 2 2 2 2 2 2 2 2 2 2 2 2 2 2 2 2 2 2 2 2 2 2 2 2 2
left_child=1 11 8 4 6 -5 -4 -7 -3 -9 -10 12 19 14 15 23 -17 -18 -19 21 -21 -1 -23 -14 26 -26 29 -27 30 -24 -12 -32 33 -25 -2 -36 -37 -38
right_child=34 2 3 5 -6 7 -8 9 10 -11 28 -13 13 -15 -16 16 17 18 -20 20 -22 22 24 32 25 27 -28 -29 -30 -31 31 -33 -34 -35 35 36 37 -39
leaf_value=-0.017807392473882525 0.00058706614112351394 0.0027737101453602624 0.0064970592639933692 -0.012845262695465317 0.024614390942949916 0.011600221382534867 -0.013267404147960588 -0.013397181013127122 0.0004229970285109044 -0.0018020801573120112 -0.011133889273385949 -0.013866055302176619 -0.013994326361717314 0.0014855344007623369 0.0046560315711085742 0.0076998105873754483 -0.010381549203332896 -0.0067549357223664437 0.0047951251564598459 0.00014807126773174218 -0.010883127120897226 -0.018044328041620799 -0.0044494433250809673 -0.0060046744167688701 -0.016652446459179703 -0.0061535591075200331 0.0031459309199437613 -0.015441320123840318 -0.014406268967323738 -0.013791538472057274 -0.010763480490023068 0.00097322074328139131 -0.0019361007378020255 -0.017810693716907217 -0.00024643905785006061 -0.0031565653457494174 0.0024430978031367073 0.00033222274380185476
leaf_weight=15.999999999999998 8035 22 12.999999999999998 42 21 17 23 12.999999999999998 17 763 37 37 37 22 18 12.999999999999998 35 26 19 31 26 13.999999999999998 17 61 38 77 18 14.999999999999998 31 21 13.000000000000002 17 18 23 4769 183 931 1261
leaf_count=16 8035 22 13 42 21 17 23 13 17 763 37 37 37 22 18 13 35 26 19 31 26 14 17 61 38 77 18 15 31 21 13 17 18 23 4769 183 931 1261
internal_value=-8.261e-05 -0.00437283 -0.00243824 -0.00178838 0.00519673 -0.00226521 -0.00613024 -0.00170485 -0.00666946 -0.00199633 -0.00847598 -0.00779327 -0.00738099 -0.00573477 -0.00637016 -0.00722564 -0.00373954 -0.00559844 -0.00187824 -0.00902118 -0.0048837 -0.010113 -0.00949747 -0.00955806 -0.00885416 -0.0102941 -0.00551136 -0.00766787 -0.0100197 -0.00961218 -0.00799007 -0.00411268 -0.00794883 -0.00923727 0.000372726 0.000131654 0.000890865 0.00122877
internal_weight=16790 1611 1029 892 57 835 36 793 137 776 115 582 545 272 250 232 93 80 45 273 57 216 200 139 186 130 56 92 98 38 67 30 102 84 15179 7144 2375 2192
internal_count=16790 1611 1029 892 57 835 36 793 137 776 115 582 545 272 250 232 93 80 45 273 57 216 200 139 186 130 56 92 98 38 67 30 102 84 15179 7144 2375 2192
is_linear=0
shrinkage=0.145712


Tree=20
num_leaves=39
num_cat=0
split_feature=9 0 6 6 0 6 9 1 1 3 3 1 6 1 0 6 8 1 1 0 9 1 7 0 3 7 1 3 1 1 6 6 9 8 7 7 8 6
split_gain=1.18069 0.391936 0.19955 0.145285 0.133516 0.1819 0.125741 0.120636 0.501009 0.120627 0.170381 0.256893 0.116466 0.180779 0.107008 0.126434 0.0964545 0.0643254 0.118246 0.0635645 0.0597426 0.136787 0.408828 0.261849 0.216719 0.156747 0.164271 0.237145 0.13022 0.12403 0.0887184 0.261318 0.146713 0.269206 0.139928 0.118958 0.118828 0.114374
threshold=6.995000000000001 1458.0000000000002 3988.3600000000006 30510.730000000007 4813.5000000000009 2842.5000000000005 5.9750000000000005 7388.795000000001 7503.1250000000009 7824.7250000000013 8158.545000000001 8182.7000000000016 9534.1950000000015 3832.3100000000004 4546.5000000000009 9270.6400000000012 1.0000000180025095e-35 13239.590000000002 10226.405000000002 15652.000000000002 12.995000000000003 18676.060000000001 26872.990000000002 5843.0000000000009 5708.4166666666679 5998.630000000001 5400.3350000000009 4695.1250000000009 56068.070000000007 3730.7350000000001 18608.000000000004 21877.150000000005 12.055000000000001 1.0000000180025095e-35 7388.130000000001 5353.1250000000009 1.0000000180025095e-35 25341.480000000007
decision_type=2 2 2 2 2 2 2 2 2 2 2 2 2 2 2 2 2 2 2 2 2 2 2 2 2 2 2 2 2 2 2 2 2 2 2 2 2 2
left_child=1 6 4 12 5 -3 7 -1 -9 -10 11 16 13 -4 -15 -16 -11 18 -14 -5 21 23 -23 25 -25 26 27 29 -24 -2 32 -32 34 -34 35 -26 -36 -33
right_child=20 2 3 19 -6 -7 -8 8 9 10 -12 -13 17 14 15 -17 -18 -19 -20 -21 -22 22 28 24 30 -27 -28 -29 -30 -31 31 37 33 -35 36 -37 -38 -39
leaf_value=-0.0077145027588760105 -0.0014438343685944995 -0.011399143008886324 -0.012926088447872727 0.00887906952853291 0.016343438878358155 0.010256560683021514 0.0059889895533431605 0.017267634242193419 -0.0080804930291356811 0.0050664588121727208 -0.0097956423621351207 -0.011472709773547859 -0.007022056898783156 0.01243482151252117 -0.010750878686527214 0.0073626439502092467 0.022496703159883981 -0.013408470402655475 0.0038883762325325581 -0.0013847431307049448 0.0003846093822065423 -0.010932825831049982 0.0058860577795995239 0.020029540867554083 0.0057926615328864218 -0.011793804139106618 0.010841100926580513 -0.015948662718841045 -0.0027590703465241459 0.0067441445470017066 0.012517809759617691 -0.0046301462572230752 -0.0086301776728593162 0.015006386657893051 0.0070300444507009419 -0.0090024986642780296 -0.0017817822402004867 0.0043864802396269423
leaf_weight=464 198 13.999999999999998 17 12.999999999999998 20 20 18 22 151 14 26 12.999999999999998 174 21 14.999999999999998 18 13 26 24 882 13828 70 94 18 14.999999999999998 26 27 21 61 49 81 37 13.999999999999998 38 66 50 64 155
leaf_count=464 198 14 17 13 20 20 18 22 151 14 26 13 174 21 15 18 13 26 24 882 13828 70 94 18 15 26 27 21 61 49 81 37 14 38 66 50 64 155
internal_value=2.38532e-05 -0.00333355 -0.00176687 -0.00216 0.00689652 0.00133951 -0.00603667 -0.00634458 -0.00368498 -0.00580921 -0.000612793 0.00535606 -0.00496436 0.000178199 0.00430362 -0.000870775 0.0134588 -0.00659436 -0.00569958 -0.00123566 0.000466269 0.00150795 -0.00169027 0.00234567 0.00431078 -0.000947873 8.03961e-06 -0.00108335 0.00248378 0.000180502 0.00376666 0.00557704 0.00176572 0.0086427 -6.81341e-05 -0.00558823 0.00269191 0.0026489
internal_weight=16877 1965 1244 1190 54 34 721 703 239 217 66 40 295 71 54 33 27 224 198 895 14912 1084 225 859 538 321 295 268 155 247 520 273 247 52 195 65 130 192
internal_count=16877 1965 1244 1190 54 34 721 703 239 217 66 40 295 71 54 33 27 224 198 895 14912 1084 225 859 538 321 295 268 155 247 520 273 247 52 195 65 130 192
is_linear=0
shrinkage=0.145712


Tree=21
num_leaves=39
num_cat=0
split_feature=9 9 1 1 3 3 1 1 1 1 3 1 3 1 1 8 9 1 3 9 1 9 1 4 1 3 1 3 3 9 1 9 9 9 4 9 3 2
split_gain=0.861679 0.282031 0.10021 0.0998144 0.0761088 0.15131 0.0675711 0.246854 0.175854 0.154661 0.153369 0.294823 0.199839 0.199799 0.0598152 0.0553902 0.0969007 0.121347 0.14292 0.217378 0.140559 0.11447 0.111904 0.0969681 0.0895637 0.157924 0.257942 0.14448 0.138448 0.120322 0.116202 0.115442 0.104218 0.270671 0.130125 0.128434 0.103967 0.180493
threshold=6.995000000000001 0.057784353150919961 862.57000000000016 17160.730000000007 7824.7250000000013 8036.3283333333338 7678.1750000000011 7561.0300000000016 7980.1650000000009 8182.7000000000016 7416.7400000000007 7388.795000000001 7324.2083333333348 7181.5300000000016 7434.1300000000001 1.0000000180025095e-35 12.995000000000003 5684.1050000000005 10669.770000000002 10.675000000000002 8680.2300000000014 14.125000000000002 1158.49 -1.0000000180025095e-35 13239.590000000002 13968.010000000002 13813.380000000003 11868.005000000003 11720.305000000002 46.600000000000009 12688.995000000003 61.590000000000011 17.565000000000001 19.650000000000002 1.0000000180025095e-35 20.455000000000002 10092.395000000002 25664.290000000005
decision_type=2 2 2 2 2 2 2 2 2 2 2 2 2 2 2 2 2 2 2 2 2 2 2 2 2 2 2 2 2 2 2 2 2 2 2 2 2 2
left_child=1 4 -3 6 -1 -6 7 10 -8 -10 11 12 13 -4 -12 -2 17 22 19 20 -19 23 -17 -18 27 26 -26 28 36 30 -29 -31 -27 34 -34 -35 37 -23
right_child=15 2 3 -5 5 -7 8 -9 9 -11 14 -13 -14 -15 -16 16 21 18 -20 -21 -22 24 -24 -25 25 32 -28 29 -30 31 -32 -33 33 35 -36 -37 -38 -39
leaf_value=-0.0070597921221135333 0.0005892015904253382 0.0088225967690880643 -0.0030889145830986045 -0.0010887978788352184 0.0099991974047257265 -0.0086986218235940767 -0.01298926441646882 0.011014901942138167 0.0087971286621859445 -0.005043137462479497 -0.0080324640822710593 0.015235898597063015 0.009850965134526395 -0.014794885225348062 -0.02006281590516884 0.0068172446995975961 -0.013939195172290059 -0.0042751850512503711 0.00050583805161938042 0.012863904205014298 0.0082022929722961775 -0.00058407186678371406 -0.0056695999544247979 -0.0027369337177936509 0.0019024742003226887 -0.0057945821512427158 0.016346625464451578 -0.013592569717297847 0.0098919218331644243 0.0017497283609615368 -0.00051123144489247216 -0.0089311946130274725 0.012766468549539518 -0.010965441884498044 -0.00095846427931075943 0.00028312561041514048 -0.0033489035043764845 0.0032988789265913443
leaf_weight=347 10200 18 346 882 17 20 52 27 20 120 27 19 23 34 12.999999999999998 20 21 41 156 68 36 2164 64 75 105 56 35 46 28 70 21 31 55 22 20 1057 233 288
leaf_count=347 10200 18 346 882 17 20 52 27 20 120 27 19 23 34 13 20 21 41 156 68 36 2164 64 75 105 56 35 46 28 70 21 31 55 22 20 1057 233 288
internal_value=2.03775e-05 -0.00284781 -0.00198749 -0.00211198 -0.00638993 -0.000107732 -0.00343716 -0.00252766 -0.00575352 -0.00306596 -0.00331911 -0.00250174 -0.00333801 -0.00413629 -0.0119423 0.000398328 -1.48548e-05 0.00220038 0.00356696 0.00686031 0.00155844 -0.000211958 -0.00269654 -0.00518743 -9.90663e-05 0.0008803 0.00551351 -0.000557985 -0.000301207 -0.00470464 -0.00949245 -0.00152857 0.000344226 0.000642124 0.00910649 5.37758e-05 -0.000407504 -0.000127999
internal_weight=16877 1965 1581 1563 384 37 681 489 192 140 462 422 403 380 40 14912 4712 385 301 145 77 4327 84 96 4231 1350 140 2881 2713 168 67 101 1210 1154 75 1079 2685 2452
internal_count=16877 1965 1581 1563 384 37 681 489 192 140 462 422 403 380 40 14912 4712 385 301 145 77 4327 84 96 4231 1350 140 2881 2713 168 67 101 1210 1154 75 1079 2685 2452
is_linear=0
shrinkage=0.145712


Tree=22
num_leaves=39
num_cat=0
split_feature=9 9 3 2 3 6 5 5 5 9 5 5 5 5 8 6 2 3 4 6 6 9 6 6 9 9 2 2 2 5 3 5 6 5 6 3 5 5
split_gain=0.632619 0.153067 0.122285 0.0684318 0.0622456 0.0825466 0.159702 0.0779934 0.115241 0.131537 0.075061 0.163284 0.069286 0.0798038 0.0648287 0.0624627 0.0906031 0.0503283 0.0578551 0.0430915 0.0450098 0.0422427 0.0392804 0.157985 0.0934421 0.132935 0.148902 0.12214 0.0890338 0.0605111 0.0776174 0.0589679 0.147447 0.166283 0.156898 0.131638 0.176723 0.121656
threshold=0.17185845233084307 6.995000000000001 3727454.188825706 2587.7000000000003 1643.3700000000001 1570.0000000000002 4781.5650000000014 9954.6050000000014 4118.0600000000004 0.45593567564231857 16621.545000000002 15075.165000000003 1251.0250000000003 2182.2850000000003 1.0000000180025095e-35 168328.11500000002 78007.155000000013 5632.7050000000008 1.0000000180025095e-35 866.00000000000011 690.90000000000009 0.20541507803935385 154118.10500000001 126433.62000000001 24.155000000000005 40.265000000000008 230295.95500000005 207478.65500000003 207478.65500000003 45555.340000000004 77071.74500000001 35596.090000000004 82407.785000000018 53407.950000000004 76323.310000000012 44368.515000000007 30901.850000000002 53407.950000000004
decision_type=2 2 2 2 2 2 2 2 2 2 2 2 2 2 2 2 2 2 2 2 2 2 2 2 2 2 2 2 2 2 2 2 2 2 2 2 2 2
left_child=2 3 -1 -2 -5 6 -6 8 9 -7 11 14 -11 -14 -9 16 -12 -10 -19 20 -3 -17 23 31 -24 28 27 -27 -26 -25 -31 35 33 -33 -35 36 -21 -34
right_child=1 19 -4 4 5 7 -8 10 17 12 15 -13 13 -15 -16 21 -18 18 -20 22 -22 -23 24 29 25 26 -28 -29 -30 30 -32 32 37 34 -36 -37 -38 -39
leaf_value=-0.0046505587249145346 0.007537036541928081 0.0005705067092906319 0.0014318659422660914 -0.0097883517817086759 -0.0029358158187750912 -0.010420302862916836 0.016953730569602254 -0.0037978924170148152 -0.014079148699401352 0.0081806373104688582 -0.00011872201623898756 0.016681438054273877 -0.0087876126465550198 0.0021760069402298877 0.0067743175893265279 0.0031022970792569638 -0.0129168642559812 -0.0040688276354033234 -0.011869641066357191 0.00030667163124992045 0.0050651232139380161 -0.0012238996558493849 -0.0029134556709020775 -0.001741707547871544 0.0019471423530608208 0.0010452463405960257 -0.0066153476483824204 0.011094566455627335 0.011789983512341595 -0.0050139430229518105 -0.017380262235225305 -0.0058844676009380485 0.0046912895763067475 0.017233524491099789 -0.0038417617032196058 -0.0027886193371363015 0.0090734770269375407 -0.0013527219376105566
leaf_weight=700 18 110 78 19 20 22 14.999999999999998 35 13.999999999999998 28 24 15.999999999999998 18 65 19 52 23 165 23 13333 83 611 71 106 32 130 43 32 50 63 12.999999999999998 87 295 15 15 292 49 93
leaf_count=700 18 110 78 19 20 22 15 35 14 28 24 16 18 65 19 52 23 165 23 13333 83 611 71 106 32 130 43 32 50 63 13 87 295 15 15 292 49 93
internal_value=1.74082e-05 0.000213523 -0.00404075 -0.00137898 -0.00151626 -0.00137959 0.00558828 -0.00159832 -0.00345789 -0.000127259 -0.000799656 0.0037527 0.0019128 -0.000201646 -7.80407e-05 -0.00124848 -0.00638164 -0.00565082 -0.00502318 0.000340286 0.00250342 -0.00088459 0.000311923 0.000274339 0.00181955 0.00299044 0.00100706 0.0030303 0.00794887 -0.00399144 -0.00712923 0.000329095 0.00187536 -0.00265874 0.00669588 0.000271989 0.000338772 0.0032426
internal_weight=16877 16099 778 1187 1169 1150 35 1115 335 133 780 70 111 83 54 710 47 202 188 14912 193 663 14719 14361 358 287 205 162 82 182 76 14179 505 117 30 13674 13382 388
internal_count=16877 16099 778 1187 1169 1150 35 1115 335 133 780 70 111 83 54 710 47 202 188 14912 193 663 14719 14361 358 287 205 162 82 182 76 14179 505 117 30 13674 13382 388
is_linear=0
shrinkage=0.145712


Tree=23
num_leaves=39
num_cat=0
split_feature=9 9 3 7 7 7 8 3 9 9 9 9 5 10 7 3 8 5 5 4 4 5 5 3 9 5 4 9 9 9 5 3 3 10 7 7 9 9
split_gain=0.46169 0.111709 0.0892448 0.0492869 0.0480638 0.25521 0.157549 0.104262 0.192436 0.136859 0.117624 0.223304 0.167101 0.163064 0.163029 0.15495 0.133026 0.184311 0.122908 0.195385 0.123009 0.116314 0.114704 0.145719 0.14289 0.114461 0.101162 0.15748 0.132419 0.126783 0.196474 0.119181 0.117647 0.149525 0.194027 0.1299 0.129897 0.241572
threshold=0.17185845233084307 6.995000000000001 3727454.188825706 1377863.1522952996 8560.9450000000015 8501.9200000000019 -1.0000000180025095e-35 12690.820000000002 17.565000000000001 18.845000000000002 71.235000000000014 73.620000000000019 3164.8500000000008 -1.0000000180025095e-35 8675.090000000002 8830.6950000000015 1.0000000180025095e-35 6450.8250000000007 2635.6400000000008 1.0000000180025095e-35 1.0000000180025095e-35 4118.0600000000004 9370.2700000000023 7850.9350000000004 16.570000000000004 3680.0000000000005 1.0000000180025095e-35 10.265000000000002 16.200000000000006 9.4250000000000025 1906.0850000000003 6579.0300000000016 8479.4750000000022 1.0000000180025095e-35 8297.7300000000014 5146.1600000000008 17.565000000000001 13.415000000000001
decision_type=2 2 2 2 2 2 2 2 2 2 2 2 2 2 2 2 2 2 2 2 2 2 2 2 2 2 2 2 2 2 2 2 2 2 2 2 2 2
left_child=2 -2 -1 -4 5 26 -7 8 22 -10 12 13 18 -12 -14 -15 17 -13 20 -20 -11 -18 23 -6 -25 -9 29 -28 -29 30 -3 -32 35 34 -34 -31 37 -37
right_child=1 4 3 -5 7 6 -8 25 9 10 11 16 14 15 -16 -17 21 -19 19 -21 -22 -23 -24 24 -26 -27 27 28 -30 32 31 -33 33 -35 -36 36 -38 -39
leaf_value=-0.0039729155122404077 -0.001178043191638035 -0.0016665107900272543 0.0030104939895141043 -0.0062833025799742068 -0.0027814902336119945 0.015955455852599991 0.0025879397854647575 0.011685664630268548 -0.016218746880069843 -0.014573580176308408 0.011143764707022151 -0.0057120162869157077 -0.013915520413675397 -0.0087919828426312897 -0.0020464540565013397 0.0060252207007598759 0.0039373436500128147 0.0048105776375245192 0.0078140961635324285 -0.0059274025210995004 0.00075135575917016032 -0.011927937811373584 -0.0066975983562485913 0.0037315930969536379 0.014693948488383438 0.0003544069512873245 -0.0064548711789430861 0.0035575372565829272 -0.00039153322381448458 0.00097144448001310816 0.013859249414735309 -0.0012566687901277354 0.0044896150953877305 -0.0012993573137757288 -0.012934440733068774 -0.0012515288225675195 -0.00033559220110324593 -0.016485213758904427
leaf_weight=700 1187 46 63 14.999999999999998 63 36 39 19 12.999999999999998 14.999999999999998 65 60 25 23 1432 43 12.999999999999998 86 102 28 43 40 26 195 29 4964 85 196 2248 3060 53 13.999999999999998 441 154 13.999999999999998 77 1134 31
leaf_count=700 1187 46 63 15 63 36 39 19 13 15 65 60 25 23 1432 43 13 86 102 28 43 40 26 195 29 4964 85 196 2248 3060 53 14 441 154 14 77 1134 31
internal_value=1.48716e-05 0.00018241 -0.00345197 0.00122323 0.000290702 0.000546335 0.00900435 2.29968e-05 -0.000788264 -0.00131701 -0.00121892 0.00129173 -0.00172257 0.00596346 -0.00225011 0.00086165 -0.00178363 0.000486224 0.00236583 0.00485439 -0.00321199 -0.00803645 0.00257001 0.00340959 0.00515083 0.000397613 0.000462349 -0.000289266 -7.4832e-05 0.000840699 0.00566626 0.0107007 0.000729665 0.00262518 0.00395349 0.000461332 -0.000795468 -0.00562416
internal_weight=16877 16099 778 78 14912 7628 75 7284 2301 1988 1975 330 1645 131 1457 66 199 146 188 130 58 53 313 287 224 4983 7553 2529 2444 5024 113 67 4911 609 455 4302 1242 108
internal_count=16877 16099 778 78 14912 7628 75 7284 2301 1988 1975 330 1645 131 1457 66 199 146 188 130 58 53 313 287 224 4983 7553 2529 2444 5024 113 67 4911 609 455 4302 1242 108
is_linear=0
shrinkage=0.145712


Tree=24
num_leaves=39
num_cat=0
split_feature=9 1 0 6 6 1 0 9 8 10 1 1 9 0 1 9 9 9 0 6 9 0 8 0 1 9 10 9 9 0 1 6 9 6 6 0 1 0
split_gain=0.275727 0.07411 0.0823295 0.0617469 0.181082 0.180216 0.237903 0.208989 0.180986 0.25011 0.308605 0.227287 0.178525 0.169398 0.126539 0.125831 0.117023 0.169634 0.135037 0.148054 0.114835 0.108011 0.145145 0.107398 0.104836 0.103487 0.102949 0.0991904 0.160926 0.110152 0.223427 0.175592 0.169436 0.146922 0.124852 0.11335 0.104896 0.134275
threshold=0.79124922526957298 2102.3150000000005 444.50000000000006 23809.395000000004 27067.380000000001 20213.505000000005 14670.000000000002 13.715000000000002 1.0000000180025095e-35 1.0000000180025095e-35 14079.635 8515.1600000000017 63.985000000000007 9780.0000000000018 14884.775000000003 16.955000000000002 73.620000000000019 67.045000000000016 67385.000000000015 62225.140000000007 63.290000000000006 14962.500000000002 -1.0000000180025095e-35 26550.000000000004 18676.060000000001 12.31 1.0000000180025095e-35 58.180000000000007 44.870000000000012 14670.000000000002 23771.965000000004 122678.27500000001 60.855000000000011 82407.785000000018 53663.655000000006 11916.500000000002 79853.565000000017 77261.500000000015
decision_type=2 2 2 2 2 2 2 2 2 2 2 2 2 2 2 2 2 2 2 2 2 2 2 2 2 2 2 2 2 2 2 2 2 2 2 2 2 2
left_child=1 2 -1 24 5 6 8 -8 9 10 11 -5 -7 15 -11 -10 17 27 19 23 -9 22 -18 -19 -2 -13 -22 28 -6 35 32 33 -31 -32 -34 -29 37 -30
right_child=3 -3 -4 4 16 12 7 20 13 14 -12 25 -14 -15 -16 -17 21 18 -20 -21 26 -23 -24 -25 -26 -27 -28 29 36 30 31 -33 34 -35 -36 -37 -38 -39
leaf_value=-0.015768950329659377 -6.5391535222399764e-05 -0.0017590988592458552 -0.00067975529088778639 -0.0068870186521295838 0.00050685834055945651 -0.018341646711609122 -0.007919550548810628 0.011070420691553822 0.011884189117581994 -0.0034831785488648342 -0.011575769273992809 -0.0022950271223252331 0.0015395388191515923 -0.0063373012256927536 0.0093006673036903405 -0.0014153656502552264 0.01266077398061447 -0.0038833442034525794 0.0050447870426571896 -0.010249267156860723 -0.0041892072202513826 0.0014102862101307153 -0.00064546722019894777 0.0037495892285529138 -0.0068222670730620051 0.0095313661122184423 0.010764508079321847 -0.0055580197176374937 -0.0018249511712088733 0.0043834538511595498 0.0013798774213412458 -0.0024041700820529744 -0.0031745317790686711 0.009078486506205536 -0.013917531946627492 0.009257806959810903 -0.013885768416374325 0.013101410005859479
leaf_weight=17.000000000000004 9704 1550 13.999999999999998 22 2595 17 17 133 23 122 20 17 22 99 19 44 46 212 39 65 23 300 28 48 49 207 17 12.999999999999998 816 49 92 75 98 123 30 70 14.999999999999998 12.999999999999998
leaf_count=17 9704 1550 14 22 2595 17 17 133 23 122 20 17 22 99 19 44 46 212 39 65 23 300 28 48 49 207 17 13 816 49 92 75 98 123 30 70 15 13
internal_value=-6.8324e-05 -0.00190018 -0.00895448 0.000121191 0.0005102 0.00253469 0.00302852 0.00749673 0.00154691 0.00320077 0.00583063 0.00724578 -0.00712662 -0.00250803 -0.00176053 0.00315015 0.000166718 -4.57924e-05 -0.00305699 -0.0040292 0.00901162 0.00264013 0.00762598 -0.00247419 -9.93387e-05 0.00863383 0.00216612 0.000228982 -6.15967e-05 0.00204589 0.00117655 0.00366652 -0.00290306 0.0057842 -0.00569242 0.00693726 -0.00180939 -0.00159088
internal_weight=16863 1581 31 15282 5529 802 763 190 573 407 266 246 39 166 141 67 4727 4353 364 325 173 374 74 260 9753 224 40 3989 3439 550 467 290 177 215 128 83 844 829
internal_count=16863 1581 31 15282 5529 802 763 190 573 407 266 246 39 166 141 67 4727 4353 364 325 173 374 74 260 9753 224 40 3989 3439 550 467 290 177 215 128 83 844 829
is_linear=0
shrinkage=0.145712


Tree=25
num_leaves=39
num_cat=0
split_feature=7 4 5 5 5 1 1 5 6 1 7 6 1 5 6 6 6 7 5 6 4 5 7 5 5 5 2 1 1 2 1 1 1 3 2 5 6 5
split_gain=0.157264 0.151723 0.263533 0.234882 0.0837231 0.194611 0.147903 0.055837 0.0535589 0.112488 0.122119 0.11683 0.177593 0.0932531 0.0781009 0.135597 0.15817 0.152741 0.131665 0.169557 0.191965 0.0908428 0.108283 0.0860945 0.0819323 0.0665983 0.0594893 0.0582803 0.146135 0.145547 0.110945 0.162573 0.146283 0.108969 0.232854 0.057394 0.0568321 0.0528178
threshold=1.0000000180025095e-35 -1.0000000180025095e-35 835.61500000000012 4886.1550000000016 102.50000000000001 6801.5900000000011 263.09500000000008 4488.6800000000012 2146.7850000000003 1583.825 1233.3300000000002 2787.4250000000006 2644.7600000000007 1046.5000000000002 4618.3150000000014 5631.8600000000015 6214.3850000000011 2904.1600000000003 1752.8550000000002 4112.3900000000003 1.0000000180025095e-35 4065.6100000000001 5611.4250000000011 4294.8000000000011 1308.2200000000003 2081.8950000000004 5915.0950000000012 7836.755000000001 7980.1650000000009 24235.185000000001 7610.1450000000013 7434.1300000000001 7306.6150000000007 6988.1383333333342 21048.810000000001 1662.6950000000004 2787.4250000000006 1506.4300000000001
decision_type=2 2 2 2 2 2 2 2 2 2 2 2 2 2 2 2 2 2 2 2 2 2 2 2 2 2 2 2 2 2 2 2 2 2 2 2 2 2
left_child=1 2 -1 7 5 6 -2 -3 13 -10 36 12 26 27 18 21 17 -17 -13 20 -20 22 -16 -23 -18 -21 -12 30 -29 -30 31 32 33 34 -6 -28 -11 -38
right_child=4 3 -4 -5 8 -7 -8 -9 9 10 11 14 -14 -15 15 16 24 -19 19 25 -22 23 -24 -25 -26 -27 35 28 29 -31 -32 -33 -34 -35 -36 -37 37 -39
leaf_value=-0.00542000014015224 0.0077678448285236007 -0.0032811957076399785 0.019961125391993739 -0.018112347629472631 -0.00048822338921279782 0.019215033585409536 -0.01175960768277151 0.0061239443604267406 0.0021794991321894774 -0.0091385678255805815 0.0018994982096193383 -0.0036185937264240227 -0.0078830011534321634 -0.0068344750841756929 0.0022482501999259797 0.00064622680930134487 0.0036513541444312078 -0.0073586263467126161 0.0064016571230658134 0.0021844500773537858 -0.0035564679966908737 0.015101007567303469 -0.010328452822092703 0.00014434694134931743 2.7343462319952357e-06 -0.0073706891584461327 0.010390805149438147 -0.013250544822249119 0.012524719668552117 -0.0078191877108868043 0.010054907179838144 -0.013651587805643439 0.012633872300846845 -0.0063363793078649944 0.019159522043784381 -0.00018869837994152787 -0.0016126702935328411 -0.010194483723414529
leaf_weight=19 20 314 15.999999999999998 23 863 15.999999999999998 13.999999999999998 13.999999999999998 515 33 42 324 22 55 469 87 132 121 126 21 61 22 14.999999999999998 12.999999999999998 13010 59 67 26 14.000000000000002 15.999999999999998 21 20 18 66 12.999999999999998 12.999999999999998 146 17
leaf_count=19 20 314 16 23 863 16 14 14 515 33 42 324 22 55 469 87 132 121 126 21 61 22 15 13 13010 59 67 26 14 16 21 20 18 66 13 13 146 17
internal_value=-5.83684e-05 -0.00296566 0.0061828 -0.0038779 9.73964e-06 0.00596326 -0.000272871 -0.00287976 -8.3815e-06 6.25153e-05 -1.115e-05 3.73396e-05 0.00416725 -0.000984806 -3.78807e-06 6.61174e-05 -2.37168e-05 -0.00401044 -0.00164426 0.000751562 0.00315328 0.00237688 0.00185848 0.00954568 3.93816e-05 -0.00486247 0.00634024 -0.000680424 -0.00525491 0.00167464 -0.000424509 -0.000649067 -0.000378182 -0.00062682 -0.000196647 0.00867164 -0.00362413 -0.00250771
internal_weight=16863 386 35 351 16477 50 34 328 16427 15315 14800 14604 144 1112 14460 13869 13350 208 591 267 187 519 484 35 13142 80 122 1057 56 30 1001 980 960 942 876 80 196 163
internal_count=16863 386 35 351 16477 50 34 328 16427 15315 14800 14604 144 1112 14460 13869 13350 208 591 267 187 519 484 35 13142 80 122 1057 56 30 1001 980 960 942 876 80 196 163
is_linear=0
shrinkage=0.145712


Tree=26
num_leaves=39
num_cat=0
split_feature=7 4 0 7 0 2 2 0 6 7 3 3 0 2 2 6 6 2 0 0 10 7 6 7 2 0 4 7 7 2 2 7 2 6 3 2 2 4
split_gain=0.114773 0.110729 0.251868 0.0544176 0.147686 0.144075 0.0794654 0.0520485 0.0959398 0.090341 0.0804202 0.114925 0.0546492 0.114437 0.110244 0.0418846 0.248463 0.184683 0.160471 0.131043 0.20983 0.13054 0.129978 0.216514 0.125797 0.120859 0.205277 0.135561 0.129018 0.109612 0.102952 0.153349 0.122418 0.0981462 0.0944531 0.124187 0.0875979 0.104446
threshold=1.0000000180025095e-35 -1.0000000180025095e-35 892.00000000000011 160.58333333333337 165.50000000000003 20774.160000000003 12042.505000000003 340.50000000000006 1440.9050000000002 257.82166666666672 7766.4733333333343 6866.5833333333348 217.50000000000003 19527.195000000003 6854.1150000000007 17033.675000000003 16554.615000000002 45130.965000000004 14541.000000000002 6344.0000000000009 -1.0000000180025095e-35 12125.690000000002 13806.725 14096.785000000002 18859.145000000004 7782.5000000000009 1.0000000180025095e-35 9519.1500000000033 4643.3400000000011 32692.040000000005 24008.085000000003 7343.2150000000011 23560.045000000002 17818.810000000001 9191.6600000000017 27832.685000000001 18215.370000000003 1.0000000180025095e-35
decision_type=2 2 2 2 2 2 2 2 2 2 2 2 2 2 2 2 2 2 2 2 2 2 2 2 2 2 2 2 2 2 2 2 2 2 2 2 2 2
left_child=1 2 -1 4 5 -2 -6 8 10 -9 11 12 13 -5 -14 16 17 21 -19 20 -17 34 23 -23 33 26 27 -26 -28 -24 32 -32 -27 -21 -11 -36 37 -35
right_child=3 -3 -4 7 6 -7 -8 9 -10 15 -12 -13 14 -15 -16 19 -18 18 -20 24 -22 22 29 -25 25 30 28 -29 -30 -31 31 -33 -34 36 35 -37 -38 -39
leaf_value=-0.0048107060885771904 0.007274588463991526 -0.0033128457494111052 0.02042078618388744 -0.00085080288480635774 0.0041566718727365738 -0.013278628389781789 0.018269961694885165 0.0098088654416039235 -0.01350315819769091 -0.00020522702385758685 0.0096613038221647091 -0.0071347901921560795 0.00074282553828476606 0.01548945595239066 -0.013474409114215756 -0.0095989890280568767 -0.0065721100923356859 0.015474129849828443 -0.00033270119104583369 0.0043455510169547028 0.0094410902303334269 -0.0052347003702956155 -0.013749584367428838 0.0079611361164606629 0.0028556572657780833 -0.0023222419940136766 -0.01530165313797552 0.010029191347536142 -0.0007278505237255531 -0.0040932519018442581 0.0029909964982944848 2.7466491225204218e-05 -0.016608278105309422 -0.01385964796193527 0.012449839855477629 0.0014384975791205468 -0.019396278354425828 0.0011069566792397797
leaf_weight=21 14.000000000000002 351 13.999999999999998 26 18 14.999999999999998 15.999999999999998 20 14.999999999999998 7093 12.999999999999998 65 67 13.999999999999998 13.999999999999998 14.999999999999998 129 30 25 14.999999999999998 68 66 35 44 220 141 14.999999999999998 75 92 87 391 7150 13.999999999999998 18 23 399 12.999999999999998 22
leaf_count=21 14 351 14 26 18 15 16 20 15 7093 13 65 67 14 14 15 129 30 25 15 68 66 35 44 220 141 15 75 92 87 391 7150 14 18 23 399 13 22
internal_value=-4.98634e-05 -0.00253353 0.00528189 8.32047e-06 0.00428261 -0.00335639 0.0107982 -8.08505e-06 -0.00226567 2.17373e-05 -0.00141862 -0.00219302 0.000461645 0.00486829 -0.00171447 9.63952e-06 -0.000229456 -0.000124585 0.00828921 0.000239518 0.00600011 -0.000184319 -0.00358857 4.36342e-05 0.000180966 0.000233374 0.00269639 0.00467944 -0.00277091 -0.00686351 0.000104718 0.000181125 -0.00361259 -0.00606013 -7.9224e-05 0.00203864 -0.00900514 -0.00562802
internal_weight=16863 386 35 16477 63 29 34 16414 214 16200 199 186 121 40 81 16180 7931 7802 55 8249 83 7747 232 110 8166 8098 402 295 107 122 7696 7541 155 68 7515 422 53 40
